{"learner":{"attributes":{"scikit_learn":"{\"_estimator_type\": \"classifier\"}"},"feature_names":["price_trend_30d","month","msp_gap","distance_from_min","trend_strength","drawdown_7","price_spread_ratio","price_vs_7d_avg","rain_7d_sum","temp_7d_avg","is_raining_today","weather_shock_flag","year_norm","surrounding_price","price_wave_lag_score","cbot_price_inr","cbot_7day_trend","days_from_harvest_start"],"feature_types":["float","int","float","float","float","float","float","float","float","float","float","float","float","float","float","float","float","float"],"gradient_booster":{"model":{"cats":{"enc":[],"feature_segments":[],"sorted_idx":[]},"gbtree_model_param":{"num_parallel_tree":"1","num_trees":"600"},"iteration_indptr":[0,1,2,3,4,5,6,7,8,9,10,11,12,13,14,15,16,17,18,19,20,21,22,23,24,25,26,27,28,29,30,31,32,33,34,35,36,37,38,39,40,41,42,43,44,45,46,47,48,49,50,51,52,53,54,55,56,57,58,59,60,61,62,63,64,65,66,67,68,69,70,71,72,73,74,75,76,77,78,79,80,81,82,83,84,85,86,87,88,89,90,91,92,93,94,95,96,97,98,99,100,101,102,103,104,105,106,107,108,109,110,111,112,113,114,115,116,117,118,119,120,121,122,123,124,125,126,127,128,129,130,131,132,133,134,135,136,137,138,139,140,141,142,143,144,145,146,147,148,149,150,151,152,153,154,155,156,157,158,159,160,161,162,163,164,165,166,167,168,169,170,171,172,173,174,175,176,177,178,179,180,181,182,183,184,185,186,187,188,189,190,191,192,193,194,195,196,197,198,199,200,201,202,203,204,205,206,207,208,209,210,211,212,213,214,215,216,217,218,219,220,221,222,223,224,225,226,227,228,229,230,231,232,233,234,235,236,237,238,239,240,241,242,243,244,245,246,247,248,249,250,251,252,253,254,255,256,257,258,259,260,261,262,263,264,265,266,267,268,269,270,271,272,273,274,275,276,277,278,279,280,281,282,283,284,285,286,287,288,289,290,291,292,293,294,295,296,297,298,299,300,301,302,303,304,305,306,307,308,309,310,311,312,313,314,315,316,317,318,319,320,321,322,323,324,325,326,327,328,329,330,331,332,333,334,335,336,337,338,339,340,341,342,343,344,345,346,347,348,349,350,351,352,353,354,355,356,357,358,359,360,361,362,363,364,365,366,367,368,369,370,371,372,373,374,375,376,377,378,379,380,381,382,383,384,385,386,387,388,389,390,391,392,393,394,395,396,397,398,399,400,401,402,403,404,405,406,407,408,409,410,411,412,413,414,415,416,417,418,419,420,421,422,423,424,425,426,427,428,429,430,431,432,433,434,435,436,437,438,439,440,441,442,443,444,445,446,447,448,449,450,451,452,453,454,455,456,457,458,459,460,461,462,463,464,465,466,467,468,469,470,471,472,473,474,475,476,477,478,479,480,481,482,483,484,485,486,487,488,489,490,491,492,493,494,495,496,497,498,499,500,501,502,503,504,505,506,507,508,509,510,511,512,513,514,515,516,517,518,519,520,521,522,523,524,525,526,527,528,529,530,531,532,533,534,535,536,537,538,539,540,541,542,543,544,545,546,547,548,549,550,551,552,553,554,555,556,557,558,559,560,561,562,563,564,565,566,567,568,569,570,571,572,573,574,575,576,577,578,579,580,581,582,583,584,585,586,587,588,589,590,591,592,593,594,595,596,597,598,599,600],"tree_info":[0,0,0,0,0,0,0,0,0,0,0,0,0,0,0,0,0,0,0,0,0,0,0,0,0,0,0,0,0,0,0,0,0,0,0,0,0,0,0,0,0,0,0,0,0,0,0,0,0,0,0,0,0,0,0,0,0,0,0,0,0,0,0,0,0,0,0,0,0,0,0,0,0,0,0,0,0,0,0,0,0,0,0,0,0,0,0,0,0,0,0,0,0,0,0,0,0,0,0,0,0,0,0,0,0,0,0,0,0,0,0,0,0,0,0,0,0,0,0,0,0,0,0,0,0,0,0,0,0,0,0,0,0,0,0,0,0,0,0,0,0,0,0,0,0,0,0,0,0,0,0,0,0,0,0,0,0,0,0,0,0,0,0,0,0,0,0,0,0,0,0,0,0,0,0,0,0,0,0,0,0,0,0,0,0,0,0,0,0,0,0,0,0,0,0,0,0,0,0,0,0,0,0,0,0,0,0,0,0,0,0,0,0,0,0,0,0,0,0,0,0,0,0,0,0,0,0,0,0,0,0,0,0,0,0,0,0,0,0,0,0,0,0,0,0,0,0,0,0,0,0,0,0,0,0,0,0,0,0,0,0,0,0,0,0,0,0,0,0,0,0,0,0,0,0,0,0,0,0,0,0,0,0,0,0,0,0,0,0,0,0,0,0,0,0,0,0,0,0,0,0,0,0,0,0,0,0,0,0,0,0,0,0,0,0,0,0,0,0,0,0,0,0,0,0,0,0,0,0,0,0,0,0,0,0,0,0,0,0,0,0,0,0,0,0,0,0,0,0,0,0,0,0,0,0,0,0,0,0,0,0,0,0,0,0,0,0,0,0,0,0,0,0,0,0,0,0,0,0,0,0,0,0,0,0,0,0,0,0,0,0,0,0,0,0,0,0,0,0,0,0,0,0,0,0,0,0,0,0,0,0,0,0,0,0,0,0,0,0,0,0,0,0,0,0,0,0,0,0,0,0,0,0,0,0,0,0,0,0,0,0,0,0,0,0,0,0,0,0,0,0,0,0,0,0,0,0,0,0,0,0,0,0,0,0,0,0,0,0,0,0,0,0,0,0,0,0,0,0,0,0,0,0,0,0,0,0,0,0,0,0,0,0,0,0,0,0,0,0,0,0,0,0,0,0,0,0,0,0,0,0,0,0,0,0,0,0,0,0,0,0,0,0,0,0,0,0,0,0,0,0,0,0,0,0,0,0,0,0,0,0,0,0,0,0,0,0,0,0,0,0,0,0,0,0,0,0,0,0,0,0,0,0,0,0,0,0,0,0,0,0,0,0,0,0,0,0,0,0,0,0,0,0,0,0,0,0,0,0,0,0,0,0,0,0,0,0,0,0,0],"trees":[{"base_weights":[-4.3561324E-2,-6.03812E-1,6.07988E-1,4.6857554E-1,-1.1903921E0,1.112873E0,-3.477702E-1,-6.482631E-1,1.1315633E0,-1.7226969E0,-3.7516332E-1,1.3107452E0,-4.3465856E-2,-1.3705972E0,1.103294E0,-4.82253E-2,-1.3064007E0,-7.231819E-3,1.4125543E0,3.739989E-2,-7.960711E-2,-9.900155E-2,-7.082785E-2,6.162224E-1,1.5376308E0,-7.754382E-2,6.3856817E-3,1.0049602E-2,1.3507912E0,-3.91954E-2,4.1349992E-2,-6.9497466E-2,-2.2534668E-2,7.5086385E-2,3.2245517E-2,-5.2805323E-2,1.5459475E-2,5.6517277E-2,3.4545206E-3,6.6162944E-2,6.91124E-3,6.73009E-2,1.7051958E-2],"categories":[],"categories_nodes":[],"categories_segments":[],"categories_sizes":[],"default_left":[0,0,0,0,0,0,0,0,0,0,0,0,0,0,0,0,0,0,0,0,0,0,0,0,0,0,0,0,0,0,0,0,0,0,0,0,0,0,0,0,0,0,0],"id":0,"left_children":[1,3,5,7,9,11,13,15,17,19,21,23,-1,25,27,29,31,-1,33,-1,-1,35,-1,37,39,-1,-1,-1,41,-1,-1,-1,-1,-1,-1,-1,-1,-1,-1,-1,-1,-1,-1],"loss_changes":[1.3471927E2,1.2548097E2,8.277643E1,5.3232048E1,5.496846E1,5.015866E1,9.00795E1,1.045057E1,1.6924713E1,5.7040817E1,1.9743395E1,1.5096085E1,0E0,3.13236E1,4.8100414E0,1.6353228E1,2.8722115E0,0E0,8.68042E0,0E0,0E0,2.7085993E1,0E0,1.1203765E1,1.1768372E1,0E0,0E0,0E0,4.9575577E0,0E0,0E0,0E0,0E0,0E0,0E0,0E0,0E0,0E0,0E0,0E0,0E0,0E0,0E0],"parents":[2147483647,0,0,1,1,2,2,3,3,4,4,5,5,6,6,7,7,8,8,9,9,10,10,11,11,13,13,14,14,15,15,16,16,18,18,21,21,23,23,24,24,28,28],"right_children":[2,4,6,8,10,12,14,16,18,20,22,24,-1,26,28,30,32,-1,34,-1,-1,36,-1,38,40,-1,-1,-1,42,-1,-1,-1,-1,-1,-1,-1,-1,-1,-1,-1,-1,-1,-1],"split_conditions":[4E-1,2.7671233E-1,7E0,-6.8649887E-3,1.304563E-3,1.4653E-2,-1.8467562E-4,2.51E1,3.6406538E3,3.4200679E3,8.785516E-3,-2.7347054E-2,-4.3465856E-2,1.2E1,2.2576456E-3,-2.7713306E-2,1.2785981E-2,-7.231819E-3,5.479452E-2,3.739989E-2,-7.960711E-2,1.3363267E-4,-7.082785E-2,2.7123287E-1,3.3E2,-7.754382E-2,6.3856817E-3,1.0049602E-2,3.1054914E-3,-3.91954E-2,4.1349992E-2,-6.9497466E-2,-2.2534668E-2,7.5086385E-2,3.2245517E-2,-5.2805323E-2,1.5459475E-2,5.6517277E-2,3.4545206E-3,6.6162944E-2,6.91124E-3,6.73009E-2,1.7051958E-2],"split_indices":[12,17,1,5,0,0,5,3,15,15,4,5,0,1,0,5,0,0,17,0,0,4,0,17,3,0,0,0,0,0,0,0,0,0,0,0,0,0,0,0,0,0,0],"split_type":[0,0,0,0,0,0,0,0,0,0,0,0,0,0,0,0,0,0,0,0,0,0,0,0,0,0,0,0,0,0,0,0,0,0,0,0,0,0,0,0,0,0,0],"sum_hessian":[3.67058E2,1.9747826E2,1.6957977E2,6.983549E1,1.2764276E2,1.1092384E2,5.865593E1,2.5965904E1,4.3869587E1,7.647349E1,5.116928E1,1.02181015E2,8.742827E0,3.447766E1,2.4178267E1,1.4223375E1,1.1742529E1,7.736625E0,3.613296E1,6.730423E0,6.9743065E1,4.3670025E1,7.4992537E0,2.618437E1,7.599664E1,2.4997513E1,9.480149E0,5.9867992E0,1.8191467E1,7.742927E0,6.480448E0,6.4993534E0,5.243176E0,1.9178764E1,1.6954197E1,1.1992504E1,3.167752E1,9.717521E0,1.646685E1,6.9759865E1,6.2367744E0,1.2704618E1,5.4868493E0],"tree_param":{"num_deleted":"0","num_feature":"18","num_nodes":"43","size_leaf_vector":"1"}},{"base_weights":[4.399078E-2,4.9401224E-1,-9.464073E-1,-7.4814625E-2,7.4003077E-1,-1.4232005E0,8.887655E-1,-5.4456735E-1,8.9156955E-1,2.285879E-2,-1.6838338E0,-2.5808088E-2,5.5726606E-2,7.0438826E-1,-7.315703E-2,9.78782E-1,-4.1552924E-2,-7.694344E-2,-4.1459948E-1,-7.221997E-4,6.0048494E-2,4.686145E-2,1.4916997E-2,3.0174064E-2,-6.793432E-2],"categories":[],"categories_nodes":[],"categories_segments":[],"categories_sizes":[],"default_left":[0,0,0,0,0,0,0,0,0,0,0,0,0,0,0,0,0,0,0,0,0,0,0,0,0],"id":1,"left_children":[1,3,5,-1,7,9,11,13,15,-1,17,-1,-1,19,-1,21,-1,-1,23,-1,-1,-1,-1,-1,-1],"loss_changes":[1.6665237E2,1.5086046E2,1.0351486E2,0E0,4.6010902E1,4.9493454E1,2.0053188E1,4.1839073E1,3.6276962E1,0E0,2.4125763E1,0E0,0E0,7.9256806E0,0E0,2.2880081E1,0E0,0E0,2.3099178E1,0E0,0E0,0E0,0E0,0E0,0E0],"parents":[2147483647,0,0,1,1,2,2,4,4,5,5,6,6,7,7,8,8,10,10,13,13,15,15,18,18],"right_children":[2,4,6,-1,8,10,12,14,16,-1,18,-1,-1,20,-1,22,-1,-1,24,-1,-1,-1,-1,-1,-1],"split_conditions":[6.7163676E-2,-1.0214E3,1E1,-7.4814625E-2,3.7519739E3,-5.53103E-3,-8.3337344E-2,-7.858546E-3,4.665741E3,2.285879E-2,1.851801E-3,-2.5808088E-2,5.5726606E-2,3.9099663E-2,-7.315703E-2,1E1,-4.1552924E-2,-7.694344E-2,-2.3144996E-2,-7.221997E-4,6.0048494E-2,4.686145E-2,1.4916997E-2,3.0174064E-2,-6.793432E-2],"split_indices":[6,2,1,0,15,4,14,16,15,0,7,0,0,6,0,1,0,0,16,0,0,0,0,0,0],"split_type":[0,0,0,0,0,0,0,0,0,0,0,0,0,0,0,0,0,0,0,0,0,0,0,0,0],"sum_hessian":[3.719637E2,2.5616742E2,1.1579631E2,2.34821E1,2.3268532E2,9.213726E1,2.3659052E1,2.4209267E1,2.0847604E2,1.0465641E1,8.1671616E1,5.736364E0,1.7922688E1,1.2463258E1,1.1746008E1,1.9998573E2,8.490308E0,6.819549E1,1.3476131E1,6.9834933E0,5.4797645E0,1.5088326E2,4.9102474E1,7.228538E0,6.247593E0],"tree_param":{"num_deleted":"0","num_feature":"18","num_nodes":"25","size_leaf_vector":"1"}},{"base_weights":[3.613809E-2,-4.436409E-1,6.211233E-1,5.3274643E-1,-9.8201156E-1,9.716347E-1,-1.5403131E0,-2.952306E-1,1.0765431E0,-1.3838073E0,6.0069025E-3,3.6715674E-3,1.1922929E0,-2.0803325E-2,-7.168954E-2,8.0297756E-1,-1.3793088E0,-2.5940921E-2,1.3493481E0,-1.7813978E0,3.5110283E-1,4.5986056E-1,-6.756716E-2,7.850775E-1,-7.248614E-2,1.3160536E0,-7.352109E-2,8.073873E-3,6.579037E-2,-7.05102E-2,-2.0495933E-2,6.740286E-2,3.3222202E-2,-7.456117E-2,-2.098711E-2,5.455535E-2,-1.9782003E-2,-7.284003E-3,5.939811E-2,-1.6858654E-2,7.104751E-2,5.50311E-2,9.463333E-3,1.8671181E-2,-2.4692407E-2],"categories":[],"categories_nodes":[],"categories_segments":[],"categories_sizes":[],"default_left":[0,0,0,0,0,0,0,0,0,0,0,0,0,0,0,0,0,0,0,0,0,0,0,0,0,0,0,0,0,0,0,0,0,0,0,0,0,0,0,0,0,0,0,0,0],"id":2,"left_children":[1,3,5,7,9,11,13,15,17,19,21,23,25,-1,-1,27,29,-1,31,33,35,37,-1,39,-1,41,43,-1,-1,-1,-1,-1,-1,-1,-1,-1,-1,-1,-1,-1,-1,-1,-1,-1,-1],"loss_changes":[1.05133194E2,1.08703995E2,1.2934494E2,3.3578094E1,5.295189E1,3.1043549E1,4.980713E0,3.679426E1,2.2014336E1,6.604886E1,3.0950998E1,4.129972E1,1.8823532E1,0E0,0E0,7.302739E0,4.0130215E0,0E0,5.147064E0,6.800522E0,1.6548805E1,2.1390072E1,0E0,2.5321354E1,0E0,6.4950867E0,3.667646E0,0E0,0E0,0E0,0E0,0E0,0E0,0E0,0E0,0E0,0E0,0E0,0E0,0E0,0E0,0E0,0E0,0E0,0E0],"parents":[2147483647,0,0,1,1,2,2,3,3,4,4,5,5,6,6,7,7,8,8,9,9,10,10,11,11,12,12,15,15,16,16,18,18,19,19,20,20,21,21,23,23,25,25,26,26],"right_children":[2,4,6,8,10,12,14,16,18,20,22,24,26,-1,-1,28,30,-1,32,34,36,38,-1,40,-1,42,44,-1,-1,-1,-1,-1,-1,-1,-1,-1,-1,-1,-1,-1,-1,-1,-1,-1,-1],"split_conditions":[4E-1,2.7671233E-1,3.8148183E-1,-6.194872E-3,1.7219154E-3,2.2191781E-1,-2.7837614E-2,-3.2889328E-4,3.6406538E3,9.0958905E-1,8.187773E-3,1.2054794E-1,4.608001E3,-2.0803325E-2,-7.168954E-2,-6.756757E-4,9.41779E-4,-2.5940921E-2,1.765625E-2,-3.8377035E-5,6.8711E3,4.6309077E3,-6.756716E-2,1.01369865E-1,-7.248614E-2,9E0,-3.637584E-2,8.073873E-3,6.579037E-2,-7.05102E-2,-2.0495933E-2,6.740286E-2,3.3222202E-2,-7.456117E-2,-2.098711E-2,5.455535E-2,-1.9782003E-2,-7.284003E-3,5.939811E-2,-1.6858654E-2,7.104751E-2,5.50311E-2,9.463333E-3,1.8671181E-2,-2.4692407E-2],"split_indices":[12,17,14,5,7,17,16,16,15,17,16,17,15,0,0,16,7,0,14,5,13,15,0,17,0,1,5,0,0,0,0,0,0,0,0,0,0,0,0,0,0,0,0,0,0],"split_type":[0,0,0,0,0,0,0,0,0,0,0,0,0,0,0,0,0,0,0,0,0,0,0,0,0,0,0,0,0,0,0,0,0,0,0,0,0,0,0,0,0,0,0,0,0],"sum_hessian":[3.7254285E2,2.047152E2,1.6782765E2,7.2696945E1,1.3201825E2,1.4492284E2,2.2904816E1,2.8926725E1,4.377022E1,9.36389E1,3.8379345E1,2.717665E1,1.1774619E2,5.221308E0,1.7683508E1,1.4452702E1,1.4474024E1,5.7386174E0,3.8031605E1,7.620565E1,1.7433252E1,3.0895407E1,7.4839377E0,1.9435617E1,7.7410316E0,1.0729509E2,1.0451107E1,9.224155E0,5.228546E0,9.238835E0,5.2351894E0,2.1607836E1,1.6423769E1,7.097603E1,5.2296195E0,7.7077003E0,9.725553E0,1.9443674E1,1.1451732E1,8.978885E0,1.0456733E1,1.01322105E2,5.9729786E0,5.2211614E0,5.229946E0],"tree_param":{"num_deleted":"0","num_feature":"18","num_nodes":"45","size_leaf_vector":"1"}},{"base_weights":[1.7523056E-2,-8.9274794E-1,3.067133E-1,-3.218732E-2,-1.448903E0,-5.2093434E-1,7.6191366E-1,1.1041466E0,-8.762296E-1,-7.162525E-2,9.640691E-3,-2.733856E-1,-1.4869078E0,-6.612274E-2,8.4832436E-1,6.346249E-2,2.1146486E-2,-6.9405675E-2,5.224378E-2,1.241314E0,-5.5181324E-1,-7.0977956E-2,-2.0802109E-2,1.0766147E0,-2.3980567E-1,2.122106E-2,6.5198295E-2,-4.534824E-2,2.6507277E-2,4.8020553E-2,-2.363228E-2,3.4263253E-2,-7.298394E-2],"categories":[],"categories_nodes":[],"categories_segments":[],"categories_sizes":[],"default_left":[0,0,0,0,0,0,0,0,0,0,0,0,0,0,0,0,0,0,0,0,0,0,0,0,0,0,0,0,0,0,0,0,0],"id":3,"left_children":[1,3,5,7,9,11,13,15,17,-1,-1,19,21,-1,23,-1,-1,-1,-1,25,27,-1,-1,29,31,-1,-1,-1,-1,-1,-1,-1,-1],"loss_changes":[9.9956505E1,4.360926E1,1.09063934E2,3.6453663E1,3.2638382E1,2.4009314E1,4.0247284E1,3.4391994E0,4.3268257E1,0E0,0E0,3.569155E1,4.5944977E0,0E0,4.525148E1,0E0,0E0,0E0,0E0,2.5562668E0,5.097706E1,0E0,0E0,3.1696E1,5.7424152E1,0E0,0E0,0E0,0E0,0E0,0E0,0E0,0E0],"parents":[2147483647,0,0,1,1,2,2,3,3,4,4,5,5,6,6,7,7,8,8,11,11,12,12,14,14,19,19,20,20,23,23,24,24],"right_children":[2,4,6,8,10,12,14,16,18,-1,-1,20,22,-1,24,-1,-1,-1,-1,26,28,-1,-1,30,32,-1,-1,-1,-1,-1,-1,-1,-1],"split_conditions":[-1.0214E3,2.717944E-1,5.5501785E-2,1.2929681E-1,1.2995934E-1,1.765625E-2,8.6067E3,2.3494216E-3,1E1,-7.162525E-2,9.640691E-3,4E0,-1.4491138E-3,-6.612274E-2,9.0574E3,6.346249E-2,2.1146486E-2,-6.9405675E-2,5.224378E-2,1.1201515E-1,1.1E1,-7.0977956E-2,-2.0802109E-2,1.9832836E-2,7.2455496E-2,2.122106E-2,6.5198295E-2,-4.534824E-2,2.6507277E-2,4.8020553E-2,-2.363228E-2,3.4263253E-2,-7.298394E-2],"split_indices":[2,14,14,6,6,14,13,0,1,0,0,1,5,0,13,0,0,0,0,0,1,0,0,0,14,0,0,0,0,0,0,0,0],"split_type":[0,0,0,0,0,0,0,0,0,0,0,0,0,0,0,0,0,0,0,0,0,0,0,0,0,0,0,0,0,0,0,0,0],"sum_hessian":[3.778965E2,9.052433E1,2.873722E2,3.6022682E1,5.4501648E1,1.0184074E2,1.8553143E2,1.5171139E1,2.0851545E1,4.5333984E1,9.167662E0,8.216975E1,1.967099E1,5.742896E0,1.7978854E2,7.2026434E0,7.968496E0,1.5142529E1,5.7090163E0,1.21661415E1,7.000361E1,1.4438344E1,5.232645E0,1.4869476E2,3.109378E1,5.2276664E0,6.9384747E0,4.7428417E1,2.2575191E1,1.3872656E2,9.968195E0,1.861323E1,1.2480553E1],"tree_param":{"num_deleted":"0","num_feature":"18","num_nodes":"33","size_leaf_vector":"1"}},{"base_weights":[-5.5483922E-2,-8.854074E-1,2.2895236E-1,-2.8688726E-1,-1.4902443E0,7.108626E-1,-5.6542385E-1,-9.4333005E-1,8.633558E-1,1.9929104E-2,-7.054338E-2,1.0454336E0,1.0275704E-1,-1.0436357E0,7.6770747E-1,3.1996527E-1,-6.854303E-2,4.9778376E-2,6.532667E-3,1.1842645E0,-3.5347015E-2,-7.036312E-1,1.2742078E0,-1.6588906E0,2.6518333E-1,2.8148144E-1,6.4738676E-2,-2.5955524E-2,4.762243E-2,5.0646495E-2,-0E0,-6.8903014E-2,4.849249E-2,2.8980175E-2,5.7541426E-2,-2.2779388E-2,-7.12404E-2,-3.0259766E-2,5.2926168E-2,3.468717E-2,-3.0011322E-2],"categories":[],"categories_nodes":[],"categories_segments":[],"categories_sizes":[],"default_left":[0,0,0,0,0,0,0,0,0,0,0,0,0,0,0,0,0,0,0,0,0,0,0,0,0,0,0,0,0,0,0,0,0,0,0,0,0,0,0,0,0],"id":4,"left_children":[1,3,5,7,9,11,13,15,17,-1,-1,19,21,23,25,27,-1,-1,-1,29,-1,31,33,35,37,39,-1,-1,-1,-1,-1,-1,-1,-1,-1,-1,-1,-1,-1,-1,-1],"loss_changes":[8.460929E1,3.2515144E1,1.025502E2,3.6542576E1,2.5563965E1,3.366871E1,6.535657E1,3.051326E1,4.3662205E0,0E0,0E0,2.9797935E1,5.7949795E1,6.095244E1,1.0623901E1,1.1288773E1,0E0,0E0,0E0,9.843384E0,0E0,7.30643E1,1.0003052E0,5.5608063E0,2.7847116E1,1.1914975E1,0E0,0E0,0E0,0E0,0E0,0E0,0E0,0E0,0E0,0E0,0E0,0E0,0E0,0E0,0E0],"parents":[2147483647,0,0,1,1,2,2,3,3,4,4,5,5,6,6,7,7,8,8,11,11,12,12,13,13,14,14,15,15,19,19,21,21,22,22,23,23,24,24,25,25],"right_children":[2,4,6,8,10,12,14,16,18,-1,-1,20,22,24,26,28,-1,-1,-1,30,-1,32,34,36,38,40,-1,-1,-1,-1,-1,-1,-1,-1,-1,-1,-1,-1,-1,-1,-1],"split_conditions":[8.6067E3,-2.3317789E-3,9.02485E3,-1.8467562E-4,-2.1294309E-2,7E0,6.5612886E-3,3.4292065E3,3.6650884E3,1.9929104E-2,-7.054338E-2,4.619945E3,-8.629286E-5,1E1,1.1201515E-1,3.417323E3,-6.854303E-2,4.9778376E-2,6.532667E-3,3.3E2,-3.5347015E-2,1.2E1,2.38154E-3,4.2219785E3,2.3703404E-2,2.8033913E-3,6.4738676E-2,-2.5955524E-2,4.762243E-2,5.0646495E-2,-0E0,-6.8903014E-2,4.849249E-2,2.8980175E-2,5.7541426E-2,-2.2779388E-2,-7.12404E-2,-3.0259766E-2,5.2926168E-2,3.468717E-2,-3.0011322E-2],"split_indices":[13,16,13,5,0,1,7,15,15,0,0,15,5,1,0,15,0,0,0,3,0,1,0,15,16,4,0,0,0,0,0,0,0,0,0,0,0,0,0,0,0],"split_type":[0,0,0,0,0,0,0,0,0,0,0,0,0,0,0,0,0,0,0,0,0,0,0,0,0,0,0,0,0,0,0,0,0,0,0,0,0,0,0,0,0],"sum_hessian":[3.5628546E2,9.049101E1,2.6579446E2,4.6307144E1,4.4183872E1,1.655775E2,1.0021696E2,2.9651741E1,1.6655401E1,5.195987E0,3.8987885E1,1.0624137E2,5.933612E1,7.3973755E1,2.6243204E1,1.1403461E1,1.824828E1,1.0188306E1,6.467096E0,9.951742E1,6.7239566E0,3.5330055E1,2.4006063E1,5.018944E1,2.3784315E1,1.7620907E1,8.622297E0,5.4633265E0,5.940135E0,9.307459E1,6.4428277E0,2.3164007E1,1.2166048E1,6.9096384E0,1.7096426E1,5.7124E0,4.4477043E1,1.2196575E1,1.1587739E1,1.1403796E1,6.2171097E0],"tree_param":{"num_deleted":"0","num_feature":"18","num_nodes":"41","size_leaf_vector":"1"}},{"base_weights":[5.1461153E-2,4.2427972E-1,-5.1912427E-1,6.2603766E-1,-1.4126731E0,-9.004153E-1,8.4289914E-1,-1.1911203E0,8.3846265E-1,-6.629169E-2,-1.7827926E-2,-1.4382671E0,4.077133E-1,5.43746E-2,-3.3650592E-2,-4.417694E-3,-6.871665E-2,9.967669E-1,-7.030188E-1,9.643208E-3,-1.6335344E0,8.2223576E-1,-3.593602E-2,4.3339103E-2,-1.8697133E-2,-6.691051E-2,2.6634755E-2,-1.622074E-2,-6.865023E-2,5.203781E-2,-9.063971E-3],"categories":[],"categories_nodes":[],"categories_segments":[],"categories_sizes":[],"default_left":[0,0,0,0,0,0,0,0,0,0,0,0,0,0,0,0,0,0,0,0,0,0,0,0,0,0,0,0,0,0,0],"id":5,"left_children":[1,3,5,7,9,11,13,15,17,-1,-1,19,21,-1,-1,-1,-1,23,25,-1,27,29,-1,-1,-1,-1,-1,-1,-1,-1,-1],"loss_changes":[8.159275E1,8.680438E1,7.945792E1,8.195545E1,4.5438843E0,8.4364815E1,3.0421988E1,1.233663E1,4.672705E1,0E0,0E0,2.825943E1,1.9884293E1,0E0,0E0,0E0,0E0,2.233075E1,2.5218386E1,0E0,6.804718E0,1.4176476E1,0E0,0E0,0E0,0E0,0E0,0E0,0E0,0E0,0E0],"parents":[2147483647,0,0,1,1,2,2,3,3,4,4,5,5,6,6,7,7,8,8,11,11,12,12,17,17,18,18,20,20,21,21],"right_children":[2,4,6,8,10,12,14,16,18,-1,-1,20,22,-1,-1,-1,-1,24,26,-1,28,30,-1,-1,-1,-1,-1,-1,-1,-1,-1],"split_conditions":[4.694505E-2,3.8148183E-1,1E1,8.6067E3,8.99325E3,-1.8467562E-4,2.66E1,-1.253121E-1,9.52325E3,-6.629169E-2,-1.7827926E-2,-5.275985E-3,9.52445E3,5.43746E-2,-3.3650592E-2,-4.417694E-3,-6.871665E-2,4.619945E3,1.5650356E-2,9.643208E-3,-8.585577E-2,1.2929681E-1,-3.593602E-2,4.3339103E-2,-1.8697133E-2,-6.691051E-2,2.6634755E-2,-1.622074E-2,-6.865023E-2,5.203781E-2,-9.063971E-3],"split_indices":[6,14,1,13,13,5,3,14,13,0,0,0,13,0,0,0,0,15,0,0,14,6,0,0,0,0,0,0,0,0,0],"split_type":[0,0,0,0,0,0,0,0,0,0,0,0,0,0,0,0,0,0,0,0,0,0,0,0,0,0,0,0,0,0,0],"sum_hessian":[3.8156918E2,2.3104007E2,1.5052911E2,2.0881856E2,2.222152E1,1.1792812E2,3.2600998E1,2.1324375E1,1.8749419E2,1.708273E1,5.13879E0,8.355182E1,3.4376305E1,2.5142904E1,7.4580946E0,7.446986E0,1.3877388E1,1.7041179E2,1.7082396E1,8.625309E0,7.4926506E1,2.6433968E1,7.942337E0,1.6119408E2,9.217716E0,9.91178E0,7.170615E0,5.1774373E0,6.974907E1,1.805038E1,8.383586E0],"tree_param":{"num_deleted":"0","num_feature":"18","num_nodes":"31","size_leaf_vector":"1"}},{"base_weights":[2.89542E-2,3.9626694E-1,-6.835237E-1,5.9269714E-1,-1.3871136E0,-1.1263998E0,9.1580695E-1,-1.1690149E0,7.935279E-1,-6.465713E-2,-1.7178876E-2,1.9303221E-2,-1.322687E0,5.0803937E-2,-2.746244E-3,-2.6434367E-3,-6.681571E-2,9.829294E-1,-3.9937618E-1,-6.598447E-2,-5.738795E-1,6.2772974E-2,3.43023E-2,-6.736726E-2,4.0016625E-2,1.7082639E-2,-6.5546095E-2],"categories":[],"categories_nodes":[],"categories_segments":[],"categories_sizes":[],"default_left":[0,0,0,0,0,0,0,0,0,0,0,0,0,0,0,0,0,0,0,0,0,0,0,0,0,0,0],"id":6,"left_children":[1,3,5,7,9,11,13,15,17,-1,-1,-1,19,-1,-1,-1,-1,21,23,-1,25,-1,-1,-1,-1,-1,-1],"loss_changes":[9.588461E1,8.547177E1,8.930324E1,7.824009E1,4.4257164E0,3.1695557E1,9.806744E0,1.228277E1,4.4937454E1,0E0,0E0,0E0,2.0307892E1,0E0,0E0,0E0,0E0,1.0930054E1,5.1421894E1,0E0,3.0970524E1,0E0,0E0,0E0,0E0,0E0,0E0],"parents":[2147483647,0,0,1,1,2,2,3,3,4,4,5,5,6,6,7,7,8,8,12,12,17,17,18,18,20,20],"right_children":[2,4,6,8,10,12,14,16,18,-1,-1,-1,20,-1,-1,-1,-1,22,24,-1,26,-1,-1,-1,-1,-1,-1],"split_conditions":[6.715852E-2,3.8148183E-1,1E1,8.6067E3,8.9914E3,-5.275985E-3,2.14E1,-1.253121E-1,9.52445E3,-6.465713E-2,-1.7178876E-2,1.9303221E-2,1.6866032E-3,5.0803937E-2,-2.746244E-3,-2.6434367E-3,-6.681571E-2,7.2455496E-2,2.378E2,-6.598447E-2,6.8742E3,6.2772974E-2,3.43023E-2,-6.736726E-2,4.0016625E-2,1.7082639E-2,-6.5546095E-2],"split_indices":[6,14,1,13,13,0,3,14,13,0,0,0,0,0,0,0,0,14,3,0,13,0,0,0,0,0,0],"split_type":[0,0,0,0,0,0,0,0,0,0,0,0,0,0,0,0,0,0,0,0,0,0,0,0,0,0,0],"sum_hessian":[3.6446298E2,2.4086896E2,1.2359404E2,2.1762267E2,2.3246294E1,9.707179E1,2.6522247E1,2.172545E1,1.9589722E2,1.8115942E1,5.1303515E0,1.0340659E1,8.673113E1,1.9364668E1,7.157579E0,7.20568E0,1.4519772E1,1.692799E2,2.661731E1,5.9442406E1,2.7288729E1,2.764806E1,1.4163185E2,1.3810005E1,1.2807304E1,1.4326254E1,1.2962475E1],"tree_param":{"num_deleted":"0","num_feature":"18","num_nodes":"27","size_leaf_vector":"1"}},{"base_weights":[6.6426713E-3,3.770211E-1,-6.18117E-1,-6.4244166E-2,6.141587E-1,-1.2375003E0,5.449151E-2,-7.202052E-1,8.0201834E-1,-6.520192E-2,4.607553E-1,-3.978193E-1,6.40519E-1,1.7198268E-2,-6.521621E-2,9.330125E-1,-2.4509005E-1,-8.739826E-3,5.3173594E-2,-6.6867113E-1,2.6743732E-2,1.1195616E0,-1.3828874E-2,4.1016836E-2,2.2335898E-3,-6.298317E-2,3.8065773E-2,-4.341495E-2,9.418149E-3,1.8357724E-2,6.0975097E-2],"categories":[],"categories_nodes":[],"categories_segments":[],"categories_sizes":[],"default_left":[0,0,0,0,0,0,0,0,0,0,0,0,0,0,0,0,0,0,0,0,0,0,0,0,0,0,0,0,0,0,0],"id":7,"left_children":[1,3,5,-1,7,9,11,13,15,-1,17,19,21,-1,-1,23,25,-1,-1,27,-1,29,-1,-1,-1,-1,-1,-1,-1,-1,-1],"loss_changes":[8.450806E1,1.0878505E2,5.6788723E1,0E0,5.214914E1,4.8101364E1,1.7777674E1,2.7879519E1,2.5104126E1,0E0,8.681585E0,1.135922E1,1.4277318E1,0E0,0E0,1.2887924E1,3.46803E1,0E0,0E0,1.1907604E1,0E0,4.4459705E0,0E0,0E0,0E0,0E0,0E0,0E0,0E0,0E0,0E0],"parents":[2147483647,0,0,1,1,2,2,4,4,5,5,6,6,7,7,8,8,10,10,11,11,12,12,15,15,16,16,19,19,21,21],"right_children":[2,4,6,-1,8,10,12,14,16,-1,18,20,22,-1,-1,24,26,-1,-1,28,-1,30,-1,-1,-1,-1,-1,-1,-1,-1,-1],"split_conditions":[4.694505E-2,-1.0214E3,8.8173005E-4,-6.4244166E-2,8.6067E3,1E1,2.690724E-1,-7.858546E-3,9.524E3,-6.520192E-2,2.3703404E-2,1.460075E-2,-2.3317789E-3,1.7198268E-2,-6.521621E-2,2.0521186E-2,7.5701782E-3,-8.739826E-3,5.3173594E-2,2.9021E3,2.6743732E-2,2.2832146E-3,-1.3828874E-2,4.1016836E-2,2.2335898E-3,-6.298317E-2,3.8065773E-2,-4.341495E-2,9.418149E-3,1.8357724E-2,6.0975097E-2],"split_indices":[6,2,7,0,13,1,14,16,13,0,16,7,16,0,0,4,7,0,0,2,0,7,0,0,0,0,0,0,0,0,0],"split_type":[0,0,0,0,0,0,0,0,0,0,0,0,0,0,0,0,0,0,0,0,0,0,0,0,0,0,0,0,0,0,0],"sum_hessian":[3.6330438E2,2.284363E2,1.3486809E2,2.373677E1,2.0469952E2,6.985224E1,6.501584E1,2.4846834E1,1.7985269E2,5.681796E1,1.3034287E1,3.6779224E1,2.8236614E1,1.1161066E1,1.3685769E1,1.6003647E2,1.9816229E1,7.6697235E0,5.3645644E0,2.9702106E1,7.0771184E0,1.8982527E1,9.254087E0,1.4452774E2,1.5508719E1,9.2774515E0,1.0538777E1,2.0269993E1,9.432115E0,8.117054E0,1.0865474E1],"tree_param":{"num_deleted":"0","num_feature":"18","num_nodes":"31","size_leaf_vector":"1"}},{"base_weights":[6.510194E-3,3.7297565E-1,-5.7527494E-1,-6.2396683E-2,5.987432E-1,-9.050021E-1,6.794053E-1,6.4251825E-2,1.1336805E0,7.2359055E-1,-1.1909515E0,1.2056764E0,-3.3278912E-2,3.068062E-1,-1.3836958E0,1.2538468E0,-2.6995653E-2,-3.619071E-3,4.8734825E-2,-1.5232929E0,-1.7371322E-1,7.5353795E-1,6.2267136E-2,-9.191682E-4,5.5019643E-2,-2.5115801E-2,-7.0640676E-2,-4.002606E-3,5.3963706E-2,-2.1478338E-2,-6.355923E-2,-4.3402098E-2,2.6932718E-2,2.4712442E-3,5.574665E-2],"categories":[],"categories_nodes":[],"categories_segments":[],"categories_sizes":[],"default_left":[0,0,0,0,0,0,0,0,0,0,0,0,0,0,0,0,0,0,0,0,0,0,0,0,0,0,0,0,0,0,0,0,0,0,0],"id":8,"left_children":[1,3,5,-1,7,9,11,13,15,17,19,21,-1,23,25,27,-1,-1,-1,29,31,33,-1,-1,-1,-1,-1,-1,-1,-1,-1,-1,-1,-1,-1],"loss_changes":[7.710774E1,9.7734856E1,5.8433704E1,0E0,5.6874275E1,5.265805E1,2.456963E1,3.578537E1,2.255017E1,7.1375437E0,3.1667664E1,2.1507034E0,0E0,3.0962116E1,2.874155E0,1.2355392E1,0E0,0E0,0E0,3.558258E0,1.9750784E1,5.016536E0,0E0,0E0,0E0,0E0,0E0,0E0,0E0,0E0,0E0,0E0,0E0,0E0,0E0],"parents":[2147483647,0,0,1,1,2,2,4,4,5,5,6,6,7,7,8,8,9,9,10,10,11,11,13,13,14,14,15,15,19,19,20,20,21,21],"right_children":[2,4,6,-1,8,10,12,14,16,18,20,22,-1,24,26,28,-1,-1,-1,30,32,34,-1,-1,-1,-1,-1,-1,-1,-1,-1,-1,-1,-1,-1],"split_conditions":[4.603073E-2,-1.0214E3,1E1,-6.2396683E-2,3.5890412E-1,-5.53103E-3,9.3972605E-1,2.7123287E-1,8.4931505E-1,8.379947E-2,-1.8467562E-4,9.232877E-1,-3.3278912E-2,2.2191781E-1,4.566254E3,-2.9158251E-2,-2.6995653E-2,-3.619071E-3,4.8734825E-2,-5.703393E-3,5.1941857E-4,4.238069E-2,6.2267136E-2,-9.191682E-4,5.5019643E-2,-2.5115801E-2,-7.0640676E-2,-4.002606E-3,5.3963706E-2,-2.1478338E-2,-6.355923E-2,-4.3402098E-2,2.6932718E-2,2.4712442E-3,5.574665E-2],"split_indices":[6,2,1,0,17,4,17,17,17,6,5,17,0,17,15,4,0,0,0,5,4,16,0,0,0,0,0,0,0,0,0,0,0,0,0],"split_type":[0,0,0,0,0,0,0,0,0,0,0,0,0,0,0,0,0,0,0,0,0,0,0,0,0,0,0,0,0,0,0,0,0,0,0],"sum_hessian":[3.5975003E2,2.2104497E2,1.3870505E2,2.2454035E1,1.9859093E2,1.1012329E2,2.8581757E1,9.999066E1,9.8600266E1,1.6166811E1,9.395648E1,2.1398945E1,7.182812E0,8.637812E1,1.3612543E1,9.279662E1,5.803642E0,6.343994E0,9.822818E0,7.037011E1,2.3586372E1,1.0851914E1,1.054703E1,6.668479E1,1.9693329E1,5.5482445E0,8.064299E0,6.026724E0,8.6769905E1,5.0617757E0,6.5308334E1,1.1283386E1,1.2302987E1,5.817714E0,5.0342007E0],"tree_param":{"num_deleted":"0","num_feature":"18","num_nodes":"35","size_leaf_vector":"1"}},{"base_weights":[1.1297439E-2,-4.6482906E-1,3.2333055E-1,5.177273E-1,-8.910347E-1,-1.0174788E-1,7.31876E-1,-3.989995E-2,9.8043144E-1,1.4759094E-1,-1.1923667E0,2.7871433E-1,-9.0429956E-1,8.1286275E-1,-2.3959793E-2,3.20559E-1,5.5781193E-2,-2.8097378E-2,7.890468E-1,3.518583E-2,-1.3919134E0,6.198202E-1,-1.0672218E0,-2.2915423E-1,-6.276507E-2,9.1105163E-1,-1.4863734E-2,-2.4514891E-2,3.846193E-2,2.8289242E-3,5.174853E-2,-5.875004E-2,-1.2888641E-2,3.361389E-2,-5.6702096E-2,1.1565564E-2,-7.174214E-2,-3.702383E-2,2.2642199E-2,-1.1337138E-3,4.2674642E-2],"categories":[],"categories_nodes":[],"categories_segments":[],"categories_sizes":[],"default_left":[0,0,0,0,0,0,0,0,0,0,0,0,0,0,0,0,0,0,0,0,0,0,0,0,0,0,0,0,0,0,0,0,0,0,0,0,0,0,0,0,0],"id":9,"left_children":[1,3,5,7,9,11,13,-1,15,17,19,21,23,25,-1,27,-1,-1,29,-1,31,33,35,37,-1,39,-1,-1,-1,-1,-1,-1,-1,-1,-1,-1,-1,-1,-1,-1,-1],"loss_changes":[5.2895866E1,5.949389E1,3.7518005E1,3.125147E1,3.1169067E1,3.2756046E1,1.2364368E1,0E0,8.572411E0,1.3109134E1,3.2982018E1,3.4020073E1,1.4941389E1,1.2509247E1,0E0,9.21642E0,0E0,0E0,4.7210283E0,0E0,5.13237E0,2.7524345E1,1.5465294E1,1.0726646E1,0E0,1.4270203E1,0E0,0E0,0E0,0E0,0E0,0E0,0E0,0E0,0E0,0E0,0E0,0E0,0E0,0E0,0E0],"parents":[2147483647,0,0,1,1,2,2,3,3,4,4,5,5,6,6,8,8,9,9,10,10,11,11,12,12,13,13,15,15,18,18,20,20,21,21,22,22,23,23,25,25],"right_children":[2,4,6,8,10,12,14,-1,16,18,20,22,24,26,-1,28,-1,-1,30,-1,32,34,36,38,-1,40,-1,-1,-1,-1,-1,-1,-1,-1,-1,-1,-1,-1,-1,-1,-1],"split_conditions":[2.08E1,2.6849315E-1,1.6327344E-1,8.6132E3,-7.321275E-3,3.8356164E-1,3.8120037E-1,-3.989995E-2,-5.3341123E-3,5.1232874E-1,3.4200679E3,7.2455496E-2,-8.523974E-2,3E2,-2.3959793E-2,4.497544E3,5.5781193E-2,-2.8097378E-2,-3.637584E-2,3.518583E-2,-3.3884207E-4,1.2E1,8.97235E3,6.459453E-4,-6.276507E-2,6.87005E3,-1.4863734E-2,-2.4514891E-2,3.846193E-2,2.8289242E-3,5.174853E-2,-5.875004E-2,-1.2888641E-2,3.361389E-2,-5.6702096E-2,1.1565564E-2,-7.174214E-2,-3.702383E-2,2.2642199E-2,-1.1337138E-3,4.2674642E-2],"split_indices":[3,17,14,13,5,17,14,0,5,17,15,14,14,3,0,15,0,0,5,0,5,1,13,4,0,13,0,0,0,0,0,0,0,0,0,0,0,0,0,0,0],"split_type":[0,0,0,0,0,0,0,0,0,0,0,0,0,0,0,0,0,0,0,0,0,0,0,0,0,0,0,0,0,0,0,0,0,0,0,0,0,0,0,0,0],"sum_hessian":[3.5412354E2,1.3987709E2,2.1424643E2,4.2182343E1,9.769474E1,1.0524675E2,1.0899969E2,9.546925E0,3.2635418E1,2.2009869E1,7.5684875E1,7.1757225E1,3.3489525E1,1.03185E2,5.8146925E0,1.3360634E1,1.9274786E1,9.358067E0,1.2651802E1,6.3051724E0,6.93797E1,5.7738194E1,1.401903E1,1.7357616E1,1.613191E1,9.557711E1,7.607886E0,5.3938193E0,7.9668145E0,5.7730055E0,6.8787966E0,6.429479E1,5.0849075E0,5.2673393E1,5.0648003E0,5.050989E0,8.96804E0,9.233092E0,8.124524E0,1.3622758E1,8.195435E1],"tree_param":{"num_deleted":"0","num_feature":"18","num_nodes":"41","size_leaf_vector":"1"}},{"base_weights":[7.4780054E-2,-6.798985E-1,3.3256498E-1,-1.1384919E0,5.076923E-1,5.7933813E-1,-5.304847E-1,-3.1766894E-1,-1.4155952E0,1.1645509E0,-3.0042276E-1,-6.948814E-1,7.491408E-1,-8.89754E-1,5.9862715E-1,4.903043E-2,-1.0735788E0,-1.4921415E-2,-6.0848594E-2,1.8978419E-2,5.838739E-2,1.8221155E-2,-3.4308176E-2,4.0523013E-1,-6.21218E-2,8.935375E-1,-3.179508E-1,-6.2406864E-2,1.3331239E-1,3.5317354E-3,5.273716E-2,-5.775878E-2,-1.5614024E-2,5.2062314E-2,-2.3022093E-2,9.720861E-3,4.1597918E-2,-3.7587192E-2,5.831642E-2,-3.6221698E-2,4.554616E-2],"categories":[],"categories_nodes":[],"categories_segments":[],"categories_sizes":[],"default_left":[0,0,0,0,0,0,0,0,0,0,0,0,0,0,0,0,0,0,0,0,0,0,0,0,0,0,0,0,0,0,0,0,0,0,0,0,0,0,0,0,0],"id":10,"left_children":[1,3,5,7,9,11,13,15,17,19,21,23,25,27,29,-1,31,-1,-1,-1,-1,-1,-1,33,-1,35,37,-1,39,-1,-1,-1,-1,-1,-1,-1,-1,-1,-1,-1,-1],"loss_changes":[7.279551E1,5.2516693E1,5.972216E1,1.5090561E1,1.4856336E1,4.758383E1,2.5897886E1,2.3253986E1,4.8885193E0,2.221737E0,5.8684235E0,2.5313162E1,2.9997955E1,3.317053E1,5.4758825E0,0E0,2.5951529E0,0E0,0E0,0E0,0E0,0E0,0E0,1.1499771E1,0E0,1.5798035E1,2.7369644E1,0E0,2.1739206E1,0E0,0E0,0E0,0E0,0E0,0E0,0E0,0E0,0E0,0E0,0E0,0E0],"parents":[2147483647,0,0,1,1,2,2,3,3,4,4,5,5,6,6,7,7,8,8,9,9,10,10,11,11,12,12,13,13,14,14,16,16,23,23,25,25,26,26,28,28],"right_children":[2,4,6,8,10,12,14,16,18,20,22,24,26,28,30,-1,32,-1,-1,-1,-1,-1,-1,34,-1,36,38,-1,40,-1,-1,-1,-1,-1,-1,-1,-1,-1,-1,-1,-1],"split_conditions":[-1.0184E3,-1.8467562E-4,9.52445E3,-8.4195327E-4,-1.6407853E-2,8.6067E3,8.0174925E-3,2.7115512E-1,-2.1338E3,6.297291E-5,-2.1106E3,-1.253121E-1,2.329E3,9E0,8.8973045E-2,4.903043E-2,-2.6039497E-3,-1.4921415E-2,-6.0848594E-2,1.8978419E-2,5.838739E-2,1.8221155E-2,-3.4308176E-2,4.507308E-3,-6.21218E-2,-2.7713306E-2,2.2101451E-3,-6.2406864E-2,2.3703404E-2,3.5317354E-3,5.273716E-2,-5.775878E-2,-1.5614024E-2,5.2062314E-2,-2.3022093E-2,9.720861E-3,4.1597918E-2,-3.7587192E-2,5.831642E-2,-3.6221698E-2,4.554616E-2],"split_indices":[2,5,13,4,16,13,7,14,2,4,2,14,2,1,0,0,4,0,0,0,0,0,0,0,0,5,0,0,16,0,0,0,0,0,0,0,0,0,0,0,0],"split_type":[0,0,0,0,0,0,0,0,0,0,0,0,0,0,0,0,0,0,0,0,0,0,0,0,0,0,0,0,0,0,0,0,0,0,0,0,0,0,0,0,0],"sum_hessian":[3.722002E2,9.425079E1,2.779494E2,6.8085014E1,2.616578E1,2.1649207E2,6.1457325E1,1.7816637E1,5.0268375E1,1.4258635E1,1.1907145E1,2.5024439E1,1.9146762E2,4.68506E1,1.4606725E1,5.6094017E0,1.2207234E1,5.128105E0,4.514027E1,5.153955E0,9.104679E0,5.054232E0,6.852912E0,1.1146543E1,1.3877896E1,1.6887248E2,2.2595142E1,2.8045242E1,1.8805357E1,9.285191E0,5.321534E0,7.098947E0,5.1082873E0,5.706409E0,5.4401336E0,3.1639206E1,1.3723328E2,1.7126371E1,5.4687715E0,9.248429E0,9.556928E0],"tree_param":{"num_deleted":"0","num_feature":"18","num_nodes":"41","size_leaf_vector":"1"}},{"base_weights":[-1.1385476E-2,-7.895902E-1,2.3514795E-1,1.06364824E-1,-1.394002E0,4.7224706E-1,-6.5647435E-1,-3.2529676E-1,1.0023845E0,-5.9558794E-2,-1.8059237E-2,-6.2902266E-1,6.191522E-1,4.865628E-2,-8.787677E-1,6.045969E-2,-1.1637529E0,1.50018735E-2,5.850598E-2,2.8079167E-1,-6.196122E-2,7.548602E-1,-6.5920365E-1,-1.2405984E0,1.8480815E-2,-6.0162265E-2,-1.2605722E-2,-2.536382E-2,4.8824366E-2,3.842748E-2,1.4453805E-2,-6.371656E-2,2.865799E-2,-6.1158203E-2,-0E0],"categories":[],"categories_nodes":[],"categories_segments":[],"categories_sizes":[],"default_left":[0,0,0,0,0,0,0,0,0,0,0,0,0,0,0,0,0,0,0,0,0,0,0,0,0,0,0,0,0,0,0,0,0,0,0],"id":11,"left_children":[1,3,5,7,9,11,13,15,17,-1,-1,19,21,-1,23,-1,25,-1,-1,27,-1,29,31,33,-1,-1,-1,-1,-1,-1,-1,-1,-1,-1,-1],"loss_changes":[6.569746E1,4.490337E1,5.5207787E1,1.3567462E1,3.5508423E0,3.3695076E1,2.3890448E1,3.8171474E1,2.557619E0,0E0,0E0,2.119168E1,3.212046E1,0E0,2.4762886E1,0E0,4.210449E0,0E0,0E0,1.216836E1,0E0,1.2907295E1,2.4286856E1,1.4229256E1,0E0,0E0,0E0,0E0,0E0,0E0,0E0,0E0,0E0,0E0,0E0],"parents":[2147483647,0,0,1,1,2,2,3,3,4,4,5,5,6,6,7,7,8,8,11,11,12,12,14,14,16,16,19,19,21,21,22,22,23,23],"right_children":[2,4,6,8,10,12,14,16,18,-1,-1,20,22,-1,24,-1,26,-1,-1,28,-1,30,32,34,-1,-1,-1,-1,-1,-1,-1,-1,-1,-1,-1],"split_conditions":[-1.0214E3,3.7689194E3,9.52445E3,9.232877E-1,2.66E1,8.6067E3,2.4657534E-2,1.2925383E-1,3.4089558E3,-5.9558794E-2,-1.8059237E-2,-4.102702E-3,4.619945E3,4.865628E-2,2.378E2,6.045969E-2,4.3670266E-4,1.50018735E-2,5.850598E-2,-8.570833E-3,-6.196122E-2,8.9868E3,2.2101451E-3,8.9863014E-1,1.8480815E-2,-6.0162265E-2,-1.2605722E-2,-2.536382E-2,4.8824366E-2,3.842748E-2,1.4453805E-2,-6.371656E-2,2.865799E-2,-6.1158203E-2,-0E0],"split_indices":[2,15,13,17,3,13,17,6,15,0,0,4,15,0,3,0,4,0,0,4,0,13,0,17,0,0,0,0,0,0,0,0,0,0,0],"split_type":[0,0,0,0,0,0,0,0,0,0,0,0,0,0,0,0,0,0,0,0,0,0,0,0,0,0,0,0,0,0,0,0,0,0,0],"sum_hessian":[3.4017883E2,8.14085E1,2.5877032E2,3.306012E1,4.834838E1,2.048732E2,5.3897125E1,2.2666014E1,1.0394107E1,4.329966E1,5.048721E0,2.3646366E1,1.8122684E2,5.1961594E0,4.8700966E1,6.814861E0,1.5851153E1,5.258681E0,5.135426E0,1.218373E1,1.1462636E1,1.6427538E2,1.695146E1,3.8468895E1,1.023207E1,1.0678655E1,5.1724987E0,6.284669E0,5.8990607E0,1.0674653E2,5.7528843E1,1.0046955E1,6.9045057E0,3.1072168E1,7.3967276E0],"tree_param":{"num_deleted":"0","num_feature":"18","num_nodes":"35","size_leaf_vector":"1"}},{"base_weights":[2.9017834E-2,-2.4845932E-1,5.1677513E-1,4.1919348E-1,-6.8606436E-1,8.519933E-1,1.1467204E-1,-2.2675763E-1,6.5543234E-1,-1.3019874E0,-2.6925024E-1,9.8639566E-1,-2.4519945E-2,-1.0448269E0,8.2566184E-1,7.2627753E-1,-1.1175773E0,8.6435837E-1,-2.1186447E-2,-5.843709E-2,-2.1118443E-2,-4.386155E-2,-6.504521E-2,-2.0110041E-3,1.0868318E0,4.62503E-3,-1.490273E0,-3.0348144E-2,1.216127E0,3.4072923E-3,5.601716E-2,-5.972589E-2,-1.5777549E-2,4.5798533E-2,2.091213E-2,7.0790923E-3,-5.6537952E-2,6.5805623E-3,4.9521346E-2,-2.517989E-2,-7.1703725E-2,5.6041684E-2,2.7720263E-2],"categories":[],"categories_nodes":[],"categories_segments":[],"categories_sizes":[],"default_left":[0,0,0,0,0,0,0,0,0,0,0,0,0,0,0,0,0,0,0,0,0,0,0,0,0,0,0,0,0,0,0,0,0,0,0,0,0,0,0,0,0,0,0],"id":12,"left_children":[1,3,5,7,9,11,13,15,17,19,21,23,-1,25,27,29,31,33,-1,-1,-1,35,-1,-1,37,-1,39,-1,41,-1,-1,-1,-1,-1,-1,-1,-1,-1,-1,-1,-1,-1,-1],"loss_changes":[4.8857353E1,6.748641E1,1.7454937E1,1.4163164E1,3.5267227E1,1.4644672E1,5.098095E1,2.2200752E1,1.7181925E1,5.90493E0,2.5593594E1,6.987049E0,0E0,1.2460739E1,2.4671175E1,5.221657E0,2.8741417E0,4.770397E0,0E0,0E0,0E0,2.2612093E1,0E0,0E0,8.0130005E0,0E0,3.0846252E0,0E0,1.8351784E0,0E0,0E0,0E0,0E0,0E0,0E0,0E0,0E0,0E0,0E0,0E0,0E0,0E0,0E0],"parents":[2147483647,0,0,1,1,2,2,3,3,4,4,5,5,6,6,7,7,8,8,9,9,10,10,11,11,13,13,14,14,15,15,16,16,17,17,21,21,24,24,26,26,28,28],"right_children":[2,4,6,8,10,12,14,16,18,20,22,24,-1,26,28,30,32,34,-1,-1,-1,36,-1,-1,38,-1,40,-1,42,-1,-1,-1,-1,-1,-1,-1,-1,-1,-1,-1,-1,-1,-1],"split_conditions":[2.0089864E-3,-8.4195327E-4,7.4E1,-7.86E2,3.221834E-4,2.0521186E-2,1.3405E3,-2.1192E3,9.0574E3,1E1,2.0047806E-2,-2.9158251E-2,-2.4519945E-2,8.138E3,6.5612886E-3,-2.7703901E-3,-1.2163086E-2,8.97065E3,-2.1186447E-2,-5.843709E-2,-2.1118443E-2,9.5375E3,-6.504521E-2,-2.0110041E-3,-2.1067E3,4.62503E-3,-7.533202E-3,-3.0348144E-2,9.6032E3,3.4072923E-3,5.601716E-2,-5.972589E-2,-1.5777549E-2,4.5798533E-2,2.091213E-2,7.0790923E-3,-5.6537952E-2,6.5805623E-3,4.9521346E-2,-2.517989E-2,-7.1703725E-2,5.6041684E-2,2.7720263E-2],"split_indices":[7,4,2,2,4,4,2,2,13,1,4,4,0,13,7,5,4,13,0,0,0,13,0,0,2,0,5,0,13,0,0,0,0,0,0,0,0,0,0,0,0,0,0],"split_type":[0,0,0,0,0,0,0,0,0,0,0,0,0,0,0,0,0,0,0,0,0,0,0,0,0,0,0,0,0,0,0,0,0,0,0,0,0,0,0,0,0,0,0],"sum_hessian":[3.5884616E2,2.289091E2,1.2993707E2,9.055823E1,1.3835088E2,7.011625E1,5.982082E1,2.4147696E1,6.641053E1,5.4884655E1,8.3466225E1,6.458591E1,5.530338E0,2.25065E1,3.731432E1,1.1701455E1,1.244624E1,5.6759193E1,9.651339E0,4.4691082E1,1.0193576E1,7.252522E1,1.0941002E1,5.6607876E0,5.892512E1,6.38599E0,1.612051E1,7.1407156E0,3.0173603E1,6.651138E0,5.050317E0,7.3999124E0,5.046328E0,2.9707764E1,2.7051428E1,6.3141716E1,9.383509E0,8.686666E0,5.0238457E1,5.0772886E0,1.1043221E1,2.0912094E1,9.261508E0],"tree_param":{"num_deleted":"0","num_feature":"18","num_nodes":"43","size_leaf_vector":"1"}},{"base_weights":[-4.8376314E-2,3.7496564E-1,-4.4426432E-1,-1.2897606E0,6.1248225E-1,-7.1679986E-1,4.306279E-1,-1.6930677E-2,-6.1437767E-2,8.292839E-1,-1.5069906E-1,6.0253084E-1,-9.005667E-1,8.049109E-1,-6.388104E-2,-1.9549986E-2,9.4026244E-1,-6.261443E-2,5.638725E-1,-1.910143E-2,4.516107E-2,3.786792E-2,-1.0467726E0,5.155897E-2,4.003866E-1,4.1638497E-2,-1.1150892E-2,5.4686733E-2,-1.0612968E-2,-4.7377136E-2,3.466743E-2,-1.9478124E-2,4.342399E-2],"categories":[],"categories_nodes":[],"categories_segments":[],"categories_sizes":[],"default_left":[0,0,0,0,0,0,0,0,0,0,0,0,0,0,0,0,0,0,0,0,0,0,0,0,0,0,0,0,0,0,0,0,0],"id":13,"left_children":[1,3,5,7,9,11,13,-1,-1,15,17,19,21,23,-1,-1,25,-1,27,-1,-1,-1,29,-1,31,-1,-1,-1,-1,-1,-1,-1,-1],"loss_changes":[5.6721764E1,6.535854E1,4.2049232E1,3.5654716E0,2.3984188E1,3.3024002E1,3.3147865E1,0E0,0E0,1.6921745E1,3.389178E1,1.0212687E1,3.2857605E1,6.4106445E0,0E0,0E0,1.3124649E1,0E0,1.5338495E1,0E0,0E0,0E0,2.9986412E1,0E0,1.3541198E1,0E0,0E0,0E0,0E0,0E0,0E0,0E0,0E0],"parents":[2147483647,0,0,1,1,2,2,3,3,4,4,5,5,6,6,9,9,10,10,11,11,12,12,13,13,16,16,18,18,22,22,24,24],"right_children":[2,4,6,8,10,12,14,-1,-1,16,18,20,22,24,-1,-1,26,-1,28,-1,-1,-1,30,-1,32,-1,-1,-1,-1,-1,-1,-1,-1],"split_conditions":[4.0035725E-2,8.6067E3,2.2104331E-3,3.3695527E3,9.0574E3,2.7671233E-1,4.414138E3,-1.6930677E-2,-6.1437767E-2,1.01369865E-1,2.499928E-3,4.3385986E3,3.4292065E3,-1.3455567E-2,-6.388104E-2,-1.9549986E-2,4.619945E3,-6.261443E-2,-1.3344317E-2,-1.910143E-2,4.516107E-2,3.786792E-2,2.9021E3,5.155897E-2,1.95E2,4.1638497E-2,-1.1150892E-2,5.4686733E-2,-1.0612968E-2,-4.7377136E-2,3.466743E-2,-1.9478124E-2,4.342399E-2],"split_indices":[6,13,7,15,13,17,15,0,0,17,7,15,15,16,0,0,15,0,16,0,0,0,2,0,3,0,0,0,0,0,0,0,0],"split_type":[0,0,0,0,0,0,0,0,0,0,0,0,0,0,0,0,0,0,0,0,0,0,0,0,0,0,0,0,0,0,0,0,0],"sum_hessian":[3.3640808E2,1.6247067E2,1.7393741E2,1.9680578E1,1.427901E2,1.3284895E2,4.108845E1,5.0459266E0,1.4634652E1,1.1123524E2,3.1554865E1,1.5896819E1,1.1695213E2,3.5236523E1,5.851929E0,8.304307E0,1.0293093E2,1.0237215E1,2.1317648E1,5.1778693E0,1.0718949E1,8.125828E0,1.0882631E2,1.4933338E1,2.0303186E1,9.528767E1,7.643261E0,1.0559651E1,1.07579975E1,1.01926865E2,6.8994474E0,8.909253E0,1.1393933E1],"tree_param":{"num_deleted":"0","num_feature":"18","num_nodes":"33","size_leaf_vector":"1"}},{"base_weights":[-1.5151699E-2,-3.513355E-1,3.8298246E-1,-6.6972446E-1,3.512749E-1,-5.5690467E-2,6.4288825E-1,-7.6868844E-1,4.0402666E-2,5.644178E-1,-2.447523E-2,7.485876E-1,-6.591837E-2,-2.083998E-1,-1.1259065E0,2.9462296E-1,1.1571592E0,8.88375E-1,-3.055128E-1,-2.7659157E-2,1.209166E-2,-5.181478E-2,-2.427982E-2,3.810196E-2,-4.297042E-2,1.484883E-2,6.1089233E-2,-2.6656758E-2,3.9022192E-2,4.7834773E-2,-7.108907E-2],"categories":[],"categories_nodes":[],"categories_segments":[],"categories_sizes":[],"default_left":[0,0,0,0,0,0,0,0,0,0,0,0,0,0,0,0,0,0,0,0,0,0,0,0,0,0,0,0,0,0,0],"id":14,"left_children":[1,3,5,7,9,-1,11,13,-1,15,-1,17,-1,19,21,23,25,27,29,-1,-1,-1,-1,-1,-1,-1,-1,-1,-1,-1,-1],"loss_changes":[4.5137268E1,4.1197403E1,7.200607E1,2.1756966E1,1.2168273E1,0E0,3.3908695E1,2.3638664E1,0E0,7.154814E0,0E0,1.9496254E1,0E0,1.2098539E1,5.435005E0,3.1895603E1,3.457018E0,1.629396E1,3.7294735E1,0E0,0E0,0E0,0E0,0E0,0E0,0E0,0E0,0E0,0E0,0E0,0E0],"parents":[2147483647,0,0,1,1,2,2,3,3,4,4,6,6,7,7,9,9,11,11,13,13,14,14,15,15,16,16,17,17,18,18],"right_children":[2,4,6,8,10,-1,12,14,-1,16,-1,18,-1,20,22,24,26,28,30,-1,-1,-1,-1,-1,-1,-1,-1,-1,-1,-1,-1],"split_conditions":[4E-1,2.2832146E-3,-1.0214E3,2.9021E3,3.4526467E-2,-5.5690467E-2,4.619945E3,-1.5581226E-3,4.0402666E-2,3.59E2,-2.447523E-2,1.4653E-2,-6.591837E-2,-4.683661E-3,2.5329737E-2,-2.3317789E-3,2.7846028E-3,8.62285E3,8.66305E3,-2.7659157E-2,1.209166E-2,-5.181478E-2,-2.427982E-2,3.810196E-2,-4.297042E-2,1.484883E-2,6.1089233E-2,-2.6656758E-2,3.9022192E-2,4.7834773E-2,-7.108907E-2],"split_indices":[12,7,2,2,7,0,15,0,0,3,0,0,0,5,16,16,16,13,13,0,0,0,0,0,0,0,0,0,0,0,0],"split_type":[0,0,0,0,0,0,0,0,0,0,0,0,0,0,0,0,0,0,0,0,0,0,0,0,0,0,0,0,0,0,0],"sum_hessian":[3.3525058E2,1.8196683E2,1.5328375E2,1.2535235E2,5.6614475E1,1.8970089E1,1.3431366E2,1.18946594E2,6.4057546E0,4.6780037E1,9.834437E0,1.2907504E2,5.238623E0,4.7035606E1,7.191099E1,3.3292316E1,1.34877205E1,1.14184746E2,1.4890291E1,2.4089956E1,2.294565E1,5.2934795E1,1.8976192E1,2.2739994E1,1.0552322E1,5.0455575E0,8.442163E0,5.6489153E0,1.0853583E2,7.4299965E0,7.4602947E0],"tree_param":{"num_deleted":"0","num_feature":"18","num_nodes":"31","size_leaf_vector":"1"}},{"base_weights":[-1.0029219E-2,2.480781E-1,-5.3365356E-1,6.14401E-1,-2.6103112E-1,-9.096509E-1,8.122711E-1,3.0771258E-1,1.0878818E0,1.8202873E-3,-6.2391322E-2,-1.2897986E0,3.0210873E-1,2.6985264E-1,5.9182867E-2,9.712308E-2,5.841213E-2,4.961037E-3,4.7849312E-2,-5.0884444E-1,3.271029E-1,-2.296055E-3,-5.6764536E-2,4.9636293E-2,-2.0714985E-2,-5.6878548E-2,5.1887482E-2,1.3349329E-2,-6.6914156E-2,-5.5270623E-2,7.44907E-3,-1.5546182E-2,2.3650654E-2],"categories":[],"categories_nodes":[],"categories_segments":[],"categories_sizes":[],"default_left":[0,0,0,0,0,0,0,0,0,0,0,0,0,0,0,0,0,0,0,0,0,0,0,0,0,0,0,0,0,0,0,0,0],"id":15,"left_children":[1,3,5,7,9,11,13,15,17,19,-1,21,23,25,-1,27,-1,-1,-1,29,31,-1,-1,-1,-1,-1,-1,-1,-1,-1,-1,-1,-1],"loss_changes":[4.5423763E1,4.2135983E1,5.6932922E1,1.857642E1,3.2483578E1,4.0707214E1,8.370771E0,1.9397799E1,5.051029E0,1.3384926E1,0E0,1.0402641E1,1.7340181E1,2.7794823E1,0E0,2.9636349E1,0E0,0E0,0E0,1.9355133E1,9.59178E0,0E0,0E0,0E0,0E0,0E0,0E0,0E0,0E0,0E0,0E0,0E0,0E0],"parents":[2147483647,0,0,1,1,2,2,3,3,4,4,5,5,6,6,7,7,8,8,9,9,11,11,12,12,13,13,15,15,19,19,20,20],"right_children":[2,4,6,8,10,12,14,16,18,20,-1,22,24,26,-1,28,-1,-1,-1,30,32,-1,-1,-1,-1,-1,-1,-1,-1,-1,-1,-1,-1],"split_conditions":[6.7163676E-2,7E0,1E1,5E0,1.4268314E-2,-1.8467562E-4,4.24738E3,8.8973045E-2,-4.9275875E-2,1.1E1,-6.2391322E-2,-5.275985E-3,3.703265E3,7.131447E-2,5.9182867E-2,2.0062417E-2,5.841213E-2,4.961037E-3,4.7849312E-2,1.6645942E-3,-1.7566228E-2,-2.296055E-3,-5.6764536E-2,4.9636293E-2,-2.0714985E-2,-5.6878548E-2,5.1887482E-2,1.3349329E-2,-6.6914156E-2,-5.5270623E-2,7.44907E-3,-1.5546182E-2,2.3650654E-2],"split_indices":[6,1,1,1,16,5,15,0,0,1,0,0,15,6,0,16,0,0,0,0,5,0,0,0,0,0,0,0,0,0,0,0,0],"split_type":[0,0,0,0,0,0,0,0,0,0,0,0,0,0,0,0,0,0,0,0,0,0,0,0,0,0,0,0,0,0,0,0,0],"sum_hessian":[3.339049E2,2.238828E2,1.1002209E2,1.3019344E2,9.368938E1,8.6309204E1,2.3712887E1,8.0143234E1,5.0050194E1,7.868591E1,1.5003459E1,6.571234E1,2.0596857E1,1.3937763E1,9.775125E0,6.875251E1,1.1390724E1,5.367776E0,4.468242E1,3.0278938E1,4.840698E1,6.450917E0,5.926143E1,9.420245E0,1.1176612E1,5.083983E0,8.853781E0,6.141104E1,7.34147E0,1.3048101E1,1.7230837E1,1.2820282E1,3.5586697E1],"tree_param":{"num_deleted":"0","num_feature":"18","num_nodes":"33","size_leaf_vector":"1"}},{"base_weights":[3.4060754E-2,2.483849E-1,-5.6231886E-1,-5.7895243E-1,4.710138E-1,-9.0392494E-1,4.1959548E-1,6.128202E-1,-9.6869624E-1,6.2202656E-1,-8.7930286E-1,3.3474866E-2,-1.2401575E0,-5.557166E-2,1.0259504E0,3.6791565E-3,4.4518966E-2,-1.2887589E0,1.8294394E-4,7.122741E-1,-4.336681E-1,-5.3338174E-2,-0E0,-5.7824567E-2,-4.4099975E-1,5.7792887E-2,1.266468E-2,-1.6089592E-2,-5.8203958E-2,3.120668E-2,-3.2224357E-2,-5.8303516E-2,4.7896337E-2,-4.8362646E-2,1.4826942E-2],"categories":[],"categories_nodes":[],"categories_segments":[],"categories_sizes":[],"default_left":[0,0,0,0,0,0,0,0,0,0,0,0,0,0,0,0,0,0,0,0,0,0,0,0,0,0,0,0,0,0,0,0,0,0,0],"id":16,"left_children":[1,3,5,7,9,11,13,15,17,19,21,-1,23,-1,25,-1,-1,27,-1,29,31,-1,-1,-1,33,-1,-1,-1,-1,-1,-1,-1,-1,-1,-1],"loss_changes":[4.337885E1,4.6281837E1,3.0508852E1,2.5400469E1,4.0798717E1,4.025063E1,2.744323E1,3.3438754E0,1.2793522E1,1.73246E1,8.094414E0,0E0,8.45771E0,0E0,4.8355465E0,0E0,0E0,3.7505836E0,0E0,1.7601852E1,2.6115536E1,0E0,0E0,0E0,8.700195E0,0E0,0E0,0E0,0E0,0E0,0E0,0E0,0E0,0E0,0E0],"parents":[2147483647,0,0,1,1,2,2,3,3,4,4,5,5,6,6,7,7,8,8,9,9,10,10,12,12,14,14,17,17,19,19,20,20,24,24],"right_children":[2,4,6,8,10,12,14,16,18,20,22,-1,24,-1,26,-1,-1,28,-1,30,32,-1,-1,-1,34,-1,-1,-1,-1,-1,-1,-1,-1,-1,-1],"split_conditions":[6.5753424E-1,8.6067E3,2.2576456E-3,-2.4921225E-2,4.665741E3,3.4292065E3,2.6677018E-1,6.8826E3,3.9472464E-3,9.6032E3,1.7013728E-3,3.3474866E-2,9.53005E3,-5.557166E-2,-1.5097053E-2,3.6791565E-3,4.4518966E-2,6.86245E3,1.8294394E-4,4.619945E3,4.655522E3,-5.3338174E-2,-0E0,-5.7824567E-2,8.9041096E-1,5.7792887E-2,1.266468E-2,-1.6089592E-2,-5.8203958E-2,3.120668E-2,-3.2224357E-2,-5.8303516E-2,4.7896337E-2,-4.8362646E-2,1.4826942E-2],"split_indices":[17,13,0,16,15,15,14,13,7,13,7,0,13,0,16,0,0,13,0,15,15,0,0,0,17,0,0,0,0,0,0,0,0,0,0],"split_type":[0,0,0,0,0,0,0,0,0,0,0,0,0,0,0,0,0,0,0,0,0,0,0,0,0,0,0,0,0,0,0,0,0,0,0],"sum_hessian":[3.3753128E2,2.488514E2,8.867988E1,5.233044E1,1.9652097E2,6.592571E1,2.2754162E1,1.2691862E1,3.9638577E1,1.773054E2,1.9215559E1,1.0382969E1,5.5542744E1,5.346943E0,1.7407219E1,6.89525E0,5.796612E0,2.9662554E1,9.976023E0,1.6372884E2,1.357656E1,1.2342635E1,6.872923E0,4.3440502E1,1.2102242E1,1.0203847E1,7.2033715E0,5.3213716E0,2.4341183E1,1.5724727E2,6.481571E0,8.443665E0,5.1328964E0,6.0299015E0,6.072341E0],"tree_param":{"num_deleted":"0","num_feature":"18","num_nodes":"35","size_leaf_vector":"1"}},{"base_weights":[4.5197974E-3,5.489752E-1,-2.658199E-1,1.0760535E0,2.357446E-1,-7.602959E-1,2.4251156E-1,5.639609E-3,1.2885513E0,4.8606634E-1,-4.613947E-2,-1.3047472E0,3.8447246E-1,-1.1011235E0,4.1354728E-1,5.9737965E-2,2.7828349E-2,-4.548857E-1,7.6878077E-1,-2.001856E-2,-1.3790742E0,-7.2581714E-1,9.9415874E-1,-5.629216E-2,-2.1782236E-2,6.27045E-1,-4.397395E-1,-6.2718794E-2,2.303575E-2,4.5162104E-2,2.2774576E-3,-2.381682E-2,-5.7329543E-2,1.1241551E-2,-5.5510204E-2,1.9855943E-2,5.7584066E-2,-1.5441334E-3,3.950864E-2,-5.378541E-2,1.9719226E-2],"categories":[],"categories_nodes":[],"categories_segments":[],"categories_sizes":[],"default_left":[0,0,0,0,0,0,0,0,0,0,0,0,0,0,0,0,0,0,0,0,0,0,0,0,0,0,0,0,0,0,0,0,0,0,0,0,0,0,0,0,0],"id":17,"left_children":[1,3,5,7,9,11,13,-1,15,17,-1,19,21,23,25,-1,-1,27,29,-1,31,33,35,-1,-1,37,39,-1,-1,-1,-1,-1,-1,-1,-1,-1,-1,-1,-1,-1,-1],"loss_changes":[4.8386154E1,1.7631771E1,5.5390583E1,7.678646E0,2.4784267E1,7.013222E1,2.5402658E1,0E0,2.7032776E0,1.6328838E1,0E0,3.6589813E0,2.5573666E1,1.1683989E0,1.8030392E1,0E0,0E0,1.7520668E1,1.1755751E1,0E0,1.8637543E0,9.511188E0,4.4472446E0,0E0,0E0,1.8950142E1,1.7609962E1,0E0,0E0,0E0,0E0,0E0,0E0,0E0,0E0,0E0,0E0,0E0,0E0,0E0,0E0],"parents":[2147483647,0,0,1,1,2,2,3,3,4,4,5,5,6,6,8,8,9,9,11,11,12,12,13,13,14,14,17,17,18,18,20,20,21,21,22,22,25,25,26,26],"right_children":[2,4,6,8,10,12,14,-1,16,18,-1,20,22,24,26,-1,-1,28,30,-1,32,34,36,-1,-1,38,40,-1,-1,-1,-1,-1,-1,-1,-1,-1,-1,-1,-1,-1,-1],"split_conditions":[-4.6155844E-3,-1.580062E-2,2.2219857E-3,-2.3688402E-2,9.0574E3,1E1,6.8826E3,5.639609E-3,3.993524E-2,4.0663188E3,-4.613947E-2,3.6336028E3,6.723916E-2,6.8732E3,9.52445E3,5.9737965E-2,2.7828349E-2,-2.502253E-3,3.9984006E-2,-2.001856E-2,2.1092374E-2,-1.4899308E-3,4.24738E3,-5.629216E-2,-2.1782236E-2,3.9099663E-2,7.5701782E-3,-6.2718794E-2,2.303575E-2,4.5162104E-2,2.2774576E-3,-2.381682E-2,-5.7329543E-2,1.1241551E-2,-5.5510204E-2,1.9855943E-2,5.7584066E-2,-1.5441334E-3,3.950864E-2,-5.378541E-2,1.9719226E-2],"split_indices":[0,16,0,5,13,1,13,0,6,15,0,15,6,13,13,0,0,5,6,0,6,0,15,0,0,6,7,0,0,0,0,0,0,0,0,0,0,0,0,0,0],"split_type":[0,0,0,0,0,0,0,0,0,0,0,0,0,0,0,0,0,0,0,0,0,0,0,0,0,0,0,0,0,0,0,0,0,0,0,0,0,0,0,0,0],"sum_hessian":[3.2655344E2,1.0812746E2,2.1842598E2,3.927842E1,6.884904E1,1.10570404E2,1.0785557E2,7.668494E0,3.1609926E1,5.8949238E1,9.899797E0,7.4897026E1,3.567338E1,1.1498913E1,9.635665E1,2.2236685E1,9.373241E0,1.33971405E1,4.5552097E1,7.1040206E0,6.779301E1,1.2519618E1,2.3153763E1,6.3160787E0,5.182834E0,7.7378426E1,1.8978231E1,6.23748E0,7.15966E0,2.9762442E1,1.5789658E1,5.277463E0,6.251554E1,5.1343126E0,7.3853054E0,1.2039317E1,1.1114446E1,2.7408844E1,4.9969578E1,9.463057E0,9.515175E0],"tree_param":{"num_deleted":"0","num_feature":"18","num_nodes":"41","size_leaf_vector":"1"}},{"base_weights":[-4.055953E-2,-6.646719E-1,1.5858258E-1,3.4989035E-1,-1.2945937E0,2.9484913E-1,-1.1566101E0,-4.5431113E-1,7.7900887E-1,-5.483583E-2,-2.0946445E-2,4.2776E-1,-6.12941E-1,-1.5190469E-2,-5.4255437E-2,-4.7926877E-2,1.571256E-2,4.5800626E-2,-1.0479824E-3,6.963071E-1,-1.14824474E-1,-6.781425E-2,5.024756E-1,-1.1520475E-2,3.4155484E-2,4.884618E-2,-2.9382624E-2,-2.6199328E-2,4.9325544E-2],"categories":[],"categories_nodes":[],"categories_segments":[],"categories_sizes":[],"default_left":[0,0,0,0,0,0,0,0,0,0,0,0,0,0,0,0,0,0,0,0,0,0,0,0,0,0,0,0,0],"id":18,"left_children":[1,3,5,7,9,11,13,15,17,-1,-1,19,21,-1,-1,-1,-1,-1,-1,23,25,-1,27,-1,-1,-1,-1,-1,-1],"loss_changes":[4.088294E1,5.1406406E1,4.4898582E1,1.1156723E1,1.9967957E0,2.7582193E1,2.961605E0,7.740831E0,6.271888E0,0E0,0E0,2.9036842E1,3.6289124E1,0E0,0E0,0E0,0E0,0E0,0E0,2.0921661E1,5.5823402E1,0E0,1.3663296E1,0E0,0E0,0E0,0E0,0E0,0E0],"parents":[2147483647,0,0,1,1,2,2,3,3,4,4,5,5,6,6,7,7,8,8,11,11,12,12,19,19,20,20,22,22],"right_children":[2,4,6,8,10,12,14,16,18,-1,-1,20,22,-1,-1,-1,-1,-1,-1,24,26,-1,28,-1,-1,-1,-1,-1,-1],"split_conditions":[-1.0194E3,3.723632E3,4.665741E3,6.612497E-4,2.0089864E-3,2.3021117E-2,2.1426385E-2,9.0136987E-1,2.43E1,-5.483583E-2,-2.0946445E-2,9.02485E3,4.75E2,-1.5190469E-2,-5.4255437E-2,-4.7926877E-2,1.571256E-2,4.5800626E-2,-1.0479824E-3,8.6067E3,5.479452E-2,-6.781425E-2,1.4828545E-2,-1.1520475E-2,3.4155484E-2,4.884618E-2,-2.9382624E-2,-2.6199328E-2,4.9325544E-2],"split_indices":[2,15,15,7,7,4,6,17,3,0,0,13,3,0,0,0,0,0,0,13,17,0,16,0,0,0,0,0,0],"split_type":[0,0,0,0,0,0,0,0,0,0,0,0,0,0,0,0,0,0,0,0,0,0,0,0,0,0,0,0,0],"sum_hessian":[3.2668436E2,7.85797E1,2.4810466E2,3.0209534E1,4.8370163E1,2.2558386E2,2.25208E1,1.0409527E1,1.9800007E1,4.3187767E1,5.182393E0,1.9733125E2,2.8252607E1,5.302601E0,1.7218199E1,5.3847895E0,5.024737E0,1.3407719E1,6.3922877E0,1.3193317E2,6.5398094E1,1.4120046E1,1.4132562E1,1.8004745E1,1.1392842E2,2.036512E1,4.5032974E1,5.4561205E0,8.676441E0],"tree_param":{"num_deleted":"0","num_feature":"18","num_nodes":"29","size_leaf_vector":"1"}},{"base_weights":[4.045422E-2,4.2715958E-1,-3.386256E-1,-9.2016935E-1,6.1424655E-1,5.951856E-1,-5.578765E-1,1.9300155E-2,-5.7258468E-2,7.405082E-1,-3.3482972E-1,5.216247E-2,4.0384877E-2,-9.253945E-1,-4.527885E-2,-2.4929984E-2,8.1123894E-1,-5.2827988E-2,2.5782773E-2,4.495347E-2,-7.495372E-1,-2.1565894E-2,-1.1107174E0,7.249329E-1,-6.98665E-1,3.566938E-2,-1.20805325E-2,-0E0,-5.751094E-2,-3.9685518E-2,2.4377376E-2,-4.9734823E-2,-1.2488395E-2,-1.8552365E-2,4.1447528E-2,-4.1559223E-2,3.5761567E-3],"categories":[],"categories_nodes":[],"categories_segments":[],"categories_sizes":[],"default_left":[0,0,0,0,0,0,0,0,0,0,0,0,0,0,0,0,0,0,0,0,0,0,0,0,0,0,0,0,0,0,0,0,0,0,0,0,0],"id":19,"left_children":[1,3,5,7,9,11,13,-1,-1,15,17,-1,19,21,23,-1,25,-1,-1,-1,27,29,31,33,35,-1,-1,-1,-1,-1,-1,-1,-1,-1,-1,-1,-1],"loss_changes":[4.823233E1,4.160355E1,3.4324917E1,1.5272907E1,1.751167E1,1.2386477E1,2.5308193E1,0E0,0E0,1.2799477E1,1.7788702E1,0E0,1.7179707E1,1.3012764E1,2.9476109E1,0E0,1.1214844E1,0E0,0E0,0E0,5.9134326E0,9.504712E0,6.345299E0,1.0470057E1,8.696803E0,0E0,0E0,0E0,0E0,0E0,0E0,0E0,0E0,0E0,0E0,0E0,0E0],"parents":[2147483647,0,0,1,1,2,2,3,3,4,4,5,5,6,6,9,9,10,10,12,12,13,13,14,14,16,16,20,20,21,21,22,22,23,23,24,24],"right_children":[2,4,6,8,10,12,14,-1,-1,16,18,-1,20,22,24,-1,26,-1,-1,-1,28,30,32,34,36,-1,-1,-1,-1,-1,-1,-1,-1,-1,-1,-1,-1],"split_conditions":[4.0035725E-2,8.6067E3,2.7671233E-1,-2.4921225E-2,9.524E3,-7.647059E-3,8.8173005E-4,1.9300155E-2,-5.7258468E-2,-1.0194E3,8.0174925E-3,5.216247E-2,3.7689194E3,-3.767809E-3,-1.9050367E-2,-2.4929984E-2,4.619945E3,-5.2827988E-2,2.5782773E-2,4.495347E-2,1.2015569E-2,5.260274E-1,9.232877E-1,-4.7513813E-2,1.2936372E-1,3.566938E-2,-1.20805325E-2,-0E0,-5.751094E-2,-3.9685518E-2,2.4377376E-2,-4.9734823E-2,-1.2488395E-2,-1.8552365E-2,4.1447528E-2,-4.1559223E-2,3.5761567E-3],"split_indices":[6,13,17,16,13,14,7,0,0,2,7,0,15,7,16,0,15,0,0,0,16,17,17,16,6,0,0,0,0,0,0,0,0,0,0,0,0],"split_type":[0,0,0,0,0,0,0,0,0,0,0,0,0,0,0,0,0,0,0,0,0,0,0,0,0,0,0,0,0,0,0,0,0,0,0,0,0],"sum_hessian":[3.269767E2,1.6192818E2,1.6504855E2,1.9200512E1,1.4272766E2,3.0970675E1,1.3407787E2,5.0919743E0,1.4108538E1,1.26256134E2,1.6471525E1,1.2925211E1,1.8045464E1,7.7507095E1,5.6570778E1,5.770469E0,1.20485664E2,8.085863E0,8.385662E0,7.4841413E0,1.0561322E1,1.3469868E1,6.403723E1,2.5843685E1,3.072709E1,1.1263054E2,7.8551292E0,5.5586615E0,5.0026603E0,5.143915E0,8.325953E0,5.432933E1,9.707898E0,5.194296E0,2.064939E1,2.13262E1,9.400891E0],"tree_param":{"num_deleted":"0","num_feature":"18","num_nodes":"37","size_leaf_vector":"1"}},{"base_weights":[5.76746E-2,4.5863113E-1,-1.364465E-1,5.885673E-1,-3.3818875E-2,-5.803694E-1,2.7786705E-1,7.088538E-1,-3.5348613E-2,3.6881145E-2,-6.8492365E-1,-1.1108936E0,4.3093565E-1,9.3922234E-1,2.4014035E-1,-9.1159093E-1,1.6678222E-1,-6.0775317E-2,-1.7970229E-2,-5.2941408E-2,5.38043E-1,4.1426532E-2,8.502412E-3,-5.9971076E-2,3.2417074E-2,-4.9722962E-2,-5.6260847E-3,5.3627428E-2,-2.3666585E-2,-3.4955293E-2,2.5288578E-2],"categories":[],"categories_nodes":[],"categories_segments":[],"categories_sizes":[],"default_left":[0,0,0,0,0,0,0,0,0,0,0,0,0,0,0,0,0,0,0,0,0,0,0,0,0,0,0,0,0,0,0],"id":20,"left_children":[1,3,5,7,-1,9,11,13,-1,-1,15,17,19,21,23,25,27,-1,-1,-1,29,-1,-1,-1,-1,-1,-1,-1,-1,-1,-1],"loss_changes":[2.6554003E1,1.933017E1,4.243E1,1.8649002E1,0E0,1.8091843E1,2.5781132E1,9.89164E0,0E0,0E0,2.0439098E1,2.3808746E0,2.0982037E1,4.0747833E0,3.3605972E1,2.0882233E1,2.1132105E1,0E0,0E0,0E0,1.419943E1,0E0,0E0,0E0,0E0,0E0,0E0,0E0,0E0,0E0,0E0],"parents":[2147483647,0,0,1,1,2,2,3,3,5,5,6,6,7,7,10,10,11,11,12,12,13,13,14,14,15,15,16,16,20,20],"right_children":[2,4,6,8,-1,10,12,14,-1,-1,16,18,20,22,24,26,28,-1,-1,-1,30,-1,-1,-1,-1,-1,-1,-1,-1,-1,-1],"split_conditions":[-4.102702E-3,3.886E2,2.0306571E-3,3.301229E-1,-3.3818875E-2,1.6438356E-2,-1.5479876E-2,-3.2889328E-4,-3.5348613E-2,3.6881145E-2,9.0958905E-1,2.2986844E-2,6.87005E3,2.6201797E-1,2.5205478E-1,4E-1,6.8711E3,-6.0775317E-2,-1.7970229E-2,-5.2941408E-2,6.027397E-2,4.1426532E-2,8.502412E-3,-5.9971076E-2,3.2417074E-2,-4.9722962E-2,-5.6260847E-3,5.3627428E-2,-2.3666585E-2,-3.4955293E-2,2.5288578E-2],"split_indices":[4,3,0,14,0,17,5,16,0,0,17,16,13,14,17,12,13,0,0,0,17,0,0,0,0,0,0,0,0,0,0],"split_type":[0,0,0,0,0,0,0,0,0,0,0,0,0,0,0,0,0,0,0,0,0,0,0,0,0,0,0,0,0,0,0],"sum_hessian":[3.389435E2,1.1029078E2,2.2865273E2,1.00866196E2,9.424586E0,1.1030511E2,1.1834762E2,9.378995E1,7.0762467E0,6.605916E0,1.03699196E2,1.1063146E1,1.0728447E2,6.2067257E1,3.172269E1,8.1939476E1,2.175972E1,5.9451346E0,5.1180105E0,5.4655404E0,1.0181893E2,5.4298084E1,7.769173E0,7.387109E0,2.433558E1,5.678242E1,2.5157053E1,8.291122E0,1.3468598E1,5.782313E0,9.603662E1],"tree_param":{"num_deleted":"0","num_feature":"18","num_nodes":"31","size_leaf_vector":"1"}},{"base_weights":[3.865088E-2,-5.143374E-1,2.1448812E-1,3.3182883E-1,-1.1314238E0,3.9385876E-1,-6.017887E-1,-5.8879748E-2,3.967404E-2,-5.314811E-2,-5.3269044E-3,2.5812306E-2,7.0153105E-1,-1.2581655E0,6.292765E-1,5.25997E-1,-3.3405256E-2,7.9120684E-1,-1.3813347E-1,8.3656865E-1,-2.071224E-1,-5.6963004E-2,-1.5149902E-2,-7.973651E-3,4.6091113E-2,3.995622E-3,3.5505913E-2,5.26619E-2,-3.9846892E-3,9.187458E-3,-3.699203E-2,4.404782E-4,4.2001024E-2,1.8142128E-2,-2.4103502E-2],"categories":[],"categories_nodes":[],"categories_segments":[],"categories_sizes":[],"default_left":[0,0,0,0,0,0,0,0,0,0,0,0,0,0,0,0,0,0,0,0,0,0,0,0,0,0,0,0,0,0,0,0,0,0,0],"id":21,"left_children":[1,3,5,7,9,11,13,15,-1,-1,-1,17,19,21,23,25,-1,27,29,31,33,-1,-1,-1,-1,-1,-1,-1,-1,-1,-1,-1,-1,-1,-1],"loss_changes":[3.1819735E1,4.165815E1,3.6601757E1,8.91496E0,8.721298E0,2.305978E1,3.726906E1,1.0546991E1,0E0,0E0,0E0,1.2004435E1,1.387685E1,3.6253128E0,7.3825727E0,1.8464015E0,0E0,8.155842E0,2.2963358E1,1.6989723E1,4.2306347E0,0E0,0E0,0E0,0E0,0E0,0E0,0E0,0E0,0E0,0E0,0E0,0E0,0E0,0E0],"parents":[2147483647,0,0,1,1,2,2,3,3,4,4,5,5,6,6,7,7,11,11,12,12,13,13,14,14,15,15,17,17,18,18,19,19,20,20],"right_children":[2,4,6,8,10,12,14,16,-1,-1,-1,18,20,22,24,26,-1,28,30,32,34,-1,-1,-1,-1,-1,-1,-1,-1,-1,-1,-1,-1,-1,-1],"split_conditions":[-1.0184E3,3.7689194E3,4.584273E3,-1.8467562E-4,2.0306571E-3,4E-1,1.44E2,-2.2468755E-3,3.967404E-2,-5.314811E-2,-5.3269044E-3,-5.7379376E-2,1.4653E-2,2.8982E3,2.0307E3,-2.7830116E-3,-3.3405256E-2,-3.2889328E-4,1.765625E-2,-2.3300445E-2,-1.2975687E-2,-5.6963004E-2,-1.5149902E-2,-7.973651E-3,4.6091113E-2,3.995622E-3,3.5505913E-2,5.26619E-2,-3.9846892E-3,9.187458E-3,-3.699203E-2,4.404782E-4,4.2001024E-2,1.8142128E-2,-2.4103502E-2],"split_indices":[2,15,15,5,0,12,3,0,0,0,0,0,0,2,2,0,0,16,14,0,5,0,0,0,0,0,0,0,0,0,0,0,0,0,0],"split_type":[0,0,0,0,0,0,0,0,0,0,0,0,0,0,0,0,0,0,0,0,0,0,0,0,0,0,0,0,0,0,0,0,0,0,0],"sum_hessian":[3.2541635E2,7.7908646E1,2.475077E2,3.2982426E1,4.492622E1,2.0344272E2,4.4064995E1,2.1195036E1,1.1787391E1,3.715272E1,7.7735E0,9.327426E1,1.1016845E2,2.8779577E1,1.5285418E1,1.2197922E1,8.997115E0,1.5887248E1,7.738702E1,9.607922E1,1.4089229E1,2.3595108E1,5.184469E0,6.080081E0,9.205337E0,6.31277E0,5.8851514E0,9.763708E0,6.12354E0,5.3127323E1,2.4259693E1,2.0050987E1,7.602824E1,5.125937E0,8.963291E0],"tree_param":{"num_deleted":"0","num_feature":"18","num_nodes":"35","size_leaf_vector":"1"}},{"base_weights":[-4.7947202E-2,3.9667118E-1,-2.9608452E-1,5.310948E-1,-5.9898276E-2,-6.111735E-1,2.806845E-1,6.665605E-1,-4.4157345E-2,4.1758187E-2,-7.3185605E-1,-3.3911106E-1,4.9687877E-1,8.137391E-1,-8.067957E-2,3.1775105E-1,-8.4533423E-1,1.76538E-2,-5.410241E-2,2.874525E-1,5.3067315E-2,1.9497292E-2,4.291978E-2,-2.4377538E-2,3.4665458E-2,3.1215806E-2,-5.188344E-3,-4.191965E-2,1.221012E-3,2.6736455E-2,-6.518917E-2],"categories":[],"categories_nodes":[],"categories_segments":[],"categories_sizes":[],"default_left":[0,0,0,0,0,0,0,0,0,0,0,0,0,0,0,0,0,0,0,0,0,0,0,0,0,0,0,0,0,0,0],"id":22,"left_children":[1,3,5,7,-1,9,11,13,-1,-1,15,17,19,21,23,25,27,-1,-1,29,-1,-1,-1,-1,-1,-1,-1,-1,-1,-1,-1],"loss_changes":[3.36096E1,2.8465054E1,3.5753902E1,2.3419949E1,0E0,2.6086506E1,9.521399E0,1.0635464E1,0E0,0E0,1.4489006E1,1.5316824E1,8.526409E0,6.083515E0,8.768924E0,2.7014344E0,1.925077E1,0E0,0E0,3.2430374E1,0E0,0E0,0E0,0E0,0E0,0E0,0E0,0E0,0E0,0E0,0E0],"parents":[2147483647,0,0,1,1,2,2,3,3,5,5,6,6,7,7,10,10,11,11,12,12,13,13,14,14,15,15,16,16,19,19],"right_children":[2,4,6,8,-1,10,12,14,-1,-1,16,18,20,22,24,26,28,-1,-1,30,-1,-1,-1,-1,-1,-1,-1,-1,-1,-1,-1],"split_conditions":[-3.4012147E-3,3.301229E-1,2.0089864E-3,2.390839E-2,-5.9898276E-2,1.369863E-2,2E-1,1.2E1,-4.4157345E-2,4.1758187E-2,2E0,2.6330135E-3,1.1201515E-1,5E0,-4.974893E-3,8.602862E-3,9.0958905E-1,1.76538E-2,-5.410241E-2,1.7894156E-2,5.3067315E-2,1.9497292E-2,4.291978E-2,-2.4377538E-2,3.4665458E-2,3.1215806E-2,-5.188344E-3,-4.191965E-2,1.221012E-3,2.6736455E-2,-6.518917E-2],"split_indices":[4,14,7,7,0,17,12,1,0,0,1,7,0,1,4,0,17,0,0,4,0,0,0,0,0,0,0,0,0,0,0],"split_type":[0,0,0,0,0,0,0,0,0,0,0,0,0,0,0,0,0,0,0,0,0,0,0,0,0,0,0,0,0,0,0],"sum_hessian":[3.0266446E2,1.0805225E2,1.9461221E2,1.01613304E2,6.4389496E0,1.2593023E2,6.8681984E1,9.4442055E1,7.1712456E0,7.9818797E0,1.1794835E2,1.7495111E1,5.118687E1,7.893886E1,1.5503199E1,1.12462E1,1.0670215E2,1.0146863E1,7.348248E0,4.2042973E1,9.1439E0,3.6395824E1,4.2543034E1,1.02463E1,5.256899E0,5.2733383E0,5.9728613E0,8.658556E1,2.0116589E1,3.5660477E1,6.3824954E0],"tree_param":{"num_deleted":"0","num_feature":"18","num_nodes":"31","size_leaf_vector":"1"}},{"base_weights":[5.753088E-2,3.0841264E-1,-3.6145929E-1,4.4616556E-1,-1.0697411E0,-6.842971E-1,5.794262E-1,1.509015E-1,8.8562745E-1,-1.6438691E-2,-5.118326E-2,-9.65684E-1,2.1036687E-1,4.333815E-2,-3.2070186E-2,7.009611E-1,-1.794523E-1,1.026732E-3,9.8460186E-1,1.7676596E-2,-1.0821455E0,-2.293537E-2,8.2957494E-1,4.2467263E-2,1.173628E-2,-4.6954468E-2,2.0629405E-3,1.2226407E-2,4.4458125E-2,-5.3606767E-2,-1.6076721E-2,4.9064446E-2,9.510648E-3],"categories":[],"categories_nodes":[],"categories_segments":[],"categories_sizes":[],"default_left":[0,0,0,0,0,0,0,0,0,0,0,0,0,0,0,0,0,0,0,0,0,0,0,0,0,0,0,0,0,0,0,0,0],"id":23,"left_children":[1,3,5,7,9,11,13,15,17,-1,-1,19,21,-1,-1,23,25,-1,27,-1,29,-1,31,-1,-1,-1,-1,-1,-1,-1,-1,-1,-1],"loss_changes":[3.4423576E1,3.9311806E1,3.7641327E1,2.4032642E1,1.9104176E0,2.338985E1,2.3018879E1,2.0750975E1,6.242321E0,0E0,0E0,1.2034134E1,1.1518355E1,0E0,0E0,5.8450184E0,1.6579763E1,0E0,5.2863846E0,0E0,1.071328E1,0E0,2.6545563E0,0E0,0E0,0E0,0E0,0E0,0E0,0E0,0E0,0E0,0E0],"parents":[2147483647,0,0,1,1,2,2,3,3,4,4,5,5,6,6,7,7,8,8,11,11,12,12,15,15,16,16,18,18,20,20,22,22],"right_children":[2,4,6,8,10,12,14,16,18,-1,-1,20,22,-1,-1,24,26,-1,28,-1,30,-1,32,-1,-1,-1,-1,-1,-1,-1,-1,-1,-1],"split_conditions":[4.603073E-2,3.8148183E-1,1E1,3.9836846E-2,-2.6432533E-2,2.2832146E-3,2.66E1,-1.1329557E-2,-3.320737E-2,-1.6438691E-2,-5.118326E-2,2.7671233E-1,1.9209303E-1,4.333815E-2,-3.2070186E-2,1.1861111E-1,1.0958904E-1,1.026732E-3,5E0,1.7676596E-2,5.5517897E-4,-2.293537E-2,1.2927294E-1,4.2467263E-2,1.173628E-2,-4.6954468E-2,2.0629405E-3,1.2226407E-2,4.4458125E-2,-5.3606767E-2,-1.6076721E-2,4.9064446E-2,9.510648E-3],"split_indices":[6,14,1,6,16,7,3,16,4,0,0,17,14,0,0,14,17,0,1,0,4,0,6,0,0,0,0,0,0,0,0,0,0],"split_type":[0,0,0,0,0,0,0,0,0,0,0,0,0,0,0,0,0,0,0,0,0,0,0,0,0,0,0,0,0,0,0,0,0],"sum_hessian":[3.2546866E2,2.0388785E2,1.2158082E2,1.86041E2,1.7846851E1,9.0803276E1,3.0777542E1,1.12216385E2,7.3824615E1,5.14129E0,1.2705562E1,6.9101944E1,2.1701334E1,2.275986E1,8.017683E0,4.1799114E1,7.041727E1,7.853923E0,6.5970695E1,5.001286E0,6.4100655E1,9.5394535E0,1.21618805E1,2.1191996E1,2.0607119E1,1.25876665E1,5.7829605E1,1.1046239E1,5.4924454E1,4.56627E1,1.8437952E1,6.535609E0,5.6262712E0],"tree_param":{"num_deleted":"0","num_feature":"18","num_nodes":"33","size_leaf_vector":"1"}},{"base_weights":[7.4022234E-4,3.2010543E-1,-2.8305566E-1,-1.1282961E0,5.2421653E-1,-5.2203673E-1,3.858211E-1,-1.7386831E-2,-5.412433E-2,7.314836E-1,-1.16212115E-1,2.9346684E-1,-6.997463E-1,8.6647505E-1,-3.904792E-1,5.435539E-2,5.7980055E-1,-5.8583576E-2,5.055315E-1,3.3772707E-2,-1.817908E-2,3.0871347E-1,-9.194921E-1,8.38863E-3,4.0390335E-2,2.6651522E-2,-9.8195726E-1,3.0982332E-2,-1.2384531E-2,4.2186584E-2,-6.042413E-3,-2.0319594E-3,4.2624515E-2,-4.945793E-2,5.1078866E-3,-5.8440823E-2,-1.2057942E-2],"categories":[],"categories_nodes":[],"categories_segments":[],"categories_sizes":[],"default_left":[0,0,0,0,0,0,0,0,0,0,0,0,0,0,0,0,0,0,0,0,0,0,0,0,0,0,0,0,0,0,0,0,0,0,0,0,0],"id":24,"left_children":[1,3,5,7,9,11,13,-1,-1,15,17,19,21,23,25,-1,27,-1,29,-1,-1,31,33,-1,-1,-1,35,-1,-1,-1,-1,-1,-1,-1,-1,-1,-1],"loss_changes":[2.7923195E1,4.3428886E1,2.6260956E1,2.0678654E0,1.7127243E1,1.7721355E1,1.656375E1,0E0,0E0,8.239983E0,2.7682941E1,9.560665E0,2.2373535E1,2.222828E0,1.1430055E1,0E0,1.4127964E1,0E0,8.401811E0,0E0,0E0,5.176774E0,2.7469872E1,0E0,0E0,0E0,3.12776E0,0E0,0E0,0E0,0E0,0E0,0E0,0E0,0E0,0E0,0E0],"parents":[2147483647,0,0,1,1,2,2,3,3,4,4,5,5,6,6,9,9,10,10,11,11,12,12,13,13,14,14,16,16,18,18,21,21,22,22,26,26],"right_children":[2,4,6,8,10,12,14,-1,-1,16,18,20,22,24,26,-1,28,-1,30,-1,-1,32,34,-1,-1,-1,36,-1,-1,-1,-1,-1,-1,-1,-1,-1,-1],"split_conditions":[4.0035725E-2,8.6067E3,-3.0744162E-5,3.3695527E3,9.0574E3,2.7671233E-1,4.127166E3,-1.7386831E-2,-5.412433E-2,1.1861111E-1,-1.030788E-2,2.43E1,-8.753862E-3,6.87065E3,-2.3E1,5.435539E-2,4.5043135E3,-5.8583576E-2,4.2780693E3,3.3772707E-2,-1.817908E-2,4.5228633E3,9.0958905E-1,8.38863E-3,4.0390335E-2,2.6651522E-2,6.7150146E-2,3.0982332E-2,-1.2384531E-2,4.2186584E-2,-6.042413E-3,-2.0319594E-3,4.2624515E-2,-4.945793E-2,5.1078866E-3,-5.8440823E-2,-1.2057942E-2],"split_indices":[6,13,5,15,13,17,15,0,0,14,5,3,5,13,2,0,15,0,15,0,0,15,17,0,0,0,6,0,0,0,0,0,0,0,0,0,0],"split_type":[0,0,0,0,0,0,0,0,0,0,0,0,0,0,0,0,0,0,0,0,0,0,0,0,0,0,0,0,0,0,0,0,0,0,0,0,0],"sum_hessian":[3.0604498E2,1.4410411E2,1.6194087E2,1.7179329E1,1.2692479E2,1.1958406E2,4.2356815E1,5.03203E0,1.2147299E1,9.5901405E1,3.1023378E1,2.1179213E1,9.840485E1,2.6167566E1,1.6189249E1,1.699356E1,7.8907845E1,9.413504E0,2.1609875E1,1.2199377E1,8.979835E0,1.7452364E1,8.0952484E1,5.252687E0,2.091488E1,5.7035055E0,1.0485744E1,6.493122E1,1.3976628E1,1.15206995E1,1.0089174E1,1.2375168E1,5.077195E0,6.2077923E1,1.8874561E1,5.3943424E0,5.091402E0],"tree_param":{"num_deleted":"0","num_feature":"18","num_nodes":"37","size_leaf_vector":"1"}},{"base_weights":[3.538949E-2,1.1966749E-1,-1.0752075E0,-4.820887E-1,3.2549614E-1,-1.50115555E-2,-5.041702E-2,2.297629E-1,-9.8450357E-1,6.095687E-1,6.3790254E-2,6.8960553E-1,-5.362412E-1,7.25029E-3,-4.7465265E-2,8.4556544E-1,-3.156794E-1,6.552684E-1,-1.9785212E-1,4.244508E-2,4.193942E-3,1.19233485E-2,-4.902493E-2,3.724366E-2,-1.5378017E-2,5.254753E-3,-3.955124E-2,4.4098157E-2,3.9798263E-3,-1.6954668E-2,1.9617949E-2],"categories":[],"categories_nodes":[],"categories_segments":[],"categories_sizes":[],"default_left":[0,0,0,0,0,0,0,0,0,0,0,0,0,0,0,0,0,0,0,0,0,0,0,0,0,0,0,0,0,0,0],"id":25,"left_children":[1,3,5,7,9,-1,-1,11,13,15,17,19,21,-1,-1,23,25,27,29,-1,-1,-1,-1,-1,-1,-1,-1,-1,-1,-1,-1],"loss_changes":[2.9710566E1,3.676505E1,2.264742E0,2.7354504E1,1.6327293E1,0E0,0E0,1.1665975E1,1.0828552E1,2.3398952E1,1.818181E1,4.232561E0,7.6445994E0,0E0,0E0,9.30954E0,6.8723736E0,8.725658E0,1.2851904E1,0E0,0E0,0E0,0E0,0E0,0E0,0E0,0E0,0E0,0E0,0E0,0E0],"parents":[2147483647,0,0,1,1,2,2,3,3,4,4,7,7,8,8,9,9,10,10,11,11,12,12,15,15,16,16,17,17,18,18],"right_children":[2,4,6,8,10,-1,-1,12,14,16,18,20,22,-1,-1,24,26,28,30,-1,-1,-1,-1,-1,-1,-1,-1,-1,-1,-1,-1],"split_conditions":[4.665741E3,-1.0194E3,2.6333807E-2,3.7689194E3,1.265E2,-1.50115555E-2,-5.041702E-2,1.2950014E-1,2.694966E-1,1E1,2.0634921E-2,-2.1106E3,1.6E0,7.25029E-3,-4.7465265E-2,3E2,2.5213122E-1,-1.3344317E-2,3.182686E-2,4.244508E-2,4.193942E-3,1.19233485E-2,-4.902493E-2,3.724366E-2,-1.5378017E-2,5.254753E-3,-3.955124E-2,4.4098157E-2,3.9798263E-3,-1.6954668E-2,1.9617949E-2],"split_indices":[15,2,6,15,2,0,0,6,14,1,6,2,3,0,0,3,14,16,16,0,0,0,0,0,0,0,0,0,0,0,0],"split_type":[0,0,0,0,0,0,0,0,0,0,0,0,0,0,0,0,0,0,0,0,0,0,0,0,0,0,0,0,0,0,0],"sum_hessian":[3.1607056E2,2.946902E2,2.138037E1,7.4641594E1,2.200486E2,5.2201424E0,1.6160227E1,3.1025892E1,4.3615704E1,1.0469476E2,1.15353836E2,1.9531282E1,1.149461E1,6.3870897E0,3.7228615E1,8.3572655E1,2.1122107E1,3.5033535E1,8.0320305E1,1.1340508E1,8.190773E0,5.3917694E0,6.102841E0,7.8442665E1,5.1299887E0,1.3086692E1,8.035415E0,1.8768478E1,1.6265055E1,6.086408E1,1.9456224E1],"tree_param":{"num_deleted":"0","num_feature":"18","num_nodes":"31","size_leaf_vector":"1"}},{"base_weights":[5.213987E-2,-4.9954668E-1,2.087106E-1,3.5045278E-1,-1.1597724E0,4.0651864E-1,-3.9780715E-1,5.838093E-1,-2.079098E-2,-5.046112E-2,-1.5291288E-2,-6.5222096E-1,5.396415E-1,-1.7695963E-2,-8.7206715E-1,2.5387144E-1,4.1794665E-2,5.8142827E-3,-5.317763E-2,6.4586276E-1,-9.0507485E-2,-3.805438E-1,4.452326E-2,-4.989888E-2,2.0933555E-2,4.6247624E-2,-2.2201328E-2,2.985354E-2,-2.4330527E-2,-2.6006063E-2,5.1680524E-2,-4.5005616E-2,9.076835E-3],"categories":[],"categories_nodes":[],"categories_segments":[],"categories_sizes":[],"default_left":[0,0,0,0,0,0,0,0,0,0,0,0,0,0,0,0,0,0,0,0,0,0,0,0,0,0,0,0,0,0,0,0,0],"id":26,"left_children":[1,3,5,7,9,11,13,15,-1,-1,-1,17,19,21,23,25,-1,-1,-1,27,29,31,-1,-1,-1,-1,-1,-1,-1,-1,-1,-1,-1],"loss_changes":[2.6574717E1,3.8633263E1,2.893391E1,6.4868393E0,2.403637E0,2.591536E1,1.0596206E1,3.3389978E0,0E0,0E0,0E0,1.1457943E1,1.0945343E1,1.4336411E1,1.4487047E1,1.2201648E1,0E0,0E0,0E0,1.7949646E1,1.9409739E1,1.23852215E1,0E0,0E0,0E0,0E0,0E0,0E0,0E0,0E0,0E0,0E0,0E0],"parents":[2147483647,0,0,1,1,2,2,3,3,4,4,5,5,6,6,7,7,11,11,12,12,13,13,14,14,15,15,19,19,20,20,21,21],"right_children":[2,4,6,8,10,12,14,16,-1,-1,-1,18,20,22,24,26,-1,-1,-1,28,30,32,-1,-1,-1,-1,-1,-1,-1,-1,-1,-1,-1],"split_conditions":[-1.0194E3,3.7689194E3,4.694505E-2,6.8737E3,1.8267133E-3,8.6067E3,4.414138E3,1E1,-2.079098E-2,-5.046112E-2,-1.5291288E-2,-4.102702E-3,4.5815586E3,4.372544E3,2.9021E3,1.2929681E-1,4.1794665E-2,5.8142827E-3,-5.317763E-2,9.524E3,2.079E3,4.179598E-4,4.452326E-2,-4.989888E-2,2.0933555E-2,4.6247624E-2,-2.2201328E-2,2.985354E-2,-2.4330527E-2,-2.6006063E-2,5.1680524E-2,-4.5005616E-2,9.076835E-3],"split_indices":[2,15,6,13,7,13,15,1,0,0,0,4,15,15,2,6,0,0,0,13,2,4,0,0,0,0,0,0,0,0,0,0,0],"split_type":[0,0,0,0,0,0,0,0,0,0,0,0,0,0,0,0,0,0,0,0,0,0,0,0,0,0,0,0,0,0,0,0,0],"sum_hessian":[3.0578586E2,6.697303E1,2.3881282E2,2.9417526E1,3.7555504E1,1.8045451E2,5.835831E1,2.354724E1,5.870288E0,3.2544937E1,5.0105677E0,1.9636099E1,1.608184E2,3.3087456E1,2.5270857E1,1.4755533E1,8.791706E0,9.309627E0,1.0326472E1,1.3773485E2,2.3083559E1,2.561873E1,7.468725E0,2.0053547E1,5.2173095E0,6.830511E0,7.9250216E0,1.2796724E2,9.767611E0,1.6860498E1,6.2230606E0,1.1201265E1,1.4417465E1],"tree_param":{"num_deleted":"0","num_feature":"18","num_nodes":"33","size_leaf_vector":"1"}},{"base_weights":[1.578725E-2,9.558668E-2,-1.032393E0,1.6053905E-1,-9.993116E-1,-4.8281662E-2,-1.5191258E-2,2.8418607E-1,-4.360573E-1,-1.6068716E-2,-4.9218167E-2,3.4851152E-1,-8.972507E-1,-9.239328E-1,5.3864047E-2,-1.3626446E-2,1.7130222E-2,-5.3035397E-2,-1.0776311E-2,-4.4837866E-2,8.64653E-3],"categories":[],"categories_nodes":[],"categories_segments":[],"categories_sizes":[],"default_left":[0,0,0,0,0,0,0,0,0,0,0,0,0,0,0,0,0,0,0,0,0],"id":27,"left_children":[1,3,5,7,9,-1,-1,11,13,-1,-1,15,17,19,-1,-1,-1,-1,-1,-1,-1],"loss_changes":[2.5369114E1,2.0187468E1,1.8275928E0,1.9871073E1,1.5371666E0,0E0,0E0,1.7178707E1,4.1423912E1,0E0,0E0,1.1803267E1,2.6309156E0,8.63166E0,0E0,0E0,0E0,0E0,0E0,0E0,0E0],"parents":[2147483647,0,0,1,1,2,2,3,3,4,4,7,7,8,8,11,11,12,12,13,13],"right_children":[2,4,6,8,10,-1,-1,12,14,-1,-1,16,18,20,-1,-1,-1,-1,-1,-1,-1],"split_conditions":[4.665741E3,3.8148183E-1,4.507308E-3,1.2929681E-1,-2.6432533E-2,-4.8281662E-2,-1.5191258E-2,9.315069E-1,9.232877E-1,-1.6068716E-2,-4.9218167E-2,-1.5283623E-2,6.853786E-3,4.2490645E3,5.3864047E-2,-1.3626446E-2,1.7130222E-2,-5.3035397E-2,-1.0776311E-2,-4.4837866E-2,8.64653E-3],"split_indices":[15,14,0,6,16,0,0,17,17,0,0,7,16,15,0,0,0,0,0,0,0],"split_type":[0,0,0,0,0,0,0,0,0,0,0,0,0,0,0,0,0,0,0,0,0],"sum_hessian":[3.0223822E2,2.817894E2,2.0448812E1,2.6690082E2,1.4888578E1,1.5340639E1,5.1081734E0,2.216535E2,4.5247322E1,5.03688E0,9.851698E0,2.1095721E2,1.0696293E1,3.594716E1,9.300161E0,2.1408895E1,1.8954831E2,5.601209E0,5.0950837E0,3.0739706E1,5.207454E0],"tree_param":{"num_deleted":"0","num_feature":"18","num_nodes":"21","size_leaf_vector":"1"}},{"base_weights":[2.8045174E-2,-5.0168717E-1,1.867352E-1,3.2573983E-1,-1.063059E0,6.174477E-1,-1.5696758E-1,9.218169E-1,-9.811527E-2,5.2570384E-3,-5.183501E-2,-4.556186E-2,7.414857E-1,3.654882E-2,-1.4710954E0,5.1272787E-2,1.3223083E-2,-4.9021453E-2,4.0770877E-2,-1.3996906E-2,8.454599E-1,3.5311982E-1,-6.5747786E-1,-2.2269133E-2,-7.261606E-2,3.8675904E-2,-2.4710268E-2,-5.136056E-2,1.978813E-2,-4.4950478E-2,4.6989996E-2],"categories":[],"categories_nodes":[],"categories_segments":[],"categories_sizes":[],"default_left":[0,0,0,0,0,0,0,0,0,0,0,0,0,0,0,0,0,0,0,0,0,0,0,0,0,0,0,0,0,0,0],"id":28,"left_children":[1,3,5,7,9,11,13,15,17,-1,-1,-1,19,21,23,-1,-1,-1,-1,-1,25,27,29,-1,-1,-1,-1,-1,-1,-1,-1],"loss_changes":[2.5460215E1,3.2828125E1,3.4688786E1,7.4733377E0,1.1932007E1,2.3442142E1,3.3373222E1,2.0122986E0,2.3559135E1,0E0,0E0,0E0,1.1433075E1,2.5385122E1,4.0523415E0,0E0,0E0,0E0,0E0,0E0,1.6550598E1,1.8975744E1,3.22044E1,0E0,0E0,0E0,0E0,0E0,0E0,0E0,0E0],"parents":[2147483647,0,0,1,1,2,2,3,3,4,4,5,5,6,6,7,7,8,8,12,12,13,13,14,14,20,20,21,21,22,22],"right_children":[2,4,6,8,10,12,14,16,18,-1,-1,-1,20,22,24,-1,-1,-1,-1,-1,26,28,30,-1,-1,-1,-1,-1,-1,-1,-1],"split_conditions":[-1.0184E3,3.7689194E3,1.162E2,1.2929681E-1,2.694966E-1,-5.1948052E-2,1.1861111E-1,7E0,1E1,5.2570384E-3,-5.183501E-2,-4.556186E-2,8.6132E3,6.7163676E-2,-3.0404152E-2,5.1272787E-2,1.3223083E-2,-4.9021453E-2,4.0770877E-2,-1.3996906E-2,3E2,-3.0064465E-2,1.1E1,-2.2269133E-2,-7.261606E-2,3.8675904E-2,-2.4710268E-2,-5.136056E-2,1.978813E-2,-4.4950478E-2,4.6989996E-2],"split_indices":[2,15,2,6,14,5,14,1,1,0,0,0,13,6,5,0,0,0,0,0,3,5,1,0,0,0,0,0,0,0,0],"split_type":[0,0,0,0,0,0,0,0,0,0,0,0,0,0,0,0,0,0,0,0,0,0,0,0,0,0,0,0,0,0,0],"sum_hessian":[3.0113E2,6.877076E1,2.3235924E2,2.7895758E1,4.0875E1,1.02901855E2,1.2945738E2,1.1202508E1,1.669325E1,6.668359E0,3.4206642E1,6.1943817E0,9.670747E1,1.1362171E2,1.5835664E1,6.131757E0,5.070751E0,8.305688E0,8.387563E0,8.122195E0,8.858528E1,7.846585E1,3.5155865E1,5.1271067E0,1.0708556E1,8.217298E1,6.4122963E0,5.5472746E0,7.291858E1,2.8375757E1,6.7801065E0],"tree_param":{"num_deleted":"0","num_feature":"18","num_nodes":"31","size_leaf_vector":"1"}},{"base_weights":[9.235441E-2,1.5140106E-1,-9.7317594E-1,3.5354498E-1,-2.695169E-1,-4.7288842E-2,-1.7633785E-2,1.0059486E-1,7.452584E-1,-5.516946E-1,6.993976E-1,9.6468705E-1,-6.6073485E-2,9.2688155E-1,-5.167813E-2,-1.0152698E0,5.1793104E-1,2.769591E-1,4.497363E-2,1.3950749E-2,4.912363E-2,-4.744341E-2,3.5469718E-3,2.219645E-2,4.624684E-2,8.301544E-3,-4.9200926E-2,-4.9765524E-3,3.5542164E-2,-1.9843556E-2,4.47062E-2],"categories":[],"categories_nodes":[],"categories_segments":[],"categories_sizes":[],"default_left":[0,0,0,0,0,0,0,0,0,0,0,0,0,0,0,0,0,0,0,0,0,0,0,0,0,0,0,0,0,0,0],"id":29,"left_children":[1,3,5,7,9,-1,-1,11,13,15,17,19,21,23,-1,25,27,29,-1,-1,-1,-1,-1,-1,-1,-1,-1,-1,-1,-1,-1],"loss_changes":[1.9398714E1,2.495827E1,1.1170759E0,1.9452412E1,2.6393448E1,0E0,0E0,1.7663166E1,2.9781887E1,3.7442345E1,3.4668827E0,2.6294842E0,1.8025223E1,5.298134E0,0E0,1.408453E1,5.6809435E0,8.669596E0,0E0,0E0,0E0,0E0,0E0,0E0,0E0,0E0,0E0,0E0,0E0,0E0,0E0],"parents":[2147483647,0,0,1,1,2,2,3,3,4,4,7,7,8,8,9,9,10,10,11,11,12,12,13,13,15,15,16,16,17,17],"right_children":[2,4,6,8,10,-1,-1,12,14,16,18,20,22,24,-1,26,28,30,-1,-1,-1,-1,-1,-1,-1,-1,-1,-1,-1,-1,-1],"split_conditions":[3.8148183E-1,6.7163676E-2,8.9041096E-1,4.5479453E-1,1E1,-4.7288842E-2,-1.7633785E-2,-6.30431E-2,9.315069E-1,-1.8467562E-4,2.690724E-1,-8.030994E-2,1.6E0,-7.909776E-3,-5.167813E-2,-5.275985E-3,2.690724E-1,1.1E1,4.497363E-2,1.3950749E-2,4.912363E-2,-4.744341E-2,3.5469718E-3,2.219645E-2,4.624684E-2,8.301544E-3,-4.9200926E-2,-4.9765524E-3,3.5542164E-2,-1.9843556E-2,4.47062E-2],"split_indices":[14,6,17,17,1,0,0,0,17,5,14,0,3,0,0,0,14,1,0,0,0,0,0,0,0,0,0,0,0,0,0],"split_type":[0,0,0,0,0,0,0,0,0,0,0,0,0,0,0,0,0,0,0,0,0,0,0,0,0,0,0,0,0,0,0],"sum_hessian":[3.062915E2,2.9111127E2,1.5180248E1,1.9693282E2,9.4178444E1,9.888408E0,5.2918406E0,1.2058E2,7.6352806E1,7.335038E1,2.082807E1,1.8819939E1,1.0176006E2,7.0648415E1,5.704394E0,5.1272995E1,2.2077381E1,1.1391144E1,9.436925E0,6.447484E0,1.2372456E1,1.1622433E1,9.0137634E1,2.8412243E1,4.2236168E1,7.5949874E0,4.367801E1,8.221973E0,1.3855408E1,6.0859075E0,5.305237E0],"tree_param":{"num_deleted":"0","num_feature":"18","num_nodes":"31","size_leaf_vector":"1"}},{"base_weights":[5.0772406E-2,-4.7425705E-1,1.9961935E-1,1.8723628E-1,-1.0034344E0,-8.612239E-2,5.330743E-1,-1.08055174E-1,3.282604E-2,-4.8982553E-2,9.997336E-3,2.1080907E-1,-6.7702687E-1,-4.245138E-2,6.704179E-1,-4.552153E-2,4.350973E-1,3.874009E-1,-6.300136E-2,-1.0966895E0,2.0776708E-2,2.4356475E-1,9.186528E-1,3.5479456E-2,-6.9649676E-3,-4.8617225E-2,2.0883085E-2,-4.994219E-2,-9.942712E-3,3.114046E-2,-2.2803137E-2,1.8123233E-3,4.1701894E-2],"categories":[],"categories_nodes":[],"categories_segments":[],"categories_sizes":[],"default_left":[0,0,0,0,0,0,0,0,0,0,0,0,0,0,0,0,0,0,0,0,0,0,0,0,0,0,0,0,0,0,0,0,0],"id":30,"left_children":[1,3,5,7,9,11,13,15,-1,-1,-1,17,19,-1,21,-1,23,25,-1,27,-1,29,31,-1,-1,-1,-1,-1,-1,-1,-1,-1,-1],"loss_changes":[2.3539785E1,2.3544529E1,2.2469063E1,5.8291445E0,1.0708557E1,2.250431E1,2.4471575E1,1.2564547E1,0E0,0E0,0E0,2.739083E1,2.2160088E1,0E0,1.03339E1,0E0,4.2734423E0,1.7504906E1,0E0,3.678566E0,0E0,1.7243746E1,6.6807785E0,0E0,0E0,0E0,0E0,0E0,0E0,0E0,0E0,0E0,0E0],"parents":[2147483647,0,0,1,1,2,2,3,3,4,4,5,5,6,6,7,7,11,11,12,12,14,14,16,16,17,17,19,19,21,21,22,22],"right_children":[2,4,6,8,10,12,14,16,-1,-1,-1,18,20,-1,22,-1,24,26,-1,28,-1,30,32,-1,-1,-1,-1,-1,-1,-1,-1,-1,-1],"split_conditions":[-1.0194E3,3.7689194E3,1.504423E-1,9.232877E-1,2.89E1,3.8356164E-1,1.01369865E-1,1.75E1,3.282604E-2,-4.8982553E-2,9.997336E-3,1.1861111E-1,2.9021E3,-4.245138E-2,4.4931507E-1,-4.552153E-2,2.41E1,4.29E2,-6.300136E-2,9.6712327E-1,2.0776708E-2,2.6849315E-1,-2.0787455E-2,3.5479456E-2,-6.9649676E-3,-4.8617225E-2,2.0883085E-2,-4.994219E-2,-9.942712E-3,3.114046E-2,-2.2803137E-2,1.8123233E-3,4.1701894E-2],"split_indices":[2,15,14,17,3,17,17,3,0,0,0,14,2,0,17,0,3,2,0,17,0,17,4,0,0,0,0,0,0,0,0,0,0],"split_type":[0,0,0,0,0,0,0,0,0,0,0,0,0,0,0,0,0,0,0,0,0,0,0,0,0,0,0,0,0,0,0,0,0],"sum_hessian":[2.9935663E2,6.5491104E1,2.3386552E2,2.9309826E1,3.618128E1,1.26181145E2,1.0768437E2,2.0448486E1,8.86134E0,3.0842548E1,5.338729E0,8.429609E1,4.1885056E1,7.9492984E0,9.973508E1,6.74561E0,1.3702875E1,7.7474174E1,6.8219123E0,3.1132156E1,1.0752898E1,3.754995E1,6.2185127E1,7.6997824E0,6.003093E0,5.325545E0,7.2148636E1,2.5903759E1,5.228396E0,2.2755169E1,1.4794781E1,7.9956775E0,5.418945E1],"tree_param":{"num_deleted":"0","num_feature":"18","num_nodes":"33","size_leaf_vector":"1"}},{"base_weights":[2.0770824E-2,8.828738E-2,-4.9446154E-2,-1.2806942E-1,3.9653027E-1,6.597786E-1,-3.218665E-1,-5.892308E-1,6.265251E-1,-2.5481291E-2,1.0035903E0,-7.387915E-1,1.1773231E-1,7.732283E-2,-6.516696E-2,7.1855205E-1,-2.3189452E-2,4.9299326E-2,2.3024758E-2,1.1632562E-2,-3.8929775E-2,2.3548706E-2,-1.6722508E-2,-3.0953161E-2,4.069098E-2,9.571422E-3,3.5104416E-2],"categories":[],"categories_nodes":[],"categories_segments":[],"categories_sizes":[],"default_left":[0,0,0,0,0,0,0,0,0,0,0,0,0,0,0,0,0,0,0,0,0,0,0,0,0,0,0],"id":31,"left_children":[1,3,-1,5,7,9,11,13,15,-1,17,19,21,23,-1,25,-1,-1,-1,-1,-1,-1,-1,-1,-1,-1,-1],"loss_changes":[2.5005005E1,1.8797781E1,0E0,2.5447472E1,2.6718365E1,1.5344307E1,2.4635342E1,1.5819524E1,1.0952564E1,0E0,1.7011585E0,1.6964676E1,1.6862288E1,1.2457373E1,0E0,6.4317474E0,0E0,0E0,0E0,0E0,0E0,0E0,0E0,0E0,0E0,0E0,0E0],"parents":[2147483647,0,0,1,1,3,3,4,4,5,5,6,6,7,7,8,8,10,10,11,11,12,12,13,13,15,15],"right_children":[2,4,-1,6,8,10,12,14,16,-1,18,20,22,24,-1,26,-1,-1,-1,-1,-1,-1,-1,-1,-1,-1,-1],"split_conditions":[3.8148183E-1,4E-1,-4.9446154E-2,8.493151E-2,2.3013699E-1,-1.7195767E-2,1.6645942E-3,8.66305E3,2.75E2,-2.5481291E-2,1.227E2,-2.1294309E-2,-6.8543907E-3,8.6132E3,-6.516696E-2,-2.7347054E-2,-2.3189452E-2,4.9299326E-2,2.3024758E-2,1.1632562E-2,-3.8929775E-2,2.3548706E-2,-1.6722508E-2,-3.0953161E-2,4.069098E-2,9.571422E-3,3.5104416E-2],"split_indices":[14,12,0,17,17,5,0,13,3,0,3,0,16,13,0,5,0,0,0,0,0,0,0,0,0,0,0],"split_type":[0,0,0,0,0,0,0,0,0,0,0,0,0,0,0,0,0,0,0,0,0,0,0,0,0,0,0],"sum_hessian":[2.9371722E2,2.7970215E2,1.4015072E1,1.6449948E2,1.15202675E2,3.1899044E1,1.3260043E2,2.141613E1,9.3786545E1,6.445142E0,2.5453901E1,6.782275E1,6.477768E1,1.3556533E1,7.8595977E0,8.759133E1,6.195218E0,1.5207149E1,1.0246753E1,1.2455815E1,5.5366932E1,3.4520576E1,3.0257107E1,7.1512384E0,6.4052944E0,2.2606785E1,6.498454E1],"tree_param":{"num_deleted":"0","num_feature":"18","num_nodes":"27","size_leaf_vector":"1"}},{"base_weights":[1.4856736E-2,1.7692472E-1,-5.054404E-1,-5.5879515E-1,3.612349E-1,3.3500165E-1,-8.957671E-1,1.0653651E-1,-9.906E-1,4.9549413E-1,-3.9546922E-1,6.3654643E-1,-2.0721922E-2,-5.0466076E-2,3.1878144E-2,3.8324174E-2,-3.2460538E-1,9.196899E-3,-5.1202375E-2,6.004418E-1,-8.6785346E-1,-5.216642E-2,3.4491E-1,3.434463E-2,2.8716498E-3,2.2910692E-2,-1.3102274E-2,1.9932544E-2,-4.9838837E-2,4.7629047E-3,2.9533787E-2,-5.013385E-2,-1.2547334E-2,3.903859E-2,-2.1871185E-2],"categories":[],"categories_nodes":[],"categories_segments":[],"categories_sizes":[],"default_left":[0,0,0,0,0,0,0,0,0,0,0,0,0,0,0,0,0,0,0,0,0,0,0,0,0,0,0,0,0,0,0,0,0,0,0],"id":32,"left_children":[1,3,5,7,9,11,13,15,17,19,21,23,-1,-1,25,-1,27,-1,-1,29,31,-1,33,-1,-1,-1,-1,-1,-1,-1,-1,-1,-1,-1,-1],"loss_changes":[2.4653976E1,3.0462812E1,2.312092E1,1.31277075E1,1.8420692E1,6.1690826E0,1.636681E1,7.1776624E0,1.0111023E1,2.2360966E1,1.9020775E1,2.0116224E0,0E0,0E0,3.0120475E0,0E0,1.0530273E1,0E0,0E0,9.290012E0,1.8565254E0,0E0,9.502209E0,0E0,0E0,0E0,0E0,0E0,0E0,0E0,0E0,0E0,0E0,0E0,0E0],"parents":[2147483647,0,0,1,1,2,2,3,3,4,4,5,5,6,6,7,7,8,8,9,9,10,10,11,11,14,14,16,16,19,19,20,20,22,22],"right_children":[2,4,6,8,10,12,14,16,18,20,22,24,-1,-1,26,-1,28,-1,-1,30,32,-1,34,-1,-1,-1,-1,-1,-1,-1,-1,-1,-1,-1,-1],"split_conditions":[6.5753424E-1,8.6067E3,3.6406538E3,-4.102702E-3,4.619945E3,6.87335E3,2.0306571E-3,3.4302737E3,-4.027899E-2,9.6032E3,2.38154E-3,2.32E1,-2.0721922E-2,-5.0466076E-2,8.273668E-5,3.8324174E-2,-2.1440757E-2,9.196899E-3,-5.1202375E-2,1.3972603E-1,3.3992242E-2,-5.216642E-2,-9.984339E-3,3.434463E-2,2.8716498E-3,2.2910692E-2,-1.3102274E-2,1.9932544E-2,-4.9838837E-2,4.7629047E-3,2.9533787E-2,-5.013385E-2,-1.2547334E-2,3.903859E-2,-2.1871185E-2],"split_indices":[17,13,15,4,15,13,0,15,16,13,0,3,0,0,4,0,4,0,0,17,16,0,16,0,0,0,0,0,0,0,0,0,0,0,0],"split_type":[0,0,0,0,0,0,0,0,0,0,0,0,0,0,0,0,0,0,0,0,0,0,0,0,0,0,0,0,0,0,0,0,0,0,0],"sum_hessian":[2.907028E2,2.2230797E2,6.839482E1,4.4019363E1,1.782886E2,2.1654472E1,4.674035E1,1.753022E1,2.6489145E1,1.5182771E2,2.6460886E1,1.6273111E1,5.3813615E0,3.333858E1,1.3401768E1,5.559363E0,1.1970856E1,5.0511007E0,2.1438044E1,1.415634E2,1.0264325E1,1.1598842E1,1.4862045E1,1.1179702E1,5.0934095E0,5.224487E0,8.17728E0,6.508449E0,5.462407E0,3.2100548E1,1.09462845E2,5.202936E0,5.061389E0,8.713252E0,6.1487927E0],"tree_param":{"num_deleted":"0","num_feature":"18","num_nodes":"35","size_leaf_vector":"1"}},{"base_weights":[-2.0356136E-3,3.7277794E-1,-2.1956813E-1,-3.9855137E-2,4.769581E-1,-4.9276537E-1,3.6571792E-1,7.107873E-1,6.2078502E-2,-6.9405776E-1,1.0523338E-1,5.520588E-1,-4.6185797E-1,-2.5772668E-2,8.5348374E-1,-3.890489E-2,3.7849817E-1,-5.48619E-1,-6.1393145E-2,7.991748E-1,-4.1245314E-1,4.8309803E-2,1.8661779E-1,1.5608458E-2,-4.9579043E-2,1.5058599E-2,4.3222442E-2,2.757639E-2,-2.2884263E-2,-3.650821E-2,1.2314351E-2,5.5654757E-3,4.701928E-2,3.9100766E-2,-4.7482785E-2,-3.3019662E-2,2.302149E-2],"categories":[],"categories_nodes":[],"categories_segments":[],"categories_sizes":[],"default_left":[0,0,0,0,0,0,0,0,0,0,0,0,0,0,0,0,0,0,0,0,0,0,0,0,0,0,0,0,0,0,0,0,0,0,0,0,0],"id":33,"left_children":[1,3,5,-1,7,9,11,13,15,17,19,21,23,-1,25,-1,27,29,-1,31,33,-1,35,-1,-1,-1,-1,-1,-1,-1,-1,-1,-1,-1,-1,-1,-1],"loss_changes":[2.3352646E1,1.5412516E1,2.9216812E1,0E0,9.424339E0,1.5093414E1,9.242371E0,1.2691307E1,1.2330174E1,1.0352058E1,1.1880292E1,1.1154736E1,7.95372E0,0E0,5.644066E0,0E0,8.951454E0,2.5647953E1,0E0,3.2107477E0,2.1563578E1,0E0,1.3105607E1,0E0,0E0,0E0,0E0,0E0,0E0,0E0,0E0,0E0,0E0,0E0,0E0,0E0,0E0],"parents":[2147483647,0,0,1,1,2,2,4,4,5,5,6,6,7,7,8,8,9,9,10,10,11,11,12,12,14,14,16,16,17,17,19,19,20,20,22,22],"right_children":[2,4,6,-1,8,10,12,14,16,18,20,22,24,-1,26,-1,28,30,-1,32,34,-1,36,-1,-1,-1,-1,-1,-1,-1,-1,-1,-1,-1,-1,-1,-1],"split_conditions":[-4.102702E-3,-6.0237072E-2,-1.8467562E-4,-3.9855137E-2,-3.2889328E-4,2.5138631E-2,9.52445E3,-7.86E2,6.8614E-3,2.0047806E-2,1.9452055E-1,-1.6407853E-2,2.8796E3,-2.5772668E-2,5E0,-3.890489E-2,8.9765E3,1.9683659E-3,-6.1393145E-2,1.8878E3,2.6663953E-2,4.8309803E-2,8.59805E3,1.5608458E-2,-4.9579043E-2,1.5058599E-2,4.3222442E-2,2.757639E-2,-2.2884263E-2,-3.650821E-2,1.2314351E-2,5.5654757E-3,4.701928E-2,3.9100766E-2,-4.7482785E-2,-3.3019662E-2,2.302149E-2],"split_indices":[4,5,5,0,16,16,13,2,16,4,17,16,2,0,1,0,13,4,0,2,16,0,13,0,0,0,0,0,0,0,0,0,0,0,0,0,0],"split_type":[0,0,0,0,0,0,0,0,0,0,0,0,0,0,0,0,0,0,0,0,0,0,0,0,0,0,0,0,0,0,0,0,0,0,0,0,0],"sum_hessian":[2.8459958E2,1.0408513E2,1.8051445E2,6.686459E0,9.7398674E1,1.2329315E2,5.72213E1,6.1680702E1,3.5717968E1,9.22481E1,3.1045052E1,4.7075344E1,1.0145951E1,5.4746923E0,5.620601E1,7.8051257E0,2.7912842E1,8.015427E1,1.209384E1,1.3114683E1,1.7930368E1,1.5924516E1,3.115083E1,5.0175767E0,5.1283746E0,1.9126158E1,3.7079853E1,2.13198E1,6.593044E0,5.6280632E1,2.3873632E1,5.3559327E0,7.7587504E0,6.276599E0,1.16537695E1,8.26435E0,2.288648E1],"tree_param":{"num_deleted":"0","num_feature":"18","num_nodes":"37","size_leaf_vector":"1"}},{"base_weights":[4.874018E-2,-1.3653265E-1,3.4864408E-1,-4.972982E-2,-4.598983E-2,-2.9736081E-2,4.1945103E-1,-3.619533E-1,3.548344E-1,5.630773E-1,-1.7974734E-1,4.4033945E-2,-4.7662577E-1,-5.2275974E-2,5.0065064E-1,2.414134E-2,7.774272E-1,4.3840736E-2,-1.0610659E0,-4.2325333E-3,-3.6860455E-2,2.7299294E-2,-4.6526756E-2,2.3202183E-2,-3.117374E-2,3.7458375E-2,-2.3423648E-2,-6.2607385E-2,-1.5510091E-2],"categories":[],"categories_nodes":[],"categories_segments":[],"categories_sizes":[],"default_left":[0,0,0,0,0,0,0,0,0,0,0,0,0,0,0,0,0,0,0,0,0,0,0,0,0,0,0,0,0],"id":34,"left_children":[1,3,5,7,-1,-1,9,11,13,15,17,-1,19,-1,21,23,25,-1,27,-1,-1,-1,-1,-1,-1,-1,-1,-1,-1],"loss_changes":[1.6190643E1,1.5641788E1,8.884525E0,2.1199162E1,0E0,0E0,9.196104E0,1.636131E1,1.8267963E1,9.750849E0,2.473796E1,0E0,1.4424807E1,0E0,2.1291388E1,1.1789531E1,1.3770733E1,0E0,3.595852E0,0E0,0E0,0E0,0E0,0E0,0E0,0E0,0E0,0E0,0E0],"parents":[2147483647,0,0,1,1,2,2,3,3,6,6,7,7,8,8,9,9,10,10,12,12,14,14,15,15,16,16,18,18],"right_children":[2,4,6,8,-1,-1,10,12,14,16,18,-1,20,-1,22,24,26,-1,28,-1,-1,-1,-1,-1,-1,-1,-1,-1,-1],"split_conditions":[2.2104331E-3,3.8120037E-1,6.87005E3,4E-1,-4.598983E-2,-2.9736081E-2,4.5228633E3,1.369863E-2,8.6132E3,3.3128835E-2,2.0833334E-2,4.4033945E-2,-3.2889328E-4,-5.2275974E-2,8.98705E3,-9.807127E-4,9.52325E3,4.3840736E-2,1.4828545E-2,-4.2325333E-3,-3.6860455E-2,2.7299294E-2,-4.6526756E-2,2.3202183E-2,-3.117374E-2,3.7458375E-2,-2.3423648E-2,-6.2607385E-2,-1.5510091E-2],"split_indices":[7,14,13,12,0,0,15,17,13,6,6,0,16,0,13,5,13,0,16,0,0,0,0,0,0,0,0,0,0],"split_type":[0,0,0,0,0,0,0,0,0,0,0,0,0,0,0,0,0,0,0,0,0,0,0,0,0,0,0,0,0],"sum_hessian":[2.8914868E2,1.7886304E2,1.1028563E2,1.6580608E2,1.3056968E1,6.050974E0,1.0423465E2,9.378205E1,7.2024025E1,8.426398E1,1.9970676E1,6.128811E0,8.765324E1,5.112549E0,6.6911476E1,2.4426943E1,5.9837032E1,8.0135145E0,1.1957162E1,4.8604214E1,3.9049023E1,6.0905308E1,6.0061693E0,1.4675693E1,9.75125E0,5.3930885E1,5.906149E0,5.99529E0,5.961872E0],"tree_param":{"num_deleted":"0","num_feature":"18","num_nodes":"29","size_leaf_vector":"1"}},{"base_weights":[-5.9657294E-2,-2.8475177E-1,2.847704E-1,1.525655E-1,-6.1415005E-1,4.0133426E-1,-3.5237795E-1,-6.016235E-2,2.9726905E-1,-4.4140104E-2,-2.6714072E-1,4.901476E-1,-3.0594707E-2,2.0105809E-2,-7.859691E-1,3.840368E-1,-2.3006419E-2,7.066499E-2,-9.593946E-1,6.046068E-1,-6.42087E-2,3.5007698E-3,-6.061177E-2,-5.627001E-3,2.4304403E-2,-2.5782255E-2,1.5080758E-2,-4.930008E-2,-9.493956E-3,-1.832637E-2,2.9338304E-2,-3.834045E-2,3.6826294E-2],"categories":[],"categories_nodes":[],"categories_segments":[],"categories_sizes":[],"default_left":[0,0,0,0,0,0,0,0,0,0,0,0,0,0,0,0,0,0,0,0,0,0,0,0,0,0,0,0,0,0,0,0,0],"id":35,"left_children":[1,3,5,7,9,11,13,-1,15,-1,17,19,-1,-1,21,23,-1,25,27,29,31,-1,-1,-1,-1,-1,-1,-1,-1,-1,-1,-1,-1],"loss_changes":[2.1719425E1,2.4551735E1,8.362969E0,1.7940323E1,1.603786E1,1.0096324E1,6.9147954E0,0E0,5.384491E0,0E0,1.3763544E1,5.6862717E0,0E0,0E0,7.9747167E0,7.519944E0,0E0,8.967333E0,3.3561077E0,1.04028225E1,1.4838259E1,0E0,0E0,0E0,0E0,0E0,0E0,0E0,0E0,0E0,0E0,0E0,0E0],"parents":[2147483647,0,0,1,1,2,2,3,3,4,4,5,5,6,6,8,8,10,10,11,11,14,14,15,15,17,17,18,18,19,19,20,20],"right_children":[2,4,6,8,10,12,14,-1,16,-1,18,20,-1,-1,22,24,-1,26,28,30,32,-1,-1,-1,-1,-1,-1,-1,-1,-1,-1,-1,-1],"split_conditions":[2.0089864E-3,-8.4195327E-4,3.4526467E-2,-3.7210394E-2,4.1986343E3,1.2E1,3E0,-6.016235E-2,3.301229E-1,-4.4140104E-2,4.584273E3,2.9379722E-2,-3.0594707E-2,2.0105809E-2,2.739726E-2,5E0,-2.3006419E-2,3.221834E-4,4.813199E3,3E0,8.3657935E-2,3.5007698E-3,-6.061177E-2,-5.627001E-3,2.4304403E-2,-2.5782255E-2,1.5080758E-2,-4.930008E-2,-9.493956E-3,-1.832637E-2,2.9338304E-2,-3.834045E-2,3.6826294E-2],"split_indices":[7,4,7,4,15,1,1,0,14,0,15,0,0,0,6,1,0,4,15,1,0,0,0,0,0,0,0,0,0,0,0,0,0],"split_type":[0,0,0,0,0,0,0,0,0,0,0,0,0,0,0,0,0,0,0,0,0,0,0,0,0,0,0,0,0,0,0,0,0],"sum_hessian":[2.7810074E2,1.6846626E2,1.09634476E2,7.2477104E1,9.598915E1,9.3124725E1,1.6509752E1,5.012047E0,6.746506E1,3.8802143E1,5.7187008E1,8.7152954E1,5.9717684E0,5.4239874E0,1.1085765E1,6.1975677E1,5.489382E0,3.8939026E1,1.8247984E1,7.2312225E1,1.4840732E1,5.382369E0,5.703396E0,1.8494291E1,4.3481384E1,1.1248238E1,2.7690788E1,1.2626622E1,5.6213617E0,7.4589243E0,6.4853294E1,7.8452177E0,6.995514E0],"tree_param":{"num_deleted":"0","num_feature":"18","num_nodes":"33","size_leaf_vector":"1"}},{"base_weights":[-2.1973131E-2,3.6775967E-1,-2.4275489E-1,4.6354032E-1,-4.241705E-2,-1.163908E-1,-8.9456165E-1,5.8382106E-1,-9.770143E-2,-6.507231E-1,1.1050181E-1,-3.8945886E-1,-5.401775E-2,-9.497565E-3,6.6514343E-1,-7.1959275E-1,4.0790338E-2,3.3772543E-1,-1.0236628E0,-2.8255108E-1,4.115744E-1,-3.6327064E-2,1.1798042E-2,2.1371597E-2,4.6812024E-2,-5.653456E-3,-4.5173664E-2,-1.8917445E-2,3.9843183E-2,4.450789E-4,-5.007286E-2,-2.8726118E-2,2.2740938E-2,2.2094177E-2,-2.2511203E-2],"categories":[],"categories_nodes":[],"categories_segments":[],"categories_sizes":[],"default_left":[0,0,0,0,0,0,0,0,0,0,0,0,0,0,0,0,0,0,0,0,0,0,0,0,0,0,0,0,0,0,0,0,0,0,0],"id":36,"left_children":[1,3,5,7,-1,9,11,13,15,17,19,21,-1,-1,23,25,-1,27,29,31,33,-1,-1,-1,-1,-1,-1,-1,-1,-1,-1,-1,-1,-1,-1],"loss_changes":[2.3325495E1,1.3829756E1,1.4064237E1,6.3533134E0,0E0,1.7873898E1,5.7141056E0,5.3102417E0,1.2548128E1,1.6601095E1,1.237492E1,5.556212E0,0E0,0E0,3.8304405E0,2.4603124E0,0E0,7.3053303E0,7.7410393E0,1.722964E1,8.423138E0,0E0,0E0,0E0,0E0,0E0,0E0,0E0,0E0,0E0,0E0,0E0,0E0,0E0,0E0],"parents":[2147483647,0,0,1,1,2,2,3,3,5,5,6,6,7,7,8,8,9,9,10,10,11,11,14,14,15,15,17,17,18,18,19,19,20,20],"right_children":[2,4,6,8,-1,10,12,14,16,18,20,22,-1,-1,24,26,-1,28,30,32,34,-1,-1,-1,-1,-1,-1,-1,-1,-1,-1,-1,-1,-1,-1],"split_conditions":[-1.3344317E-2,3.8148183E-1,4.5815586E3,9.51815E3,-4.241705E-2,8.6067E3,1.495762E-2,3.417323E3,5.5501785E-2,3.4302737E3,8.650261E-3,4.7450083E3,-5.401775E-2,-9.497565E-3,-1.591512E-2,-8.5005894E-2,4.0790338E-2,1.2686065E-1,3E0,4.5032944E3,9.6032E3,-3.6327064E-2,1.1798042E-2,2.1371597E-2,4.6812024E-2,-5.653456E-3,-4.5173664E-2,-1.8917445E-2,3.9843183E-2,4.450789E-4,-5.007286E-2,-2.8726118E-2,2.2740938E-2,2.2094177E-2,-2.2511203E-2],"split_indices":[16,14,15,13,0,13,16,15,14,15,16,15,0,0,16,14,0,14,1,15,13,0,0,0,0,0,0,0,0,0,0,0,0,0,0],"split_type":[0,0,0,0,0,0,0,0,0,0,0,0,0,0,0,0,0,0,0,0,0,0,0,0,0,0,0,0,0,0,0,0,0,0,0],"sum_hessian":[2.6918976E2,9.694316E1,1.722466E2,9.154893E1,5.394234E0,1.4539185E2,2.6854755E1,7.550521E1,1.6043713E1,4.2910454E1,1.024814E2,1.3723361E1,1.3131394E1,6.5192347E0,6.898598E1,1.0593647E1,5.450066E0,1.1707334E1,3.120312E1,4.4333282E1,5.8148113E1,7.703786E0,6.019575E0,5.658429E1,1.240169E1,5.052423E0,5.541224E0,5.3049054E0,6.4024277E0,5.7296853E0,2.5473434E1,2.950536E1,1.4827922E1,5.127532E1,6.872797E0],"tree_param":{"num_deleted":"0","num_feature":"18","num_nodes":"35","size_leaf_vector":"1"}},{"base_weights":[1.0304229E-2,-5.387103E-1,1.4873768E-1,1.254184E-1,-4.839771E-2,2.3317146E-1,-8.762866E-1,-5.0773013E-2,5.297644E-1,-6.5754294E-1,3.2904604E-1,-6.405318E-3,-4.6318073E-2,4.3758605E-2,-2.4449574E-2,8.269792E-3,-4.987301E-2,5.4430157E-1,-5.0681133E-2,2.5404334E-2,-2.703124E-2,1.0789722E-2,-6.177819E-2],"categories":[],"categories_nodes":[],"categories_segments":[],"categories_sizes":[],"default_left":[0,0,0,0,0,0,0,0,0,0,0,0,0,0,0,0,0,0,0,0,0,0,0],"id":37,"left_children":[1,3,5,7,-1,9,11,-1,13,15,17,-1,-1,-1,-1,-1,-1,19,21,-1,-1,-1,-1],"loss_changes":[2.1224503E1,2.5312351E1,1.948523E1,1.6998194E1,0E0,1.789418E1,3.1383505E0,0E0,1.5719708E1,1.0744624E1,1.5444288E1,0E0,0E0,0E0,0E0,0E0,0E0,1.3746937E1,3.345763E1,0E0,0E0,0E0,0E0],"parents":[2147483647,0,0,1,1,2,2,3,3,5,5,6,6,8,8,9,9,10,10,17,17,18,18],"right_children":[2,4,6,8,-1,10,12,-1,14,16,18,-1,-1,-1,-1,-1,-1,20,22,-1,-1,-1,-1],"split_conditions":[-1.0194E3,2.717944E-1,4.665741E3,2.6921442E-1,-4.839771E-2,8.6067E3,-4.3208716E-3,-5.0773013E-2,3.723632E3,-1.253121E-1,9.0574E3,-6.405318E-3,-4.6318073E-2,4.3758605E-2,-2.4449574E-2,8.269792E-3,-4.987301E-2,3.5E2,7.2455496E-2,2.5404334E-2,-2.703124E-2,1.0789722E-2,-6.177819E-2],"split_indices":[2,14,15,14,0,13,16,0,15,14,13,0,0,0,0,0,0,3,14,0,0,0,0],"split_type":[0,0,0,0,0,0,0,0,0,0,0,0,0,0,0,0,0,0,0,0,0,0,0],"sum_hessian":[2.7772137E2,5.5197857E1,2.2252351E2,2.80796E1,2.7118256E1,2.0639253E2,1.613098E1,5.774528E0,2.230507E1,1.9386116E1,1.8700642E2,5.09645E0,1.103453E1,1.5011225E1,7.293846E0,8.053574E0,1.1332542E1,1.1924186E2,6.776456E1,1.1150437E2,7.7374926E0,5.6415535E1,1.1349023E1],"tree_param":{"num_deleted":"0","num_feature":"18","num_nodes":"23","size_leaf_vector":"1"}},{"base_weights":[-1.6706351E-3,1.05643116E-1,-5.705334E-1,-3.645681E-1,3.609133E-1,-1.0232457E0,2.0710683E-1,7.695456E-2,-6.556001E-1,-4.795211E-2,4.283195E-1,2.8867184E-3,-5.247695E-2,3.9225925E-2,-2.1564027E-2,-3.7102836E-1,3.1956248E-2,2.974957E-1,-1.1852015E0,5.22557E-1,-3.9670184E-1,-3.5125483E-2,1.900956E-2,2.5497228E-2,-1.6466482E-2,-5.6948673E-2,-3.204202E-2,1.4821165E-2,4.683147E-2,-3.582561E-2,1.9064093E-2],"categories":[],"categories_nodes":[],"categories_segments":[],"categories_sizes":[],"default_left":[0,0,0,0,0,0,0,0,0,0,0,0,0,0,0,0,0,0,0,0,0,0,0,0,0,0,0,0,0,0,0],"id":38,"left_children":[1,3,5,7,9,11,13,15,17,-1,19,-1,-1,-1,-1,21,-1,23,25,27,29,-1,-1,-1,-1,-1,-1,-1,-1,-1,-1],"loss_changes":[1.6491545E1,2.7317802E1,1.5396559E1,1.0395216E1,1.59375725E1,8.87199E0,1.0117651E1,1.0870847E1,2.4918371E1,0E0,1.1270306E1,0E0,0E0,0E0,0E0,9.337447E0,0E0,4.636919E0,1.5177269E0,1.2036301E1,7.0178094E0,0E0,0E0,0E0,0E0,0E0,0E0,0E0,0E0,0E0,0E0],"parents":[2147483647,0,0,1,1,2,2,3,3,4,4,5,5,6,6,7,7,8,8,10,10,15,15,17,17,18,18,19,19,20,20],"right_children":[2,4,6,8,10,12,14,16,18,-1,20,-1,-1,-1,-1,22,-1,24,26,28,30,-1,-1,-1,-1,-1,-1,-1,-1,-1,-1],"split_conditions":[9.52445E3,-6.138E2,2.5510205E-2,-1.5097053E-2,6.88795E3,2.0833334E-2,2.3013699E-1,2.2576456E-3,3.7689194E3,-4.795211E-2,6.715852E-2,2.8867184E-3,-5.247695E-2,3.9225925E-2,-2.1564027E-2,-1.0214E3,3.1956248E-2,1.2950014E-1,6.246575E-1,1.379E3,2.2567518E-2,-3.5125483E-2,1.900956E-2,2.5497228E-2,-1.6466482E-2,-5.6948673E-2,-3.204202E-2,1.4821165E-2,4.683147E-2,-3.582561E-2,1.9064093E-2],"split_indices":[13,2,16,16,13,6,17,0,15,0,6,0,0,0,0,2,0,6,17,2,16,0,0,0,0,0,0,0,0,0,0],"split_type":[0,0,0,0,0,0,0,0,0,0,0,0,0,0,0,0,0,0,0,0,0,0,0,0,0,0,0,0,0,0,0],"sum_hessian":[2.673971E2,2.2549655E2,4.190055E1,7.9055435E1,1.4644112E2,2.6364758E1,1.5535792E1,3.1563156E1,4.7492283E1,5.309768E0,1.4113135E2,5.5830374E0,2.078172E1,7.539723E0,7.9960694E0,1.9691696E1,1.187146E1,1.7052765E1,3.0439518E1,1.2710113E2,1.4030217E1,1.2363578E1,7.3281183E0,1.1690888E1,5.361876E0,1.6949373E1,1.3490145E1,1.0435326E2,2.2747871E1,8.985518E0,5.044699E0],"tree_param":{"num_deleted":"0","num_feature":"18","num_nodes":"31","size_leaf_vector":"1"}},{"base_weights":[9.83777E-3,3.4061888E-1,-2.2651783E-1,6.501483E-1,-3.6068507E-2,-7.2831523E-1,-2.1668794E-2,7.7640015E-1,-1.2772852E-2,-1.105694E0,3.0385363E-1,-9.6079576E-1,-9.2544876E-2,-5.7334594E-2,6.640456E-2,2.91094E-1,9.670979E-1,-1.9630862E-2,-5.8672983E-2,7.811416E-1,-3.330913E-1,-1.2154294E-2,-4.665692E-2,2.1227412E-2,-3.181137E-2,-6.364934E-1,2.3878025E-1,3.481671E-2,-7.792299E-3,4.5898095E-2,2.0507121E-2,4.3010898E-2,1.4304883E-2,-5.1142678E-2,1.436887E-2,1.0788239E-2,-4.7929984E-2,1.624533E-2,-1.549333E-2],"categories":[],"categories_nodes":[],"categories_segments":[],"categories_sizes":[],"default_left":[0,0,0,0,0,0,0,0,0,0,0,0,0,0,0,0,0,0,0,0,0,0,0,0,0,0,0,0,0,0,0,0,0,0,0,0,0,0,0],"id":39,"left_children":[1,3,5,7,9,11,13,15,-1,17,19,21,23,-1,25,27,29,-1,-1,31,33,-1,-1,-1,-1,35,37,-1,-1,-1,-1,-1,-1,-1,-1,-1,-1,-1,-1],"loss_changes":[1.979539E1,1.2400152E1,1.5064947E1,7.4145546E0,1.8030272E1,6.097622E0,1.3395082E1,4.3919525E0,0E0,1.7423716E0,1.169784E1,3.6792812E0,5.9756303E0,0E0,1.2294202E1,4.799423E0,2.2494621E0,0E0,0E0,2.1892262E0,1.1459054E1,0E0,0E0,0E0,0E0,1.0576588E1,8.707642E0,0E0,0E0,0E0,0E0,0E0,0E0,0E0,0E0,0E0,0E0,0E0,0E0],"parents":[2147483647,0,0,1,1,2,2,3,3,4,4,5,5,6,6,7,7,9,9,10,10,11,11,12,12,14,14,15,15,16,16,19,19,20,20,25,25,26,26],"right_children":[2,4,6,8,10,12,14,16,-1,18,20,22,24,-1,26,28,30,-1,-1,32,34,-1,-1,-1,-1,36,38,-1,-1,-1,-1,-1,-1,-1,-1,-1,-1,-1,-1],"split_conditions":[-8.4195327E-4,-3.2889328E-4,3.221834E-4,2.7464175E-1,9.010736E-3,-3.8377035E-5,-3.0064465E-2,5E0,-1.2772852E-2,1.218E-1,1.9164082E-2,-4.360116E-3,-6.8543907E-3,-5.7334594E-2,8.6067E3,-2.1090943E-2,1.2E1,-1.9630862E-2,-5.8672983E-2,6E0,-2.7703901E-3,-1.2154294E-2,-4.665692E-2,2.1227412E-2,-3.181137E-2,-2.3144996E-2,9.5375E3,3.481671E-2,-7.792299E-3,4.5898095E-2,2.0507121E-2,4.3010898E-2,1.4304883E-2,-5.1142678E-2,1.436887E-2,1.0788239E-2,-4.7929984E-2,1.624533E-2,-1.549333E-2],"split_indices":[4,16,4,14,16,5,5,1,0,14,16,5,16,0,13,4,1,0,0,1,5,0,0,0,0,16,13,0,0,0,0,0,0,0,0,0,0,0,0],"split_type":[0,0,0,0,0,0,0,0,0,0,0,0,0,0,0,0,0,0,0,0,0,0,0,0,0,0,0,0,0,0,0,0,0,0,0,0,0,0,0],"sum_hessian":[2.5106354E2,1.0462382E2,1.4643971E2,5.7178745E1,4.7445076E1,4.1568974E1,1.0487074E2,5.0857925E1,6.3208184E0,1.0969377E1,3.64757E1,2.9949059E1,1.1619917E1,5.32817E0,9.954257E1,1.5207431E1,3.5650494E1,5.0338235E0,5.9355536E0,2.0811462E1,1.5664238E1,7.846159E0,2.21029E1,6.2126822E0,5.407235E0,1.895933E1,8.0583244E1,6.6697607E0,8.53767E0,2.427203E1,1.1378466E1,1.1234312E1,9.57715E0,6.3245654E0,9.339673E0,7.3861704E0,1.1573158E1,6.39904E1,1.6592844E1],"tree_param":{"num_deleted":"0","num_feature":"18","num_nodes":"39","size_leaf_vector":"1"}},{"base_weights":[-7.990398E-2,-5.0655645E-1,3.639429E-2,2.3458157E-1,-1.1010469E0,2.283699E-1,-4.6425024E-1,-2.869659E-2,7.76175E-1,-1.6860025E-2,-4.9629766E-2,-4.637246E-2,6.69257E-1,-1.674107E-1,-4.786591E-2,6.094316E-3,4.1013453E-2,-5.5039357E-2,1.4759207E-1,-0E0,7.959759E-1,-5.5432763E-2,5.8041483E-2,3.1205114E-2,-2.5233184E-3,4.173885E-2,2.0792494E-2,4.264728E-2,-1.2040974E-2],"categories":[],"categories_nodes":[],"categories_segments":[],"categories_sizes":[],"default_left":[0,0,0,0,0,0,0,0,0,0,0,0,0,0,0,0,0,0,0,0,0,0,0,0,0,0,0,0,0],"id":40,"left_children":[1,3,5,7,9,11,13,-1,15,-1,-1,17,19,21,-1,-1,-1,-1,23,-1,25,-1,27,-1,-1,-1,-1,-1,-1],"loss_changes":[1.2680864E1,2.4450064E1,1.9356258E1,1.3504635E1,2.2165298E0,1.7750193E1,1.178759E1,0E0,2.2978258E0,0E0,0E0,2.3691519E1,4.7858067E0,1.1460314E1,0E0,0E0,0E0,0E0,1.0768834E1,0E0,2.531496E0,0E0,1.3226912E1,0E0,0E0,0E0,0E0,0E0,0E0],"parents":[2147483647,0,0,1,1,2,2,3,3,4,4,5,5,6,6,8,8,11,11,12,12,13,13,18,18,20,20,22,22],"right_children":[2,4,6,8,10,12,14,-1,16,-1,-1,18,20,22,-1,-1,-1,-1,24,-1,26,-1,28,-1,-1,-1,-1,-1,-1],"split_conditions":[-1.0184E3,2.7115512E-1,4.603073E-2,-1.8467562E-4,-2.1312379E-3,3.9836846E-2,4.584273E3,-2.869659E-2,6E0,-1.6860025E-2,-4.9629766E-2,3.7749907E3,5E0,-3.1930074E-2,-4.786591E-2,6.094316E-3,4.1013453E-2,-5.5039357E-2,1.2578616E-2,-0E0,2.445785E-3,-5.5432763E-2,-2.3086948E-2,3.1205114E-2,-2.5233184E-3,4.173885E-2,2.0792494E-2,4.264728E-2,-1.2040974E-2],"split_indices":[2,14,6,5,7,6,15,0,1,0,0,15,1,16,0,0,0,0,6,0,16,0,16,0,0,0,0,0,0],"split_type":[0,0,0,0,0,0,0,0,0,0,0,0,0,0,0,0,0,0,0,0,0,0,0,0,0,0,0,0,0],"sum_hessian":[2.5324586E2,5.3709846E1,1.9953603E2,2.410094E1,2.9608906E1,1.447675E2,5.4768517E1,8.554619E0,1.5546322E1,5.8559885E0,2.3752918E1,8.9600334E1,