{"learner":{"attributes":{"best_iteration":"130","best_score":"0.7400273224043716","scikit_learn":"{\"_estimator_type\": \"classifier\"}"},"feature_names":["modal_price","arrival_qty","min_price","max_price","hingoli_price","latur_price","parbhani_price","surrounding_price","usd_inr","cbot_close","cbot_weekly_change","price_spread_ratio","price_velocity","price_trend_30d","arrival_ratio","price_vs_7d_avg","rain_7d_sum","temp_7d_avg","is_raining_today","weather_shock_flag","month","day_of_week","year_norm","price_wave_lag_score","acceleration","distance_from_min","trend_strength","drawdown_7","cbot_price_inr","cbot_7day_trend","days_from_harvest_start","msp_gap","up_days_streak_7","days_since_low_30","bounce_from_low_30","price_vs_30d_min","price_accel_3d","price_change_14d","cbot_momentum_7d","cbot_momentum_14d","is_recovering"],"feature_types":["float","float","float","float","float","float","float","float","float","float","float","float","float","float","float","float","float","float","float","float","int","int","float","float","float","float","float","float","float","float","float","float","float","float","float","float","float","float","float","float","int"],"gradient_booster":{"model":{"cats":{"enc":[],"feature_segments":[],"sorted_idx":[]},"gbtree_model_param":{"num_parallel_tree":"1","num_trees":"171"},"iteration_indptr":[0,1,2,3,4,5,6,7,8,9,10,11,12,13,14,15,16,17,18,19,20,21,22,23,24,25,26,27,28,29,30,31,32,33,34,35,36,37,38,39,40,41,42,43,44,45,46,47,48,49,50,51,52,53,54,55,56,57,58,59,60,61,62,63,64,65,66,67,68,69,70,71,72,73,74,75,76,77,78,79,80,81,82,83,84,85,86,87,88,89,90,91,92,93,94,95,96,97,98,99,100,101,102,103,104,105,106,107,108,109,110,111,112,113,114,115,116,117,118,119,120,121,122,123,124,125,126,127,128,129,130,131,132,133,134,135,136,137,138,139,140,141,142,143,144,145,146,147,148,149,150,151,152,153,154,155,156,157,158,159,160,161,162,163,164,165,166,167,168,169,170,171],"tree_info":[0,0,0,0,0,0,0,0,0,0,0,0,0,0,0,0,0,0,0,0,0,0,0,0,0,0,0,0,0,0,0,0,0,0,0,0,0,0,0,0,0,0,0,0,0,0,0,0,0,0,0,0,0,0,0,0,0,0,0,0,0,0,0,0,0,0,0,0,0,0,0,0,0,0,0,0,0,0,0,0,0,0,0,0,0,0,0,0,0,0,0,0,0,0,0,0,0,0,0,0,0,0,0,0,0,0,0,0,0,0,0,0,0,0,0,0,0,0,0,0,0,0,0,0,0,0,0,0,0,0,0,0,0,0,0,0,0,0,0,0,0,0,0,0,0,0,0,0,0,0,0,0,0,0,0,0,0,0,0,0,0,0,0,0,0,0,0,0,0,0,0],"trees":[{"base_weights":[2.060388E-2,-5.839983E-1,7.995422E-1,7.5719154E-1,-8.9602613E-1,1.2688829E0,5.8946587E-2,1.3843654E-1,1.3661413E0,-5.2575964E-2,-1.070885E0,1.4094961E0,-3.1214425E-2,3.911534E-1,-1.036023E0,-4.7494295E-1,7.3310226E-1,4.7844112E-2,-0E0,-7.010565E-1,3.851119E-2,-5.400201E-1,-1.6015555E0,5.691551E-1,1.5289183E0,-2.3554379E-1,7.8948575E-1,1.3963803E-2,-4.552147E-2,1.21237105E-2,-3.5013042E-2,-1.8638557E-2,3.9691888E-2,1.7418716E-2,-3.5290856E-2,-2.5907213E-2,1.769937E-2,-0E0,-5.0445206E-2,-1.4259868E-2,3.2312196E-2,9.062191E-3,4.729493E-2,3.4117173E-2,-2.1710213E-2,2.9486058E-2,-1.8638557E-2],"categories":[],"categories_nodes":[],"categories_segments":[],"categories_sizes":[],"default_left":[0,0,0,0,0,0,0,0,0,0,0,0,0,0,0,0,0,0,0,0,0,0,0,0,0,0,0,0,0,0,0,0,0,0,0,0,0,0,0,0,0,0,0,0,0,0,0],"id":0,"left_children":[1,3,5,7,9,11,13,15,17,19,21,23,-1,25,27,29,31,-1,-1,33,-1,35,37,39,41,43,45,-1,-1,-1,-1,-1,-1,-1,-1,-1,-1,-1,-1,-1,-1,-1,-1,-1,-1,-1,-1],"loss_changes":[1.8887668E2,9.525173E1,5.965487E1,1.4280104E1,2.5885025E1,3.7212708E1,2.5637007E1,9.401815E0,5.6613274E0,3.0319757E1,3.9127167E1,6.7935333E0,0E0,1.4797566E1,1.3776239E1,8.599976E0,1.2656721E1,0E0,0E0,1.6505753E1,0E0,2.9826221E1,1.0243149E1,9.897366E0,2.487503E0,1.5508502E1,1.0968641E1,0E0,0E0,0E0,0E0,0E0,0E0,0E0,0E0,0E0,0E0,0E0,0E0,0E0,0E0,0E0,0E0,0E0,0E0,0E0,0E0],"parents":[2147483647,0,0,1,1,2,2,3,3,4,4,5,5,6,6,7,7,8,8,9,9,10,10,11,11,13,13,14,14,15,15,16,16,19,19,21,21,22,22,23,23,24,24,25,25,26,26],"right_children":[2,4,6,8,10,12,14,16,18,20,22,24,-1,26,28,30,32,-1,-1,34,-1,36,38,40,42,44,46,-1,-1,-1,-1,-1,-1,-1,-1,-1,-1,-1,-1,-1,-1,-1,-1,-1,-1,-1,-1],"split_conditions":[4.6519477E-2,1.0345738E0,1.07E2,1.163E3,4.18E2,7.501E3,6.082192E-1,1.43275E3,1.394E3,1.4555E3,1.0873865E0,5.8414556E-2,-3.1214425E-2,7.788162E-4,1.0378122E0,4.346857E3,-4.280923E-2,4.7844112E-2,-0E0,1.7260274E-1,3.851119E-2,1.307E3,4.29E3,4.6027398E-1,7.1E1,4.625E3,1.2E1,1.3963803E-2,-4.552147E-2,1.21237105E-2,-3.5013042E-2,-1.8638557E-2,3.9691888E-2,1.7418716E-2,-3.5290856E-2,-2.5907213E-2,1.769937E-2,-0E0,-5.0445206E-2,-1.4259868E-2,3.2312196E-2,9.062191E-3,4.729493E-2,3.4117173E-2,-2.1710213E-2,2.9486058E-2,-1.8638557E-2],"split_indices":[23,35,25,33,33,0,30,9,33,9,35,23,0,10,35,3,37,0,0,30,0,33,5,30,33,6,20,0,0,0,0,0,0,0,0,0,0,0,0,0,0,0,0,0,0,0,0],"split_type":[0,0,0,0,0,0,0,0,0,0,0,0,0,0,0,0,0,0,0,0,0,0,0,0,0,0,0,0,0,0,0,0,0,0,0,0,0,0,0,0,0,0,0,0,0,0,0],"sum_hessian":[3.9761163E2,2.2334535E2,1.7426628E2,4.1145348E1,1.822E2,1.0518604E2,6.908023E1,2.2136045E1,1.9009302E1,3.260349E1,1.4959651E2,1.0010814E2,5.077907E0,5.4440697E1,1.4639535E1,1.0217442E1,1.1918605E1,1.5775581E1,3.2337208E0,2.2934883E1,9.668605E0,7.723953E1,7.235698E1,1.4574418E1,8.553372E1,2.0418604E1,3.402209E1,3.0616279E0,1.1577907E1,4.139535E0,6.077907E0,3.077907E0,8.840697E0,5.5453486E0,1.7389534E1,6.10093E1,1.6230232E1,3.2337208E0,6.912325E1,4.155814E0,1.0418605E1,4.389535E0,8.114419E1,4.2953486E0,1.6123257E1,3.0944185E1,3.077907E0],"tree_param":{"num_deleted":"0","num_feature":"41","num_nodes":"47","size_leaf_vector":"1"}},{"base_weights":[4.829807E-2,1.1141284E0,-4.9324948E-1,1.4574556E0,5.8669764E-1,1.9256571E-1,-8.5756314E-1,1.6060281E0,1.5285379E-1,-7.484601E-1,8.250656E-1,-6.10149E-1,4.6567872E-1,-2.3780581E-1,-1.392307E0,1.1340973E-2,4.977443E-2,3.732477E-2,-3.629729E-2,-3.800102E-2,-0E0,1.1890684E0,-2.6935482E-1,-4.844118E-2,2.0607643E-1,6.0572696E-1,-3.7326172E-2,7.599946E-1,-8.756848E-1,-8.3453715E-1,-1.6317002E0,4.0449817E-2,-0E0,-2.6478741E-2,1.0223747E-2,-1.9597895E-2,2.7978538E-2,3.829392E-2,4.8926044E-3,2.9221648E-2,-1.1893869E-2,-3.0259131E-3,-3.859768E-2,-5.6368E-3,-5.0191514E-2,-0E0,-5.196535E-2],"categories":[],"categories_nodes":[],"categories_segments":[],"categories_sizes":[],"default_left":[0,0,0,0,0,0,0,0,0,0,0,0,0,0,0,0,0,0,0,0,0,0,0,0,0,0,0,0,0,0,0,0,0,0,0,0,0,0,0,0,0,0,0,0,0,0,0],"id":1,"left_children":[1,3,5,7,9,11,13,15,17,19,21,23,25,27,29,-1,-1,-1,-1,-1,-1,31,33,-1,35,37,-1,39,41,43,45,-1,-1,-1,-1,-1,-1,-1,-1,-1,-1,-1,-1,-1,-1,-1,-1],"loss_changes":[2.2979666E2,2.1005554E1,6.656085E1,1.3230316E1,1.9029144E1,2.0325237E1,5.5148514E1,1.6067963E0,1.782837E1,3.9318042E0,2.1083302E1,2.070867E1,1.7253822E1,5.3765327E1,7.722061E0,0E0,0E0,0E0,0E0,0E0,0E0,7.081028E0,5.808441E0,0E0,9.579188E0,1.7916584E1,0E0,9.190386E0,1.4900719E1,1.4927742E1,1.0260742E1,0E0,0E0,0E0,0E0,0E0,0E0,0E0,0E0,0E0,0E0,0E0,0E0,0E0,0E0,0E0,0E0],"parents":[2147483647,0,0,1,1,2,2,3,3,4,4,5,5,6,6,7,7,8,8,9,9,10,10,11,11,12,12,13,13,14,14,21,21,22,22,24,24,25,25,27,27,28,28,29,29,30,30],"right_children":[2,4,6,8,10,12,14,16,18,20,22,24,26,28,30,-1,-1,-1,-1,-1,-1,32,34,-1,36,38,-1,40,42,44,46,-1,-1,-1,-1,-1,-1,-1,-1,-1,-1,-1,-1,-1,-1,-1,-1],"split_conditions":[-1.9310117E-2,-3.810844E-2,4.387E3,7.485E3,-2.4433011E-2,-2.254025E-2,5.77E2,-8.395821E-2,-2.0707142E-1,-1.2674504E-2,8.172057E-2,2.250469E-2,1.394E3,6.3E3,-2.170683E-3,1.1340973E-2,4.977443E-2,3.732477E-2,-3.629729E-2,-3.800102E-2,-0E0,2.6381185E0,6.897391E-4,-4.844118E-2,4.398E3,4.423857E3,-3.7326172E-2,6.35E2,3.44E2,2.981626E-2,6.53E2,4.0449817E-2,-0E0,-2.6478741E-2,1.0223747E-2,-1.9597895E-2,2.7978538E-2,3.829392E-2,4.8926044E-3,2.9221648E-2,-1.1893869E-2,-3.0259131E-3,-3.859768E-2,-5.6368E-3,-5.0191514E-2,-0E0,-5.196535E-2],"split_indices":[15,15,2,5,38,39,33,24,27,37,34,23,33,3,13,0,0,0,0,0,0,14,37,0,1,3,0,25,25,23,33,0,0,0,0,0,0,0,0,0,0,0,0,0,0,0,0],"split_type":[0,0,0,0,0,0,0,0,0,0,0,0,0,0,0,0,0,0,0,0,0,0,0,0,0,0,0,0,0,0,0,0,0,0,0,0,0,0,0,0,0,0,0,0,0,0,0],"sum_hessian":[3.9412082E2,1.3287248E2,2.6124832E2,7.773228E1,5.5140205E1,8.992607E1,1.7132227E2,6.8785645E1,8.946632E0,7.2312274E0,4.7908978E1,2.1429478E1,6.849659E1,8.122327E1,9.0099E1,4.137485E0,6.4648155E1,5.4481153E0,3.4985166E0,3.9987874E0,3.2324402E0,3.6539867E1,1.1369111E1,9.497874E0,1.1931603E1,6.474695E1,3.7496452E0,3.0951933E1,5.027133E1,3.0332535E1,5.9766464E1,3.1979342E1,4.560527E0,6.1533465E0,5.2157645E0,4.9049845E0,7.0266185E0,2.3719599E1,4.1027348E1,2.7046854E1,3.9050806E0,1.8911943E1,3.135939E1,1.8835613E1,1.1496922E1,3.4818568E0,5.6284607E1],"tree_param":{"num_deleted":"0","num_feature":"41","num_nodes":"47","size_leaf_vector":"1"}},{"base_weights":[-0E0,1.1356173E0,-5.4264414E-1,1.4817977E0,5.935129E-1,-8.056653E-1,2.3440143E-1,1.59053E0,-0E0,9.3334776E-1,-9.1582704E-1,-4.0216673E-2,-1.1819847E0,6.850224E-1,-4.8535866E-1,6.028609E-1,1.7161261E0,1.169098E0,-1.7611061E-1,-4.2591814E-2,-0E0,-4.0277578E-2,1.5815127E-1,-0E0,-1.3474803E0,9.725749E-1,-3.749381E-2,7.525954E-1,-1.3993441E0,-3.5463518E-3,3.6354613E-2,5.363549E-2,5.9230444E-3,-1.0560495E-3,4.026525E-2,2.1681137E-2,-3.605176E-2,-2.0916726E-2,1.4155496E-2,-2.9275082E-2,2.3540089E-2,-4.3645177E-2,1.7179955E-3,-8.043608E-3,3.5630234E-2,-0E0,3.569355E-2,-4.8855457E-2,-3.1649668E-3],"categories":[],"categories_nodes":[],"categories_segments":[],"categories_sizes":[],"default_left":[0,0,0,0,0,0,0,0,0,0,0,0,0,0,0,0,0,0,0,0,0,0,0,0,0,0,0,0,0,0,0,0,0,0,0,0,0,0,0,0,0,0,0,0,0,0,0,0,0],"id":2,"left_children":[1,3,5,7,9,11,13,15,-1,17,19,21,23,25,27,29,31,33,35,-1,-1,-1,37,39,41,43,-1,45,47,-1,-1,-1,-1,-1,-1,-1,-1,-1,-1,-1,-1,-1,-1,-1,-1,-1,-1,-1,-1],"loss_changes":[2.4169293E2,2.0427673E1,5.4984604E1,1.3007599E1,2.8535309E1,5.6078766E1,2.2486916E1,4.8786316E0,0E0,1.2973438E1,5.2287483E0,1.9089905E1,2.585527E1,2.5352587E1,3.1518623E1,6.2123985E0,4.1151123E0,9.244919E0,9.507379E0,0E0,0E0,0E0,1.6301395E1,1.4813667E1,1.9056976E1,1.1684284E1,0E0,4.4876447E0,2.7175636E0,0E0,0E0,0E0,0E0,0E0,0E0,0E0,0E0,0E0,0E0,0E0,0E0,0E0,0E0,0E0,0E0,0E0,0E0,0E0,0E0],"parents":[2147483647,0,0,1,1,2,2,3,3,4,4,5,5,6,6,7,7,9,9,10,10,11,11,12,12,13,13,14,14,15,15,16,16,17,17,18,18,22,22,23,23,24,24,25,25,27,27,28,28],"right_children":[2,4,6,8,10,12,14,16,-1,18,20,22,24,26,28,30,32,34,36,-1,-1,-1,38,40,42,44,-1,46,48,-1,-1,-1,-1,-1,-1,-1,-1,-1,-1,-1,-1,-1,-1,-1,-1,-1,-1,-1,-1],"split_conditions":[-1.9310117E-2,4.2875E3,3.0285226E-2,1.7571177E-1,8.657534E-1,4.376E3,6.53E2,5.2054796E-2,-0E0,1.8159688E0,-3.540802E-3,4.23E3,4.45E0,6.9002856E3,4.45E3,-1.9305581E-2,1.397E3,-3.061519E-2,9.984E3,-4.2591814E-2,-0E0,-4.0277578E-2,-2.5986314E-2,1.36675E3,2.2918532E0,1.02E2,-3.749381E-2,8.35343E1,1.4070977E-1,-3.5463518E-3,3.6354613E-2,5.363549E-2,5.9230444E-3,-1.0560495E-3,4.026525E-2,2.1681137E-2,-3.605176E-2,-2.0916726E-2,1.4155496E-2,-2.9275082E-2,2.3540089E-2,-4.3645177E-2,1.7179955E-3,-8.043608E-3,3.5630234E-2,-0E0,3.569355E-2,-4.8855457E-2,-3.1649668E-3],"split_indices":[15,2,39,34,30,2,33,30,0,14,26,0,25,0,7,39,33,39,1,0,0,0,39,9,14,33,0,8,34,0,0,0,0,0,0,0,0,0,0,0,0,0,0,0,0,0,0,0,0],"split_type":[0,0,0,0,0,0,0,0,0,0,0,0,0,0,0,0,0,0,0,0,0,0,0,0,0,0,0,0,0,0,0,0,0,0,0,0,0,0,0,0,0,0,0,0,0,0,0,0,0],"sum_hessian":[3.887901E2,1.2543927E2,2.6335083E2,7.384078E1,5.1598488E1,1.9767256E2,6.567826E1,6.90337E1,4.8070784E0,4.312391E1,8.474579E0,6.657465E1,1.3109792E2,4.128971E1,2.4388548E1,9.667995E0,5.9365707E1,3.624324E1,6.880667E0,5.244715E0,3.2298636E0,8.322543E0,5.8252113E1,1.6331026E1,1.14766884E2,3.7046673E1,4.2430387E0,1.0006258E1,1.4382291E1,4.228123E0,5.4398727E0,5.5805843E1,3.559862E0,3.9783473E0,3.2264893E1,3.3834848E0,3.4971824E0,1.4283369E1,4.3968742E1,7.150819E0,9.180207E0,1.07230125E2,7.536761E0,4.732257E0,3.2314415E1,3.7322555E0,6.2740026E0,1.1231956E1,3.1503353E0],"tree_param":{"num_deleted":"0","num_feature":"41","num_nodes":"49","size_leaf_vector":"1"}},{"base_weights":[5.1852837E-2,1.1402963E0,-4.3566808E-1,1.2222456E0,-7.857053E-3,-7.3118794E-1,2.9002213E-1,3.6845773E-1,1.3594544E0,-9.501569E-1,2.605627E-1,-4.951993E-1,6.9435525E-1,8.928065E-1,-2.1481236E-2,1.4527048E0,4.9664247E-1,-1.4237286E-1,-1.2835305E0,-4.1225966E-2,6.306036E-1,-1.1382793E0,7.42582E-1,8.7667024E-1,-1.5326549E-2,3.8038846E-2,-0E0,4.498965E-2,2.6217585E-3,4.165819E-2,-1.4036479E-2,-2.8085463E-2,7.1596936E-3,-4.0370315E-2,1.107702E-2,-1.8328834E-2,3.0877242E-2,-0E0,-4.1775487E-2,3.498596E-2,-0E0,2.4603175E-3,3.2752804E-2],"categories":[],"categories_nodes":[],"categories_segments":[],"categories_sizes":[],"default_left":[0,0,0,0,0,0,0,0,0,0,0,0,0,0,0,0,0,0,0,0,0,0,0,0,0,0,0,0,0,0,0,0,0,0,0,0,0,0,0,0,0,0,0],"id":3,"left_children":[1,3,5,7,-1,9,11,13,15,17,19,21,23,25,-1,27,29,31,33,-1,35,37,39,41,-1,-1,-1,-1,-1,-1,-1,-1,-1,-1,-1,-1,-1,-1,-1,-1,-1,-1,-1],"loss_changes":[2.1682014E2,1.5988449E1,6.0971107E1,1.1643051E1,0E0,4.4693825E1,2.6540695E1,1.2371114E1,5.1987762E0,4.2930756E1,2.2750956E1,2.3699654E1,1.3158003E1,5.853505E0,0E0,4.017029E0,1.3339709E1,1.6452297E1,1.3662521E1,0E0,1.6924566E1,6.1830597E0,3.2302623E0,7.0987816E0,0E0,0E0,0E0,0E0,0E0,0E0,0E0,0E0,0E0,0E0,0E0,0E0,0E0,0E0,0E0,0E0,0E0,0E0,0E0],"parents":[2147483647,0,0,1,1,2,2,3,3,5,5,6,6,7,7,8,8,9,9,10,10,11,11,12,12,13,13,15,15,16,16,17,17,18,18,20,20,21,21,22,22,23,23],"right_children":[2,4,6,8,-1,10,12,14,16,18,20,22,24,26,-1,28,30,32,34,-1,36,38,40,42,-1,-1,-1,-1,-1,-1,-1,-1,-1,-1,-1,-1,-1,-1,-1,-1,-1,-1,-1],"split_conditions":[-2.202189E-2,2.1566667E2,2.6084049E-2,-3.061519E-2,-7.857053E-3,6.787699E-2,6.122449E-2,-3.4437094E-2,8.630137E-1,4.453E3,-6.599669E-2,7.561644E-1,1.2E1,-3.799283E-2,-2.1481236E-2,1.397E3,4.5193335E3,-2.3685839E-2,3.93056E4,-4.1225966E-2,7.30442E1,4.415E3,1.6545719E-2,1.79772E3,-1.5326549E-2,3.8038846E-2,-0E0,4.498965E-2,2.6217585E-3,4.165819E-2,-1.4036479E-2,-2.8085463E-2,7.1596936E-3,-4.0370315E-2,1.107702E-2,-1.8328834E-2,3.0877242E-2,-0E0,-4.1775487E-2,3.498596E-2,-0E0,2.4603175E-3,3.2752804E-2],"split_indices":[15,25,39,39,0,23,11,15,30,0,26,30,20,36,0,33,0,39,1,0,8,3,37,1,0,0,0,0,0,0,0,0,0,0,0,0,0,0,0,0,0,0,0],"split_type":[0,0,0,0,0,0,0,0,0,0,0,0,0,0,0,0,0,0,0,0,0,0,0,0,0,0,0,0,0,0,0,0,0,0,0,0,0,0,0,0,0,0,0],"sum_hessian":[4.0436978E2,1.2510407E2,2.7926572E2,1.1905194E2,6.05213E0,1.994224E2,7.984332E1,1.8257858E1,1.0079408E2,1.6423262E2,3.5189762E1,2.618375E1,5.3659576E1,1.3107622E1,5.1502366E0,8.8991585E1,1.1802503E1,4.9479958E1,1.1475267E2,5.2451124E0,2.994465E1,1.7842361E1,8.341388E0,4.768497E1,5.9746017E0,9.383249E0,3.7243726E0,8.518231E1,3.8092692E0,6.3279066E0,5.474596E0,1.6189957E1,3.329E1,1.1144586E2,3.3068042E0,6.4739475E0,2.3470703E1,3.2294502E0,1.4612911E1,4.865409E0,3.4759793E0,1.1589216E1,3.6095757E1],"tree_param":{"num_deleted":"0","num_feature":"41","num_nodes":"43","size_leaf_vector":"1"}},{"base_weights":[-3.3182237E-2,1.019304E0,-5.4151803E-1,1.1313779E0,-0E0,-7.6462775E-1,1.6712378E-1,8.01601E-1,1.5608671E0,-2.3189085E-2,5.633182E-1,-5.1851857E-2,-1.0412351E0,-6.564865E-1,6.298335E-1,1.1084113E0,-4.0778052E-2,1.1526776E-2,5.0608348E-2,-0E0,2.6035069E-2,-7.8191024E-1,2.7359653E-1,2.5678657E-2,-1.2006414E0,1.3312269E-2,-9.1147196E-1,8.772949E-1,-1.2069702E-1,6.4507816E-3,3.894771E-2,1.8786505E-2,-2.301004E-2,-4.014317E-2,1.9696502E-2,-2.6725387E-2,1.6677298E-2,-1.9577606E-2,4.3007545E-2,-0E0,-3.963953E-2,-3.6551178E-2,2.3753936E-3,3.0879166E-2,-4.8673153E-3,2.1861097E-2,-3.6915846E-2],"categories":[],"categories_nodes":[],"categories_segments":[],"categories_sizes":[],"default_left":[0,0,0,0,0,0,0,0,0,0,0,0,0,0,0,0,0,0,0,0,0,0,0,0,0,0,0,0,0,0,0,0,0,0,0,0,0,0,0,0,0,0,0,0,0,0,0],"id":4,"left_children":[1,3,5,7,9,11,13,15,17,-1,19,21,23,25,27,29,31,-1,-1,-1,-1,33,35,37,39,-1,41,43,45,-1,-1,-1,-1,-1,-1,-1,-1,-1,-1,-1,-1,-1,-1,-1,-1,-1,-1],"loss_changes":[2.0872517E2,1.5498535E1,4.256817E1,1.2044647E1,6.6141367E0,3.8714386E1,2.4767227E1,1.9081001E1,3.9341507E0,0E0,9.9506164E-1,1.4883497E1,2.5824615E1,7.4636965E0,8.745285E0,6.8570595E0,1.0120013E1,0E0,0E0,0E0,0E0,1.766045E1,1.3911537E1,2.076509E1,1.7599869E1,0E0,7.279003E0,6.31452E0,1.199964E1,0E0,0E0,0E0,0E0,0E0,0E0,0E0,0E0,0E0,0E0,0E0,0E0,0E0,0E0,0E0,0E0,0E0,0E0],"parents":[2147483647,0,0,1,1,2,2,3,3,4,4,5,5,6,6,7,7,8,8,10,10,11,11,12,12,13,13,14,14,15,15,16,16,21,21,22,22,23,23,24,24,26,26,27,27,28,28],"right_children":[2,4,6,8,10,12,14,16,18,-1,20,22,24,26,28,30,32,-1,-1,-1,-1,34,36,38,40,-1,42,44,46,-1,-1,-1,-1,-1,-1,-1,-1,-1,-1,-1,-1,-1,-1,-1,-1,-1,-1],"split_conditions":[-1.9310117E-2,1.3775E2,3.2068096E-2,1.33408625E-2,4.76E2,4.4578184E3,5.8311246E-2,-3.067584E-2,1.16959065E-1,-2.3189085E-2,1.7436923E-1,-2.254025E-2,3.4496772E3,4.2765E3,6.53E2,-3.4698155E-2,4.5625E3,1.1526776E-2,5.0608348E-2,-0E0,2.6035069E-2,4.46E3,4.23E3,2.8793653E-2,4.45E0,1.3312269E-2,8.191781E-1,9.028E2,4.625E3,6.4507816E-3,3.894771E-2,1.8786505E-2,-2.301004E-2,-4.014317E-2,1.9696502E-2,-2.6725387E-2,1.6677298E-2,-1.9577606E-2,4.3007545E-2,-0E0,-3.963953E-2,-3.6551178E-2,2.3753936E-3,3.0879166E-2,-4.8673153E-3,2.1861097E-2,-3.6915846E-2],"split_indices":[15,25,39,39,33,0,11,15,14,0,11,39,28,4,33,26,0,0,0,0,0,6,0,26,25,0,30,25,0,0,0,0,0,0,0,0,0,0,0,0,0,0,0,0,0,0,0],"split_type":[0,0,0,0,0,0,0,0,0,0,0,0,0,0,0,0,0,0,0,0,0,0,0,0,0,0,0,0,0,0,0,0,0,0,0,0,0,0,0,0,0,0,0,0,0,0,0],"sum_hessian":[3.8797403E2,1.2522544E2,2.627486E2,1.134703E2,1.1755147E1,2.0081606E2,6.1932545E1,6.79352E1,4.553509E1,5.3959284E0,6.359219E0,5.7651974E1,1.4316408E2,2.1274742E1,4.0657803E1,5.0320816E1,1.7614388E1,5.762121E0,3.9772972E1,3.2265966E0,3.1326222E0,1.8074776E1,3.9577194E1,1.7957659E1,1.2520642E2,3.0560584E0,1.8218683E1,3.1387806E1,9.2699995E0,1.0302975E1,4.001784E1,8.571513E0,9.042874E0,1.3611562E1,4.463214E0,6.400784E0,3.317641E1,1.2182928E1,5.7747316E0,1.2006577E1,1.13199844E2,1.4416982E1,3.8017015E0,2.8235666E1,3.1521392E0,5.032497E0,4.237502E0],"tree_param":{"num_deleted":"0","num_feature":"41","num_nodes":"47","size_leaf_vector":"1"}},{"base_weights":[2.0477382E-2,9.589634E-1,-4.2156106E-1,1.3037386E0,2.2462418E-2,1.8225403E-1,-8.00554E-1,1.3667682E0,3.3727542E-3,-4.868689E-1,8.381239E-1,-4.277516E-2,3.834538E-1,-2.919232E-1,-1.3951547E0,1.4482552E0,1.4845382E-1,-4.0414907E-2,-4.1143924E-2,1.1686255E0,-0E0,-2.1766752E-1,7.0491344E-1,-7.54209E-1,5.4215074E-1,-1.6057587E0,-6.6074336E-1,2.202189E-2,4.6269797E-2,-6.406699E-3,1.9624982E-2,1.8110404E-2,-1.7064702E-2,4.3397318E-3,4.365286E-2,-2.6299022E-2,5.811786E-3,2.4149146E-2,-1.918711E-2,-3.3615794E-2,2.97825E-4,3.263768E-2,-1.7801173E-2,-1.3862807E-2,-5.019593E-2,8.960537E-3,-3.355086E-2],"categories":[],"categories_nodes":[],"categories_segments":[],"categories_sizes":[],"default_left":[0,0,0,0,0,0,0,0,0,0,0,0,0,0,0,0,0,0,0,0,0,0,0,0,0,0,0,0,0,0,0,0,0,0,0,0,0,0,0,0,0,0,0,0,0,0,0],"id":5,"left_children":[1,3,5,7,9,11,13,15,-1,17,19,-1,21,23,25,27,29,31,-1,33,-1,35,37,39,41,43,45,-1,-1,-1,-1,-1,-1,-1,-1,-1,-1,-1,-1,-1,-1,-1,-1,-1,-1,-1,-1],"loss_changes":[1.684673E2,4.0711006E1,6.365611E1,5.382599E0,1.6491238E1,3.409352E1,4.909957E1,6.894058E0,0E0,7.6686273E0,5.322502E0,0E0,1.9268349E1,3.7223686E1,8.059128E0,1.5526123E0,2.1158695E0,6.510224E0,0E0,1.5925713E0,0E0,1.0022696E1,9.54587E0,1.8519772E1,2.2387749E1,1.160675E0,1.04433E1,0E0,0E0,0E0,0E0,0E0,0E0,0E0,0E0,0E0,0E0,0E0,0E0,0E0,0E0,0E0,0E0,0E0,0E0,0E0,0E0],"parents":[2147483647,0,0,1,1,2,2,3,3,4,4,5,5,6,6,7,7,9,9,10,10,12,12,13,13,14,14,15,15,16,16,17,17,19,19,21,21,22,22,23,23,24,24,25,25,26,26],"right_children":[2,4,6,8,10,12,14,16,-1,18,20,-1,22,24,26,28,30,32,-1,34,-1,36,38,40,42,44,46,-1,-1,-1,-1,-1,-1,-1,-1,-1,-1,-1,-1,-1,-1,-1,-1,-1,-1,-1,-1],"split_conditions":[4.45E0,-4.819277E-2,4.387E3,8.2E3,-6.361689E-3,3E0,6.53E2,1.1757118E0,3.3727542E-3,1.0719931E0,3E0,-4.277516E-2,-1.1876781E-2,3.1552415E-2,3.0158404E-2,4.4129234E-2,1.7E2,-3.148432E-2,-4.1143924E-2,-2.9588297E-2,-0E0,4.126E3,7.05125E2,5.6352656E-2,6.511E3,-5.2821968E-2,-3.86127E-3,2.202189E-2,4.6269797E-2,-6.406699E-3,1.9624982E-2,1.8110404E-2,-1.7064702E-2,4.3397318E-3,4.365286E-2,-2.6299022E-2,5.811786E-3,2.4149146E-2,-1.918711E-2,-3.3615794E-2,2.97825E-4,3.263768E-2,-1.7801173E-2,-1.3862807E-2,-5.019593E-2,8.960537E-3,-3.355086E-2],"split_indices":[25,27,2,5,39,20,33,35,0,35,32,0,39,39,24,23,33,27,0,13,0,2,25,23,3,39,13,0,0,0,0,0,0,0,0,0,0,0,0,0,0,0,0,0,0,0,0],"split_type":[0,0,0,0,0,0,0,0,0,0,0,0,0,0,0,0,0,0,0,0,0,0,0,0,0,0,0,0,0,0,0,0,0,0,0,0,0,0,0,0,0,0,0,0,0,0,0],"sum_hessian":[4.0183798E2,1.2882962E2,2.7300836E2,9.2952805E1,3.587682E1,1.0456094E2,1.684474E2,8.727496E1,5.677842E0,2.1703157E1,1.4173659E1,1.0059555E1,9.450139E1,9.289867E1,7.554874E1,8.076883E1,6.5061326E0,1.62173E1,5.485857E0,1.0459191E1,3.7144687E0,3.2012447E1,6.2488945E1,6.0634525E1,3.2264145E1,5.6270866E1,1.9277868E1,1.2174542E1,6.8594284E1,3.144397E0,3.3617358E0,6.3594284E0,9.857873E0,3.5430415E0,6.9161496E0,1.2586284E1,1.9426163E1,5.9413048E1,3.075895E0,4.139794E1,1.9236582E1,2.2427998E1,9.836147E0,4.6149216E0,5.1655945E1,5.6881065E0,1.3589762E1],"tree_param":{"num_deleted":"0","num_feature":"41","num_nodes":"47","size_leaf_vector":"1"}},{"base_weights":[-0E0,-5.173346E-1,6.575302E-1,6.8371886E-1,-7.873455E-1,1.0616449E0,-1.2270554E-2,1.3247423E-1,3.93738E-2,9.430688E-2,-9.6611774E-1,-0E0,1.2818211E0,-1.1142124E0,3.2465386E-1,-3.4602866E-1,8.738563E-1,3.7440587E-2,-4.0440452E-1,4.442518E-1,-1.0640173E0,-3.2937985E-2,5.476076E-1,-0E0,1.3295928E0,-4.727498E-2,1.2066156E-3,5.9247386E-1,-6.9552386E-1,4.481693E-3,-3.8670313E-2,-0E0,3.932268E-2,2.6913956E-2,-4.242078E-2,-5.6774723E-3,3.649282E-2,-1.0481296E-2,-3.6221866E-2,-7.578536E-3,3.13955E-2,1.4672851E-2,4.2126875E-2,-2.5259288E-2,2.4183728E-2,-3.7682686E-2,-0E0],"categories":[],"categories_nodes":[],"categories_segments":[],"categories_sizes":[],"default_left":[0,0,0,0,0,0,0,0,0,0,0,0,0,0,0,0,0,0,0,0,0,0,0,0,0,0,0,0,0,0,0,0,0,0,0,0,0,0,0,0,0,0,0,0,0,0,0],"id":6,"left_children":[1,3,5,7,9,11,13,15,-1,17,19,21,23,25,27,29,31,-1,33,35,37,-1,39,-1,41,-1,-1,43,45,-1,-1,-1,-1,-1,-1,-1,-1,-1,-1,-1,-1,-1,-1,-1,-1,-1,-1],"loss_changes":[1.3412708E2,7.227417E1,4.8169518E1,1.2335876E1,2.954319E1,2.5781975E1,2.584793E1,9.532032E0,0E0,1.9405146E1,2.2260376E1,1.3122086E1,5.6748657E0,1.042128E1,1.4459475E1,8.390863E0,4.2438545E0,0E0,3.1503716E1,6.3792133E0,1.2448593E1,0E0,6.931591E0,0E0,2.57135E0,0E0,0E0,1.385729E1,4.340181E0,0E0,0E0,0E0,0E0,0E0,0E0,0E0,0E0,0E0,0E0,0E0,0E0,0E0,0E0,0E0,0E0,0E0,0E0],"parents":[2147483647,0,0,1,1,2,2,3,3,4,4,5,5,6,6,7,7,9,9,10,10,11,11,12,12,13,13,14,14,15,15,16,16,18,18,19,19,20,20,22,22,24,24,27,27,28,28],"right_children":[2,4,6,8,10,12,14,16,-1,18,20,22,24,26,28,30,32,-1,34,36,38,-1,40,-1,42,-1,-1,44,46,-1,-1,-1,-1,-1,-1,-1,-1,-1,-1,-1,-1,-1,-1,-1,-1,-1,-1],"split_conditions":[4.6519477E-2,3.457383E-2,1.16666664E2,1.163E3,1.7260274E-1,-4.13235E-2,-1.7143348E-2,4.493063E3,3.93738E-2,9.1836736E-2,3.0532695E3,-2.3685839E-2,3.8356163E-2,1.6334753E0,7.05125E2,2.98E1,1.00957565E-2,3.7440587E-2,6.53E2,-1.4505893E-3,4.18E2,-3.2937985E-2,1.0855884E-1,-0E0,5.250436E-2,-4.727498E-2,1.2066156E-3,5.3E1,7.436369E-1,4.481693E-3,-3.8670313E-2,-0E0,3.932268E-2,2.6913956E-2,-4.242078E-2,-5.6774723E-3,3.649282E-2,-1.0481296E-2,-3.6221866E-2,-7.578536E-3,3.13955E-2,1.4672851E-2,4.2126875E-2,-2.5259288E-2,2.4183728E-2,-3.7682686E-2,-0E0],"split_indices":[23,34,25,33,30,26,39,28,0,34,28,39,30,14,25,25,39,0,33,10,33,0,11,0,23,0,0,33,14,0,0,0,0,0,0,0,0,0,0,0,0,0,0,0,0,0,0],"split_type":[0,0,0,0,0,0,0,0,0,0,0,0,0,0,0,0,0,0,0,0,0,0,0,0,0,0,0,0,0,0,0,0,0,0,0,0,0,0,0,0,0,0,0,0,0,0,0],"sum_hessian":[3.9106497E2,2.1855421E2,1.7251077E2,3.9013573E1,1.7954065E2,1.0797877E2,6.4532E1,2.2603037E1,1.6410534E1,2.9444403E1,1.5009624E2,1.8688486E1,8.929028E1,1.4995469E1,4.953653E1,1.3403327E1,9.19971E0,8.811477E0,2.0632925E1,8.735061E0,1.4136118E2,5.808304E0,1.2880181E1,3.1968045E0,8.6093475E1,1.0939715E1,4.0557537E0,4.0510643E1,9.025885E0,8.9192705E0,4.484056E0,3.4739654E0,5.725745E0,8.6537485E0,1.1979177E1,4.7090425E0,4.0260186E0,2.5648922E1,1.1571226E2,4.4610286E0,8.419153E0,9.038341E0,7.705514E1,4.072947E0,3.64377E1,4.478164E0,4.5477204E0],"tree_param":{"num_deleted":"0","num_feature":"41","num_nodes":"47","size_leaf_vector":"1"}},{"base_weights":[1.4994456E-2,-4.9486372E-1,6.598485E-1,6.3145334E-1,-7.857233E-1,1.1562761E0,1.5899879E-1,1.5338291E-1,1.1342589E0,-9.5570415E-1,2.1565345E-1,-9.94268E-3,1.2646252E0,-8.889684E-1,5.2201355E-1,6.7868835E-1,-9.518349E-1,4.3329697E-2,-5.9240633E-3,-4.7644764E-1,-1.2964876E0,8.955124E-1,-4.430813E-1,1.4154164E0,4.44111E-1,-1.1554117E0,6.333976E-3,7.586523E-1,-7.300288E-1,2.7414922E-2,-4.1072536E-3,-4.3321797E-3,-3.6084965E-2,-6.681572E-3,-4.1500825E-2,-1.38569195E-2,-4.7359187E-2,-0E0,3.3740096E-2,2.1076128E-2,-3.5556287E-2,4.291128E-4,4.4472486E-2,3.750586E-2,-1.7767433E-2,-4.458837E-2,-8.993606E-5,3.3387538E-2,-1.2377437E-3,-3.9954245E-2,3.229735E-3],"categories":[],"categories_nodes":[],"categories_segments":[],"categories_sizes":[],"default_left":[0,0,0,0,0,0,0,0,0,0,0,0,0,0,0,0,0,0,0,0,0,0,0,0,0,0,0,0,0,0,0,0,0,0,0,0,0,0,0,0,0,0,0,0,0,0,0,0,0,0,0],"id":7,"left_children":[1,3,5,7,9,11,13,15,17,19,21,-1,23,25,27,29,31,-1,-1,33,35,37,39,41,43,45,-1,47,49,-1,-1,-1,-1,-1,-1,-1,-1,-1,-1,-1,-1,-1,-1,-1,-1,-1,-1,-1,-1,-1,-1],"loss_changes":[1.3022893E2,7.299626E1,4.205008E1,9.339163E0,3.1055328E1,1.5570763E1,3.4610947E1,1.5774884E1,1.0272591E1,2.2098175E1,1.2669884E1,0E0,7.3365326E0,8.060789E0,2.1179388E1,4.62644E0,9.024906E-2,0E0,0E0,1.3277295E1,1.726889E1,2.4277916E0,1.3155685E1,4.8088684E0,1.5082466E1,5.9407196E0,0E0,1.7885155E1,6.98163E0,0E0,0E0,0E0,0E0,0E0,0E0,0E0,0E0,0E0,0E0,0E0,0E0,0E0,0E0,0E0,0E0,0E0,0E0,0E0,0E0,0E0,0E0],"parents":[2147483647,0,0,1,1,2,2,3,3,4,4,5,5,6,6,7,7,8,8,9,9,10,10,12,12,13,13,14,14,15,15,16,16,19,19,20,20,21,21,22,22,23,23,24,24,25,25,27,27,28,28],"right_children":[2,4,6,8,10,12,14,16,18,20,22,-1,24,26,28,30,32,-1,-1,34,36,38,40,42,44,46,-1,48,50,-1,-1,-1,-1,-1,-1,-1,-1,-1,-1,-1,-1,-1,-1,-1,-1,-1,-1,-1,-1,-1,-1],"split_conditions":[4.6519477E-2,3.582822E-2,4.223533E3,1.163E3,2.437442E4,5.3E1,-2.4443189E-2,8.2852E1,1.2E1,8.738647E-2,6.53E2,-9.94268E-3,4.9594216E-2,8.875E3,3.1890953E-1,8.547945E-1,-9.437259E-3,4.3329697E-2,-5.9240633E-3,1.9788919E-2,7.57587E1,5.645852E-2,4.2183335E3,-1.00035086E-1,4.4693335E3,7.4862E3,6.333976E-3,5.66E2,7.125E3,2.7414922E-2,-4.1072536E-3,-4.3321797E-3,-3.6084965E-2,-6.681572E-3,-4.1500825E-2,-1.38569195E-2,-4.7359187E-2,-0E0,3.3740096E-2,2.1076128E-2,-3.5556287E-2,4.291128E-4,4.4472486E-2,3.750586E-2,-1.7767433E-2,-4.458837E-2,-8.993606E-5,3.3387538E-2,-1.2377437E-3,-3.9954245E-2,3.229735E-3],"split_indices":[23,34,2,33,1,33,39,8,20,34,33,0,24,7,34,30,10,0,0,37,8,37,7,24,0,1,0,33,4,0,0,0,0,0,0,0,0,0,0,0,0,0,0,0,0,0,0,0,0,0,0],"split_type":[0,0,0,0,0,0,0,0,0,0,0,0,0,0,0,0,0,0,0,0,0,0,0,0,0,0,0,0,0,0,0,0,0,0,0,0,0,0,0,0,0,0,0,0,0,0,0,0,0,0,0],"sum_hessian":[3.9260098E2,2.1857854E2,1.7402243E2,4.3794666E1,1.7478387E2,8.540849E1,8.8613945E1,2.4472494E1,1.9322172E1,1.5033243E2,2.4451456E1,4.9618363E0,8.0446655E1,2.1530563E1,6.708338E1,1.759388E1,6.878614E0,1.6179256E1,3.1429152E0,6.518785E1,8.514457E1,1.251452E1,1.1936936E1,6.6009384E1,1.4437272E1,1.8003681E1,3.5268836E0,5.758877E1,9.494609E0,1.4468063E1,3.1258159E0,3.136372E0,3.742242E0,5.3258614E1,1.1929238E1,2.340718E1,6.173739E1,3.2098548E0,9.304666E0,4.1944838E0,7.742453E0,3.7766683E0,6.2232716E1,8.48951E0,5.9477625E0,1.297589E1,5.02779E0,4.037196E1,1.7216812E1,5.7051187E0,3.7894905E0],"tree_param":{"num_deleted":"0","num_feature":"41","num_nodes":"51","size_leaf_vector":"1"}},{"base_weights":[-7.747368E-2,9.1845393E-1,-4.9549177E-1,1.0088745E0,-1.4392782E-2,-7.1038985E-1,1.8463023E-1,7.2124743E-1,1.46417E0,-0E0,-9.905214E-1,5.916635E-1,-4.4050542E-1,1.0974269E0,1.8540339E-1,1.014839E-2,4.6326645E-2,8.805495E-1,-5.125506E-1,-3.914976E-1,-1.2477633E0,1.1691982E0,-2.7268597E-1,6.7875946E-1,-1.1815282E0,3.730721E-2,-0E0,2.003418E-2,-1.7842608E-2,-0E0,3.5427887E-2,-2.755591E-2,2.1419974E-2,4.461641E-3,-3.558174E-2,-0E0,-4.121759E-2,5.7015135E-3,4.7182653E-2,1.4363579E-2,-2.3502931E-2,3.1188501E-2,-0E0,-4.0902954E-2,-1.5769048E-3],"categories":[],"categories_nodes":[],"categories_segments":[],"categories_sizes":[],"default_left":[0,0,0,0,0,0,0,0,0,0,0,0,0,0,0,0,0,0,0,0,0,0,0,0,0,0,0,0,0,0,0,0,0,0,0,0,0,0,0,0,0,0,0,0,0],"id":8,"left_children":[1,3,5,7,-1,9,11,13,15,17,19,21,23,25,27,-1,-1,29,31,33,35,37,39,41,43,-1,-1,-1,-1,-1,-1,-1,-1,-1,-1,-1,-1,-1,-1,-1,-1,-1,-1,-1,-1],"loss_changes":[1.596276E2,1.554026E1,4.037699E1,1.0279793E1,0E0,4.0911407E1,1.7136646E1,1.2532169E1,8.2489777E-1,2.7887333E1,2.0507507E1,2.1895458E1,2.2946003E1,5.749031E0,1.2634727E1,0E0,0E0,6.9410477E0,2.0885021E1,2.1888025E1,1.4722427E1,7.912243E0,7.387541E0,2.832666E0,1.8635368E0,0E0,0E0,0E0,0E0,0E0,0E0,0E0,0E0,0E0,0E0,0E0,0E0,0E0,0E0,0E0,0E0,0E0,0E0,0E0,0E0],"parents":[2147483647,0,0,1,1,2,2,3,3,5,5,6,6,7,7,8,8,9,9,10,10,11,11,12,12,13,13,14,14,17,17,18,18,19,19,20,20,21,21,22,22,23,23,24,24],"right_children":[2,4,6,8,-1,10,12,14,16,18,20,22,24,26,28,-1,-1,30,32,34,36,38,40,42,44,-1,-1,-1,-1,-1,-1,-1,-1,-1,-1,-1,-1,-1,-1,-1,-1,-1,-1,-1,-1],"split_conditions":[-2.202189E-2,2.1566667E2,3.2068096E-2,1.33408625E-2,-1.4392782E-2,4.4578184E3,6.53E2,1E0,1.0276043E-1,-3.348214E-2,4.18E2,6.325E3,4.378E3,6E3,-3.810844E-2,1.014839E-2,4.6326645E-2,-1.0269555E-2,5.1371165E-2,1.3087704E0,4.45E0,4.0651663E3,4.9005E3,4.2765E3,1.1399739E0,3.730721E-2,-0E0,2.003418E-2,-1.7842608E-2,-0E0,3.5427887E-2,-2.755591E-2,2.1419974E-2,4.461641E-3,-3.558174E-2,-0E0,-4.121759E-2,5.7015135E-3,4.7182653E-2,1.4363579E-2,-2.3502931E-2,3.1188501E-2,-0E0,-4.0902954E-2,-1.5769048E-3],"split_indices":[15,25,39,39,0,0,33,14,14,27,33,6,0,0,15,0,0,24,12,35,25,28,0,4,35,0,0,0,0,0,0,0,0,0,0,0,0,0,0,0,0,0,0,0,0],"split_type":[0,0,0,0,0,0,0,0,0,0,0,0,0,0,0,0,0,0,0,0,0,0,0,0,0,0,0,0,0,0,0,0,0,0,0,0,0,0,0,0,0,0,0,0,0],"sum_hessian":[3.813054E2,1.1149077E2,2.698146E2,1.05782814E2,5.70796E0,2.0609756E2,6.3717052E1,6.8549866E1,3.723295E1,5.9119884E1,1.4697768E2,3.960787E1,2.4109182E1,3.8255222E1,3.029464E1,3.8211224E0,3.3411827E1,2.1064566E1,3.8055317E1,4.6459793E1,1.0051788E2,2.4119667E1,1.5488201E1,9.116251E0,1.4992932E1,3.31776E1,5.077621E0,1.9645094E1,1.0649546E1,5.0419984E0,1.6022568E1,2.9487228E1,8.56809E0,2.7632935E1,1.8826859E1,1.0075572E1,9.044231E1,8.406763E0,1.5712905E1,5.512888E0,9.975313E0,5.646285E0,3.4699657E0,1.1881278E1,3.1116548E0],"tree_param":{"num_deleted":"0","num_feature":"41","num_nodes":"45","size_leaf_vector":"1"}},{"base_weights":[1.4258955E-2,8.703596E-1,-3.677103E-1,9.931814E-1,-3.1202165E-2,-6.157626E-1,3.8538274E-1,1.2167145E0,3.2687488E-1,-1.7322196E-2,-9.778313E-1,-3.6072618E-1,7.4490416E-1,1.0220814E-3,1.2713794E0,-2.056897E-1,1.0047003E0,-1.0431027E0,1.4259423E-1,-1.2198544E0,-2.4978127E-1,4.5278218E-1,-8.973345E-1,9.838113E-1,-1.5517024E-2,3.9891466E-2,2.0443604E-3,-2.2766192E-2,1.41948685E-2,3.839532E-2,3.5012355E-3,-4.4074696E-2,-0E0,-1.0301952E-2,2.8985886E-2,-1.5675895E-2,-4.1805916E-2,-2.2951553E-2,1.9994678E-2,-7.0550754E-3,3.3670455E-2,-0E0,-3.7078995E-2,-0E0,3.322765E-2],"categories":[],"categories_nodes":[],"categories_segments":[],"categories_sizes":[],"default_left":[0,0,0,0,0,0,0,0,0,0,0,0,0,0,0,0,0,0,0,0,0,0,0,0,0,0,0,0,0,0,0,0,0,0,0,0,0,0,0,0,0,0,0,0,0],"id":9,"left_children":[1,3,5,7,-1,9,11,13,15,17,19,21,23,-1,25,27,29,31,33,35,37,39,41,43,-1,-1,-1,-1,-1,-1,-1,-1,-1,-1,-1,-1,-1,-1,-1,-1,-1,-1,-1,-1,-1],"loss_changes":[1.2754104E2,2.9814041E1,5.062542E1,1.4932777E1,0E0,4.2980698E1,1.8569672E1,4.0703278E0,1.2649762E1,1.4102024E1,2.0179253E1,1.0510527E1,1.5139566E1,0E0,4.052826E0,7.7049108E0,2.0803823E0,5.579957E0,2.8708008E1,8.22316E0,1.7018175E1,5.3671126E0,5.4619894E0,5.8062477E0,0E0,0E0,0E0,0E0,0E0,0E0,0E0,0E0,0E0,0E0,0E0,0E0,0E0,0E0,0E0,0E0,0E0,0E0,0E0,0E0,0E0],"parents":[2147483647,0,0,1,1,2,2,3,3,5,5,6,6,7,7,8,8,9,9,10,10,11,11,12,12,14,14,15,15,16,16,17,17,18,18,19,19,20,20,21,21,22,22,23,23],"right_children":[2,4,6,8,-1,10,12,14,16,18,20,22,24,-1,26,28,30,32,34,36,38,40,42,44,-1,-1,-1,-1,-1,-1,-1,-1,-1,-1,-1,-1,-1,-1,-1,-1,-1,-1,-1,-1,-1],"split_conditions":[7E0,7.501E3,3.2068096E-2,-4.819277E-2,-3.1202165E-2,4.387E3,6.122449E-2,9.49E1,-6.690188E-3,2.71E2,5.617366E-2,6.195652E-2,6.164383E-1,1.0220814E-3,2.7624E4,-3.4573928E-3,-2.0289855E-2,4.2465752E-1,3.6019795E-2,5.75639E-2,1.0346273E0,4.849315E-1,3.9178082E-1,-8.395821E-2,-1.5517024E-2,3.9891466E-2,2.0443604E-3,-2.2766192E-2,1.41948685E-2,3.839532E-2,3.5012355E-3,-4.4074696E-2,-0E0,-1.0301952E-2,2.8985886E-2,-1.5675895E-2,-4.1805916E-2,-2.2951553E-2,1.9994678E-2,-7.0550754E-3,3.3670455E-2,-0E0,-3.7078995E-2,-0E0,3.322765E-2],"split_indices":[25,0,39,27,0,2,11,1,39,33,13,34,30,0,1,37,37,30,23,34,14,30,30,24,0,0,0,0,0,0,0,0,0,0,0,0,0,0,0,0,0,0,0,0,0],"split_type":[0,0,0,0,0,0,0,0,0,0,0,0,0,0,0,0,0,0,0,0,0,0,0,0,0,0,0,0,0,0,0,0,0,0,0,0,0,0,0,0,0,0,0,0,0],"sum_hessian":[3.8552365E2,1.1915773E2,2.6636594E2,1.13128334E2,6.029399E0,2.0157346E2,6.479248E1,8.265819E1,3.0470139E1,7.7617714E1,1.23955734E2,2.0162685E1,4.4629795E1,4.56765E0,7.809054E1,1.6822378E1,1.364776E1,1.0194484E1,6.742323E1,9.123876E1,3.2716972E1,7.3661814E0,1.2796503E1,3.847083E1,6.158965E0,7.3536514E1,4.554028E0,9.983377E0,6.839001E0,9.054255E0,4.593506E0,6.980411E0,3.214073E0,4.218879E1,2.5234444E1,2.0539953E1,7.069881E1,2.1797785E1,1.0919187E1,3.376562E0,3.9896193E0,3.1852722E0,9.611231E0,3.701551E0,3.476928E1],"tree_param":{"num_deleted":"0","num_feature":"41","num_nodes":"45","size_leaf_vector":"1"}},{"base_weights":[-1.952957E-2,7.855605E-1,-3.9237082E-1,8.946458E-1,-2.9545244E-2,1.9075257E-1,-7.362948E-1,5.816963E-1,1.3150398E0,-4.4795983E-2,3.889843E-1,-2.1124296E-1,-1.4044405E0,8.371845E-1,-6.23999E-1,1.4022896E0,8.143803E-3,-3.7329968E-2,5.0288546E-1,4.437363E-1,-7.533379E-1,-5.331252E-1,-4.5082744E-2,-0E0,3.0440126E-2,-3.8686436E-2,2.2498943E-2,1.2042695E-2,4.451677E-2,1.837252E-2,-3.5065617E-2,-2.5263654E-2,2.4883699E-2,1.9236783E-2,-3.103284E-2,-3.5436623E-2,9.001108E-3],"categories":[],"categories_nodes":[],"categories_segments":[],"categories_sizes":[],"default_left":[0,0,0,0,0,0,0,0,0,0,0,0,0,0,0,0,0,0,0,0,0,0,0,0,0,0,0,0,0,0,0,0,0,0,0,0,0],"id":10,"left_children":[1,3,5,7,-1,9,11,13,15,-1,17,19,21,23,25,27,-1,-1,29,31,33,35,-1,-1,-1,-1,-1,-1,-1,-1,-1,-1,-1,-1,-1,-1,-1],"loss_changes":[1.16107864E2,2.4794662E1,5.4115623E1,1.2249527E1,0E0,3.275434E1,5.7137077E1,2.2773056E1,2.03965E0,0E0,1.6965302E1,3.5285564E1,3.0288696E0,8.443089E0,1.3453398E1,6.661072E-1,0E0,0E0,1.6246029E1,2.2896933E1,2.2758635E1,7.2300377E0,0E0,0E0,0E0,0E0,0E0,0E0,0E0,0E0,0E0,0E0,0E0,0E0,0E0,0E0,0E0],"parents":[2147483647,0,0,1,1,2,2,3,3,5,5,6,6,7,7,8,8,10,10,11,11,12,12,13,13,14,14,15,15,18,18,19,19,20,20,21,21],"right_children":[2,4,6,8,-1,10,12,14,16,-1,18,20,22,24,26,28,-1,-1,30,32,34,36,-1,-1,-1,-1,-1,-1,-1,-1,-1,-1,-1,-1,-1,-1,-1],"split_conditions":[8.333333E0,2.609E3,4.387E3,1.09076925E-1,-2.9545244E-2,3E0,6.53E2,8.172057E-2,9.5616436E-1,-4.4795983E-2,-8.245184E-2,1.1195E3,-1.6557219E-2,3.2876712E-1,1.2860433E-2,1.152E2,8.143803E-3,-3.7329968E-2,8.46831E1,5.1086318E-2,3E0,4.4133916E3,-4.5082744E-2,-0E0,3.0440126E-2,-3.8686436E-2,2.2498943E-2,1.2042695E-2,4.451677E-2,1.837252E-2,-3.5065617E-2,-2.5263654E-2,2.4883699E-2,1.9236783E-2,-3.103284E-2,-3.5436623E-2,9.001108E-3],"split_indices":[25,31,2,23,0,20,33,34,30,0,26,31,26,30,39,1,0,0,8,11,20,28,0,0,0,0,0,0,0,0,0,0,0,0,0,0,0],"split_type":[0,0,0,0,0,0,0,0,0,0,0,0,0,0,0,0,0,0,0,0,0,0,0,0,0,0,0,0,0,0,0,0,0,0,0,0,0],"sum_hessian":[3.850756E2,1.2051041E2,2.645652E2,1.1474699E2,5.7634225E0,9.731981E1,1.6724538E2,6.919278E1,4.5554207E1,8.686411E0,8.86334E1,9.55947E1,7.165067E1,5.8157085E1,1.1035694E1,4.067932E1,4.874885E0,4.2351894E0,8.439821E1,4.257793E1,5.3016773E1,9.27329E0,6.2377384E1,1.0844424E1,4.731266E1,7.986843E0,3.048851E0,4.659794E0,3.6019527E1,8.0661934E1,3.7362757E0,8.817157E0,3.3760773E1,7.9743705E0,4.50424E1,5.5385814E0,3.734708E0],"tree_param":{"num_deleted":"0","num_feature":"41","num_nodes":"37","size_leaf_vector":"1"}},{"base_weights":[9.978533E-3,9.187549E-1,-4.355022E-1,1.1852756E0,4.677914E-1,-6.4733803E-1,2.4867173E-1,1.2780263E0,-1.0060569E-3,-3.226961E-2,6.9167125E-1,-4.89133E-2,-9.899402E-1,-6.6078883E-1,6.351106E-1,-0E0,1.354935E0,-0E0,9.4028896E-1,-3.60257E-2,9.981523E-2,-1.6870473E-1,-1.1874585E0,3.2902851E-3,-1.0992258E0,-0E0,8.223907E-1,4.2631917E-2,-0E0,1.2932113E-2,-3.1802133E-2,3.484621E-2,-0E0,-1.5675806E-2,1.1824411E-2,-2.8667856E-2,1.3634837E-2,-4.161985E-2,-1.8630328E-2,-4.0046204E-2,-1.1977205E-3,-2.028367E-2,1.9980347E-2,-0E0,2.7350971E-2],"categories":[],"categories_nodes":[],"categories_segments":[],"categories_sizes":[],"default_left":[0,0,0,0,0,0,0,0,0,0,0,0,0,0,0,0,0,0,0,0,0,0,0,0,0,0,0,0,0,0,0,0,0,0,0,0,0,0,0,0,0,0,0,0,0],"id":11,"left_children":[1,3,5,7,9,11,13,15,-1,-1,17,19,21,23,25,-1,27,29,31,-1,33,35,37,-1,39,41,43,-1,-1,-1,-1,-1,-1,-1,-1,-1,-1,-1,-1,-1,-1,-1,-1,-1,-1],"loss_changes":[1.572314E2,1.2911278E1,3.8192772E1,1.0142319E1,1.8512146E1,3.976548E1,2.2121561E1,6.0866623E0,0E0,0E0,8.769705E0,1.4169588E1,1.8724869E1,7.32544E0,5.8712654E0,0E0,5.001068E0,7.0988894E0,7.3271675E0,0E0,1.249776E1,1.443784E1,8.027542E0,0E0,1.6845045E0,5.537116E0,2.1383362E0,0E0,0E0,0E0,0E0,0E0,0E0,0E0,0E0,0E0,0E0,0E0,0E0,0E0,0E0,0E0,0E0,0E0,0E0],"parents":[2147483647,0,0,1,1,2,2,3,3,4,4,5,5,6,6,7,7,10,10,11,11,12,12,13,13,14,14,16,16,17,17,18,18,20,20,21,21,22,22,24,24,25,25,26,26],"right_children":[2,4,6,8,10,12,14,16,-1,-1,18,20,22,24,26,-1,28,30,32,-1,34,36,38,-1,40,42,44,-1,-1,-1,-1,-1,-1,-1,-1,-1,-1,-1,-1,-1,-1,-1,-1,-1,-1],"split_conditions":[-1.8300423E-2,4.3008E3,3.2068096E-2,1.1757118E0,-4.5305233E-2,4.387E3,5.5241324E-2,-8.7702654E-2,-1.0060569E-3,-3.226961E-2,-2.4106955E-2,4.2272856E3,2E0,1.0619565E0,-4.1158568E-2,-0E0,8.44775E1,4.45E0,-5.375E-2,-3.60257E-2,-2.254025E-2,1.393E3,1.2482564E0,3.2902851E-3,1.1969303E0,5.104219E-3,3.286966E-4,4.2631917E-2,-0E0,1.2932113E-2,-3.1802133E-2,3.484621E-2,-0E0,-1.5675806E-2,1.1824411E-2,-2.8667856E-2,1.3634837E-2,-4.161985E-2,-1.8630328E-2,-4.0046204E-2,-1.1977205E-3,-2.028367E-2,1.9980347E-2,-0E0,2.7350971E-2],"split_indices":[15,2,39,35,26,2,11,26,0,0,39,0,32,35,27,0,8,25,27,0,39,9,14,0,35,26,15,0,0,0,0,0,0,0,0,0,0,0,0,0,0,0,0,0,0],"split_type":[0,0,0,0,0,0,0,0,0,0,0,0,0,0,0,0,0,0,0,0,0,0,0,0,0,0,0,0,0,0,0,0,0,0,0,0,0,0,0,0,0,0,0,0,0],"sum_hessian":[3.8420065E2,1.26596405E2,2.5760425E2,7.664126E1,4.9955143E1,1.9787883E2,5.972541E1,7.1916084E1,4.7251806E0,5.0394177E0,4.4915726E1,7.372903E1,1.2414981E2,1.672097E1,4.300444E1,4.782483E0,6.71336E1,1.1381349E1,3.3534378E1,7.9861927E0,6.574283E1,2.5591257E1,9.8558556E1,5.6449847E0,1.1075986E1,9.280587E0,3.3723854E1,6.3371017E1,3.762583E0,8.161885E0,3.2194636E0,2.6889614E1,6.6447635E0,1.9644842E1,4.609799E1,1.1665824E1,1.3925432E1,6.99409E1,2.8617651E1,7.9690022E0,3.1069841E0,5.117475E0,4.1631117E0,3.9903274E0,2.9733524E1],"tree_param":{"num_deleted":"0","num_feature":"41","num_nodes":"45","size_leaf_vector":"1"}},{"base_weights":[-3.8652886E-2,6.8685293E-1,-4.6401584E-1,1.1966592E0,2.0705365E-1,-2.3310594E-3,-8.934652E-1,-0E0,1.3214018E0,3.490163E-1,-3.858393E-2,4.9878818E-1,-5.8941174E-1,-4.5379373E-1,-1.4003979E0,-8.9712795E-3,1.0311762E-2,1.3881121E0,7.85033E-3,7.027182E-1,-8.4354706E-2,2.1527848E-1,1.2670074E0,1.8528277E-1,-1.1537138E0,-2.3413655E-1,-4.341683E-2,-4.4107065E-2,-0E0,4.461205E-3,4.323541E-2,-4.138866E-3,2.7095156E-2,-1.1984274E-2,2.5567548E-2,-2.4610513E-3,3.5271842E-2,2.8761402E-3,4.4086244E-2,-3.1133512E-2,2.318235E-2,-3.9185874E-2,-0E0,1.1495474E-2,-2.0902874E-2],"categories":[],"categories_nodes":[],"categories_segments":[],"categories_sizes":[],"default_left":[0,0,0,0,0,0,0,0,0,0,0,0,0,0,0,0,0,0,0,0,0,0,0,0,0,0,0,0,0,0,0,0,0,0,0,0,0,0,0,0,0,0,0,0,0],"id":12,"left_children":[1,3,5,7,9,11,13,15,17,19,-1,21,23,25,27,-1,-1,29,-1,31,33,35,37,39,41,43,-1,-1,-1,-1,-1,-1,-1,-1,-1,-1,-1,-1,-1,-1,-1,-1,-1,-1,-1],"loss_changes":[1.17385605E2,3.2473732E1,4.689053E1,9.804161E0,1.5625169E1,3.5477127E1,2.47743E1,9.6646106E-1,2.0613632E0,1.1473959E1,0E0,1.2042468E1,2.590399E1,1.2986482E1,4.6067963E0,0E0,0E0,1.7325668E0,0E0,7.7107143E0,9.394442E0,1.5370009E1,2.01552E0,1.8379662E1,7.131691E0,1.7725826E1,0E0,0E0,0E0,0E0,0E0,0E0,0E0,0E0,0E0,0E0,0E0,0E0,0E0,0E0,0E0,0E0,0E0,0E0,0E0],"parents":[2147483647,0,0,1,1,2,2,3,3,4,4,5,5,6,6,7,7,8,8,9,9,11,11,12,12,13,13,14,14,17,17,19,19,20,20,21,21,22,22,23,23,24,24,25,25],"right_children":[2,4,6,8,10,12,14,16,18,20,-1,22,24,26,28,-1,-1,30,-1,32,34,36,38,40,42,44,-1,-1,-1,-1,-1,-1,-1,-1,-1,-1,-1,-1,-1,-1,-1,-1,-1,-1,-1],"split_conditions":[4.2875E3,-2.8074866E-2,5.77E2,-9.3676314E-2,8.46831E1,6.491625E3,8.845225E-2,3.8858042E3,4.251E3,-2.5046125E-2,-3.858393E-2,5.655654E-2,1.9159525E2,4.978E3,1.1626794E-1,-8.9712795E-3,1.0311762E-2,-8.245184E-2,7.85033E-3,-3.0784314E-2,5.0652E3,1.7115769E-1,1.4705E3,-2.5698155E-2,2.0372496E0,8.25332E1,-4.341683E-2,-4.4107065E-2,-0E0,4.461205E-3,4.323541E-2,-4.138866E-3,2.7095156E-2,-1.1984274E-2,2.5567548E-2,-2.4610513E-3,3.5271842E-2,2.8761402E-3,4.4086244E-2,-3.1133512E-2,2.318235E-2,-3.9185874E-2,-0E0,1.1495474E-2,-2.0902874E-2],"split_indices":[2,12,33,24,8,3,34,28,2,27,0,39,25,0,24,0,0,26,0,36,3,11,9,39,14,8,0,0,0,0,0,0,0,0,0,0,0,0,0,0,0,0,0,0,0],"split_type":[0,0,0,0,0,0,0,0,0,0,0,0,0,0,0,0,0,0,0,0,0,0,0,0,0,0,0,0,0,0,0,0,0,0,0,0,0,0,0,0,0,0,0,0,0],"sum_hessian":[3.7805002E2,1.3851817E2,2.3953183E2,6.5061905E1,7.345627E1,1.17282524E2,1.22249306E2,6.3590527E0,5.8702854E1,6.874E1,4.716269E0,6.2476337E1,5.4806187E1,6.804667E1,5.4202637E1,3.3496304E0,3.0094225E0,5.390128E1,4.8015733E0,3.860621E1,3.0133787E1,4.7988384E1,1.4487954E1,2.2775095E1,3.2031094E1,5.8067547E1,9.979122E0,5.116768E1,3.0349588E0,3.221046E0,5.0680233E1,6.56255E0,3.204366E1,2.39902E1,6.1435876E0,3.6897285E1,1.1091097E1,3.1899319E0,1.1298022E1,6.464424E0,1.631067E1,2.8839369E1,3.1917238E0,2.40593E1,3.4008247E1],"tree_param":{"num_deleted":"0","num_feature":"41","num_nodes":"45","size_leaf_vector":"1"}},{"base_weights":[2.6738953E-2,9.4019854E-1,-3.573893E-1,1.196303E0,4.4667876E-1,-5.391366E-1,2.0234013E-1,1.3375852E0,1.3851269E-1,-6.5240866E-1,6.9028956E-1,5.86083E-2,-7.768834E-1,-4.2648822E-1,5.362728E-1,1.354845E-3,1.386606E0,2.9304326E-2,-3.3418167E-2,-3.407669E-2,-0E0,8.5148674E-1,-1.0997828E-2,-3.5734054E-2,3.2035103E-1,-9.591678E-1,2.3952442E-1,-8.263986E-1,1.7422412E-2,1.1908551E0,2.4055049E-1,4.344842E-2,1.4047215E-2,3.0917382E-2,2.4126933E-3,-1.8717458E-2,2.2553828E-2,-3.075325E-2,5.8314353E-3,-3.7697993E-2,2.4870882E-2,-0E0,-3.1337034E-2,4.1868914E-2,5.993081E-3,-1.2519256E-2,2.523392E-2],"categories":[],"categories_nodes":[],"categories_segments":[],"categories_sizes":[],"default_left":[0,0,0,0,0,0,0,0,0,0,0,0,0,0,0,0,0,0,0,0,0,0,0,0,0,0,0,0,0,0,0,0,0,0,0,0,0,0,0,0,0,0,0,0,0,0,0],"id":13,"left_children":[1,3,5,7,9,11,13,15,17,19,21,23,25,27,29,-1,31,-1,-1,-1,-1,33,-1,-1,35,37,39,41,-1,43,45,-1,-1,-1,-1,-1,-1,-1,-1,-1,-1,-1,-1,-1,-1,-1,-1],"loss_changes":[1.3709294E2,1.220797E1,2.8290806E1,9.319176E0,1.2316074E1,3.034262E1,1.4459476E1,2.5516663E0,1.3293618E1,2.7324636E0,7.2473793E0,1.9125353E1,2.8873604E1,1.0202866E1,6.9020205E0,0E0,5.331497E-1,0E0,0E0,0E0,0E0,3.3670769E0,0E0,0E0,2.1584549E1,1.0896919E1,2.1589119E1,3.2798328E0,0E0,5.548134E-1,1.4428898E1,0E0,0E0,0E0,0E0,0E0,0E0,0E0,0E0,0E0,0E0,0E0,0E0,0E0,0E0,0E0,0E0],"parents":[2147483647,0,0,1,1,2,2,3,3,4,4,5,5,6,6,7,7,8,8,9,9,10,10,11,11,12,12,13,13,14,14,16,16,21,21,24,24,25,25,26,26,27,27,29,29,30,30],"right_children":[2,4,6,8,10,12,14,16,18,20,22,24,26,28,30,-1,32,-1,-1,-1,-1,34,-1,-1,36,38,40,42,-1,44,46,-1,-1,-1,-1,-1,-1,-1,-1,-1,-1,-1,-1,-1,-1,-1,-1],"split_conditions":[-2.2506202E-2,-3.810844E-2,2.8639717E-2,8.821918E-1,-2.9605264E-2,4.4578184E3,6.122449E-2,1.152E2,4.81E3,5.9931665E3,1.7043579E-1,4.23E3,1.9346806E-1,7.8356165E-1,5.8012363E-2,1.354845E-3,1.2E1,2.9304326E-2,-3.3418167E-2,-3.407669E-2,-0E0,4.765E3,-1.0997828E-2,-3.5734054E-2,-2.254025E-2,1.0094716E-1,-4.5639534E-2,9.125018E-3,1.7422412E-2,1.1271659E-1,5.1564395E-2,4.344842E-2,1.4047215E-2,3.0917382E-2,2.4126933E-3,-1.8717458E-2,2.2553828E-2,-3.075325E-2,5.8314353E-3,-3.7697993E-2,2.4870882E-2,-0E0,-3.1337034E-2,4.1868914E-2,5.993081E-3,-1.2519256E-2,2.523392E-2],"split_indices":[15,15,39,30,10,0,11,1,0,0,34,0,11,30,34,0,20,0,0,0,0,0,0,0,39,23,37,11,0,11,37,0,0,0,0,0,0,0,0,0,0,0,0,0,0,0,0],"split_type":[0,0,0,0,0,0,0,0,0,0,0,0,0,0,0,0,0,0,0,0,0,0,0,0,0,0,0,0,0,0,0,0,0,0,0,0,0,0,0,0,0,0,0,0,0,0,0],"sum_hessian":[3.8610812E2,1.1442842E2,2.716797E2,7.259439E1,4.183403E1,2.0647717E2,6.520253E1,6.2856873E1,9.737517E0,6.3886466E0,3.5445385E1,5.7879696E1,1.4859747E2,2.1432549E1,4.3769978E1,3.1477752E0,5.9709095E1,6.5092583E0,3.228259E0,3.2201586E0,3.168488E0,3.1828547E1,3.6168373E0,8.439045E0,4.944065E1,1.2690622E2,2.1691254E1,1.6244852E1,5.1876965E0,1.1155435E1,3.2614544E1,5.412013E1,5.5889683E0,2.4367107E1,7.4614387E0,1.4568574E1,3.4872074E1,1.2102212E2,5.8841004E0,5.171801E0,1.6519453E1,3.6323984E0,1.2612454E1,7.901566E0,3.2538688E0,1.498885E1,1.7625692E1],"tree_param":{"num_deleted":"0","num_feature":"41","num_nodes":"47","size_leaf_vector":"1"}},{"base_weights":[4.1022855E-3,8.931556E-1,-3.5971218E-1,1.0373913E0,-0E0,-7.618397E-1,-9.721977E-2,3.980263E-2,4.787608E-1,3.1150434E-2,-3.6342755E-2,-1.4304899E-1,-1.0434729E0,9.70751E-1,-2.1951084E-1,-3.671022E-2,7.7764595E-1,-5.1677865E-1,3.103665E-2,-1.2462052E0,2.96832E-1,-0E0,3.941227E-2,-4.8505828E-1,2.873693E-1,2.8687837E-2,-9.224259E-3,1.2241897E-2,-2.6852774E-2,-0E0,-3.9866384E-2,-7.5910618E-3,2.49938E-2,-2.4815774E-2,5.5659143E-3,-4.0326018E-2,1.7266365E-2],"categories":[],"categories_nodes":[],"categories_segments":[],"categories_sizes":[],"default_left":[0,0,0,0,0,0,0,0,0,0,0,0,0,0,0,0,0,0,0,0,0,0,0,0,0,0,0,0,0,0,0,0,0,0,0,0,0],"id":14,"left_children":[1,3,5,7,9,11,13,-1,15,-1,-1,17,19,21,23,-1,25,27,-1,29,31,-1,-1,33,35,-1,-1,-1,-1,-1,-1,-1,-1,-1,-1,-1,-1],"loss_changes":[1.2324779E2,1.3751282E1,2.7364681E1,1.2603348E1,2.3725662E1,1.6765247E1,2.1201616E1,0E0,1.9276009E1,0E0,0E0,1.5894761E1,2.0613144E1,6.1221952E0,2.0689198E1,0E0,7.292328E0,1.1030985E1,0E0,5.9455566E0,3.7871304E0,0E0,0E0,2.398369E1,2.4582815E1,0E0,0E0,0E0,0E0,0E0,0E0,0E0,0E0,0E0,0E0,0E0,0E0],"parents":[2147483647,0,0,1,1,2,2,3,3,4,4,5,5,6,6,8,8,11,11,12,12,13,13,14,14,16,16,17,17,19,19,20,20,23,23,24,24],"right_children":[2,4,6,8,10,12,14,-1,16,-1,-1,18,20,22,24,-1,26,28,-1,30,32,-1,-1,34,36,-1,-1,-1,-1,-1,-1,-1,-1,-1,-1,-1,-1],"split_conditions":[-2.202189E-2,8.630137E-1,1.5172618E-2,-3.810844E-2,4.54875E3,6.811594E-2,4.373E3,3.980263E-2,-2.658046E-2,3.1150434E-2,-3.6342755E-2,2.13E2,2.3202E4,-2.5986314E-2,6.675897E-2,-3.671022E-2,1.4746337E-1,3.6785713E1,3.103665E-2,-7.4346595E-2,4.3230254E-2,-0E0,3.941227E-2,2.9006729E-2,-7.011393E-2,2.8687837E-2,-9.224259E-3,1.2241897E-2,-2.6852774E-2,-0E0,-3.9866384E-2,-7.5910618E-3,2.49938E-2,-2.4815774E-2,5.5659143E-3,-4.0326018E-2,1.7266365E-2],"split_indices":[15,30,23,15,0,34,3,0,10,0,0,25,1,39,23,0,34,25,0,36,13,0,0,39,13,0,0,0,0,0,0,0,0,0,0,0,0],"split_type":[0,0,0,0,0,0,0,0,0,0,0,0,0,0,0,0,0,0,0,0,0,0,0,0,0,0,0,0,0,0,0,0,0,0,0,0,0],"sum_hessian":[3.7640155E2,1.0946591E2,2.6693564E2,9.353216E1,1.5933754E1,1.0279492E2,1.6414072E2,5.907797E1,3.445419E1,8.928214E0,7.0055394E0,3.3970093E1,6.882484E1,1.49549055E1,1.491858E2,3.9527223E0,3.0501469E1,2.706997E1,6.900123E0,6.052181E1,8.303023E0,3.9232647E0,1.103164E1,9.923527E1,4.9950546E1,2.7134676E1,3.3667922E0,7.0569615E0,2.0013008E1,4.1103063E0,5.6411503E1,3.5701451E0,4.732878E0,6.6465515E1,3.2769756E1,6.152127E0,4.379842E1],"tree_param":{"num_deleted":"0","num_feature":"41","num_nodes":"37","size_leaf_vector":"1"}},{"base_weights":[-1.942568E-2,8.2713556E-1,-3.9735562E-1,1.1104195E0,2.8854007E-1,-5.334123E-1,4.3569952E-1,3.818041E-2,7.249183E-2,-2.8329711E-2,5.0390667E-1,3.716529E-1,-6.820741E-1,-3.37333E-2,7.303628E-1,2.7565952E-2,-3.536044E-2,8.616928E-1,-4.3989462E-1,-6.948829E-1,7.558901E-1,-4.1525446E-2,-8.7117475E-1,-1.6982635E-2,1.0915885E0,-2.8692936E-3,3.1291183E-2,-3.0885598E-2,4.776512E-3,-0E0,-3.4924954E-2,-0E0,3.7111573E-2,-1.5873464E-2,2.9510027E-2,-1.2525972E-2,-3.8469113E-2,-0E0,3.7237473E-2],"categories":[],"categories_nodes":[],"categories_segments":[],"categories_sizes":[],"default_left":[0,0,0,0,0,0,0,0,0,0,0,0,0,0,0,0,0,0,0,0,0,0,0,0,0,0,0,0,0,0,0,0,0,0,0,0,0,0,0],"id":15,"left_children":[1,3,5,7,9,11,13,-1,15,-1,17,19,21,-1,23,-1,-1,25,27,29,31,33,35,-1,37,-1,-1,-1,-1,-1,-1,-1,-1,-1,-1,-1,-1,-1,-1],"loss_changes":[1.20923355E2,1.5859192E1,3.0254955E1,1.105423E1,1.177462E1,3.1338028E1,1.7717005E1,0E0,1.4589663E1,0E0,1.4005666E1,1.4027094E1,2.2909996E1,0E0,1.6593872E1,0E0,0E0,6.170542E0,4.938262E0,3.2020426E0,8.958075E0,2.417515E1,2.5642914E1,0E0,4.3165455E0,0E0,0E0,0E0,0E0,0E0,0E0,0E0,0E0,0E0,0E0,0E0,0E0,0E0,0E0],"parents":[2147483647,0,0,1,1,2,2,3,3,4,4,5,5,6,6,8,8,10,10,11,11,12,12,14,14,17,17,18,18,19,19,20,20,21,21,22,22,24,24],"right_children":[2,4,6,8,10,12,14,-1,16,-1,18,20,22,-1,24,-1,-1,26,28,30,32,34,36,-1,38,-1,-1,-1,-1,-1,-1,-1,-1,-1,-1,-1,-1,-1,-1],"split_conditions":[-2.202189E-2,-3.810844E-2,1.9346806E-1,8.821918E-1,-2.658046E-2,3.457383E-2,-6.772489E-2,3.818041E-2,4.9225E3,-2.8329711E-2,8.172057E-2,-3.550199E-2,7.57587E1,-3.37333E-2,7.7E1,2.7565952E-2,-3.536044E-2,1.2153013E-2,6.897391E-4,1.6405135E-2,4.8219177E-1,4.257112E3,8.738647E-2,-1.6982635E-2,-5.886705E-2,-2.8692936E-3,3.1291183E-2,-3.0885598E-2,4.776512E-3,-0E0,-3.4924954E-2,-0E0,3.7111573E-2,-1.5873464E-2,2.9510027E-2,-1.2525972E-2,-3.8469113E-2,-0E0,3.7237473E-2],"split_indices":[15,15,11,30,10,34,13,0,0,0,34,37,8,0,33,0,0,23,37,34,30,28,34,0,37,0,0,0,0,0,0,0,0,0,0,0,0,0,0],"split_type":[0,0,0,0,0,0,0,0,0,0,0,0,0,0,0,0,0,0,0,0,0,0,0,0,0,0,0,0,0,0,0,0,0,0,0,0,0,0,0],"sum_hessian":[3.7625775E2,1.1476216E2,2.6149557E2,7.294579E1,4.1816372E1,2.2627905E2,3.5216534E1,6.1957207E1,1.0988585E1,4.773007E0,3.7043365E1,3.0657438E1,1.9562161E2,4.3844733E0,3.083206E1,7.2690096E0,3.7195756E0,2.7723639E1,9.319728E0,7.109147E0,2.3548292E1,4.621002E1,1.494116E2,5.930011E0,2.4902048E1,3.6499596E0,2.4073679E1,4.995172E0,4.3245554E0,3.1792202E0,3.929927E0,9.842169E0,1.3706122E1,3.2468834E1,1.3741182E1,7.3626915E1,7.578469E1,3.1812203E0,2.1720827E1],"tree_param":{"num_deleted":"0","num_feature":"41","num_nodes":"39","size_leaf_vector":"1"}},{"base_weights":[5.4445434E-3,8.4256536E-1,-3.6865243E-1,1.1503246E0,4.079223E-1,-5.767729E-1,2.0825924E-1,1.2296969E0,-8.494656E-4,-1.3114968E-3,9.8052377E-1,-7.264064E-2,-8.612362E-1,-4.2718974E-1,5.3694445E-1,4.0093776E-2,-0E0,-2.4780616E-2,1.2173777E-1,8.544991E-4,3.4790017E-2,9.258756E-1,-3.027345E-1,-0E0,-9.971564E-1,1.7412752E-1,-1.1001412E0,-1.5460621E-2,7.1658283E-1,-8.720657E-3,2.1658938E-2,-0E0,4.0685315E-2,-2.7368834E-2,5.533968E-4,-2.2378542E-2,1.4393011E-2,-3.461454E-2,-1.0163246E-2,3.2692682E-2,-1.3620266E-2,-3.7048568E-3,-3.916882E-2,3.0602945E-2,1.418742E-3],"categories":[],"categories_nodes":[],"categories_segments":[],"categories_sizes":[],"default_left":[0,0,0,0,0,0,0,0,0,0,0,0,0,0,0,0,0,0,0,0,0,0,0,0,0,0,0,0,0,0,0,0,0,0,0,0,0,0,0,0,0,0,0,0,0],"id":16,"left_children":[1,3,5,7,9,11,13,15,-1,17,19,21,23,25,27,-1,-1,-1,29,-1,-1,31,33,35,37,39,41,-1,43,-1,-1,-1,-1,-1,-1,-1,-1,-1,-1,-1,-1,-1,-1,-1,-1],"loss_changes":[1.1873137E2,1.3449272E1,3.1787575E1,7.4835052E0,1.3250894E1,2.6631805E1,1.482448E1,8.446846E0,0E0,4.0026627E0,2.6585617E0,1.6449776E1,1.3669563E1,1.0623436E1,9.649166E0,0E0,0E0,0E0,7.4897475E0,0E0,0E0,5.0583115E0,1.2832317E1,7.395588E0,8.71772E0,8.734561E0,7.299032E-1,0E0,7.316656E0,0E0,0E0,0E0,0E0,0E0,0E0,0E0,0E0,0E0,0E0,0E0,0E0,0E0,0E0,0E0,0E0],"parents":[2147483647,0,0,1,1,2,2,3,3,4,4,5,5,6,6,7,7,9,9,10,10,11,11,12,12,13,13,14,14,18,18,21,21,22,22,23,23,24,24,25,25,26,26,28,28],"right_children":[2,4,6,8,10,12,14,16,-1,18,20,22,24,26,28,-1,-1,-1,30,-1,-1,32,34,36,38,40,42,-1,44,-1,-1,-1,-1,-1,-1,-1,-1,-1,-1,-1,-1,-1,-1,-1,-1],"split_conditions":[-2.202189E-2,4.251E3,2.9006729E-2,8.43775E1,1.1742398E-2,4.387E3,6.122449E-2,1.7571177E-1,-8.494656E-4,7.43221E1,6.26E2,2.9256176E-2,4.45E0,-1.3718663E-2,1.02E2,4.0093776E-2,-0E0,-2.4780616E-2,5.7231E3,8.544991E-4,3.4790017E-2,8.33549E1,-2.254025E-2,1.36675E3,1.4718398E0,1.1915E3,-9.522903E-5,-1.5460621E-2,5.8958E3,-8.720657E-3,2.1658938E-2,-0E0,4.0685315E-2,-2.7368834E-2,5.533968E-4,-2.2378542E-2,1.4393011E-2,-3.461454E-2,-1.0163246E-2,3.2692682E-2,-1.3620266E-2,-3.7048568E-3,-3.916882E-2,3.0602945E-2,1.418742E-3],"split_indices":[15,2,39,8,39,2,11,34,0,8,1,34,25,24,33,0,0,0,0,0,0,8,39,9,14,9,15,0,0,0,0,0,0,0,0,0,0,0,0,0,0,0,0,0,0],"split_type":[0,0,0,0,0,0,0,0,0,0,0,0,0,0,0,0,0,0,0,0,0,0,0,0,0,0,0,0,0,0,0,0,0,0,0,0,0,0,0,0,0,0,0,0,0],"sum_hessian":[3.7463324E2,1.1595475E2,2.586785E2,6.509329E1,5.086146E1,1.9137413E2,6.730435E1,6.172036E1,3.3729308E0,2.9516441E1,2.134502E1,7.098007E1,1.2039406E2,2.1754429E1,4.5549923E1,5.6752296E1,4.9680614E0,3.7747173E0,2.5741724E1,4.5397234E0,1.6805298E1,1.1629732E1,5.935034E1,1.7217821E1,1.0317624E2,1.1291112E1,1.0463317E1,5.4214954E0,4.012843E1,1.4728815E1,1.1012909E1,4.2598047E0,7.369927E0,2.0602438E1,3.8747906E1,6.903919E0,1.0313902E1,8.120573E1,2.197051E1,4.79343E0,6.497682E0,3.0821757E0,7.3811417E0,2.6039497E1,1.408893E1],"tree_param":{"num_deleted":"0","num_feature":"41","num_nodes":"45","size_leaf_vector":"1"}},{"base_weights":[-1.3321425E-2,6.9344175E-1,-3.3377793E-1,9.765366E-1,-2.9695997E-4,2.0422044E-1,-5.5308914E-1,1.0474476E0,-4.3532636E-4,-3.039549E-2,2.2889824E-1,-1.06515E0,4.3361622E-1,1.3642065E-1,-9.252116E-1,-0E0,1.1055197E0,8.889318E-1,-1.5771452E-1,-1.3236795E-3,-3.9757647E-2,5.56837E-1,-3.1087667E-2,5.4600203E-1,-1.0868348E0,5.249305E-1,-1.0428369E0,3.435661E-2,-0E0,-0E0,3.690093E-2,1.1687577E-2,-3.1838235E-2,2.8903903E-2,1.3798346E-5,-2.8093396E-2,2.2293339E-2,-0E0,-4.216369E-2,-1.3356867E-3,3.1644393E-2,-0E0,-3.403783E-2],"categories":[],"categories_nodes":[],"categories_segments":[],"categories_sizes":[],"default_left":[0,0,0,0,0,0,0,0,0,0,0,0,0,0,0,0,0,0,0,0,0,0,0,0,0,0,0,0,0,0,0,0,0,0,0,0,0,0,0,0,0,0,0],"id":17,"left_children":[1,3,5,7,9,11,13,15,-1,-1,17,19,21,23,25,-1,27,29,31,-1,-1,33,-1,35,37,39,41,-1,-1,-1,-1,-1,-1,-1,-1,-1,-1,-1,-1,-1,-1,-1,-1],"loss_changes":[8.462869E1,2.3777885E1,3.1090925E1,6.922165E0,9.053637E0,2.1845797E1,4.8651463E1,4.5436096E0,0E0,0E0,8.148861E0,1.5219364E0,1.2176092E1,3.316242E1,2.211644E1,0E0,2.1888962E0,3.6823063E0,1.0257497E1,0E0,0E0,1.2986073E1,0E0,1.5657953E1,6.790783E0,3.9469733E0,1.1977158E1,0E0,0E0,0E0,0E0,0E0,0E0,0E0,0E0,0E0,0E0,0E0,0E0,0E0,0E0,0E0,0E0],"parents":[2147483647,0,0,1,1,2,2,3,3,4,4,5,5,6,6,7,7,10,10,11,11,12,12,13,13,14,14,16,16,17,17,18,18,21,21,23,23,24,24,25,25,26,26],"right_children":[2,4,6,8,10,12,14,16,-1,-1,18,20,22,24,26,-1,28,30,32,-1,-1,34,-1,36,38,40,42,-1,-1,-1,-1,-1,-1,-1,-1,-1,-1,-1,-1,-1,-1,-1,-1],"split_conditions":[7E0,-4.8311077E-2,4.453E3,8.2E3,-4.508829E-2,3E0,7.57587E1,-8.261148E-2,-4.3532636E-4,-3.039549E-2,-2.0289855E-2,-2.1624366E-2,8.46831E1,6.164383E-1,-9.0398125E-2,-0E0,8.40485E1,-2.0348154E-2,3E0,-1.3236795E-3,-3.9757647E-2,-2.5046125E-2,-3.1087667E-2,-3.312624E-2,-9.408252E-3,1.67025E3,3.720347E-2,3.435661E-2,-0E0,-0E0,3.690093E-2,1.1687577E-2,-3.1838235E-2,2.8903903E-2,1.3798346E-5,-2.8093396E-2,2.2293339E-2,-0E0,-4.216369E-2,-1.3356867E-3,3.1644393E-2,-0E0,-3.403783E-2],"split_indices":[25,27,0,5,37,20,8,24,0,0,37,13,8,30,27,0,8,36,21,0,0,27,0,13,26,9,34,0,0,0,0,0,0,0,0,0,0,0,0,0,0,0,0],"split_type":[0,0,0,0,0,0,0,0,0,0,0,0,0,0,0,0,0,0,0,0,0,0,0,0,0,0,0,0,0,0,0,0,0,0,0,0,0,0,0,0,0,0,0],"sum_hessian":[3.7221344E2,1.1459939E2,2.5761407E2,8.1976944E1,3.262244E1,7.331254E1,1.8430153E2,7.736503E1,4.61192E0,5.8779764E0,2.6744463E1,9.717296E0,6.359524E1,6.3992302E1,1.2030923E2,4.350181E0,7.301485E1,1.011447E1,1.6629993E1,3.1096385E0,6.6076574E0,6.0163734E1,3.4315054E0,4.9175034E1,1.48172655E1,7.9989223E0,1.123103E2,6.960704E1,3.407804E0,3.114631E0,6.9998384E0,1.0198885E1,6.4311085E0,3.3087204E1,2.707653E1,4.5153837E0,4.4659653E1,3.1219027E0,1.1695362E1,3.6081145E0,4.3908076E0,8.359831E0,1.0395047E2],"tree_param":{"num_deleted":"0","num_feature":"41","num_nodes":"43","size_leaf_vector":"1"}},{"base_weights":[-0E0,7.6522815E-1,-3.6776596E-1,1.0677302E0,3.1021255E-1,-5.1678187E-1,3.5439083E-1,1.1919188E0,2.2437894E-1,7.325089E-1,-2.2001162E-1,-9.1517155E-5,-7.864185E-1,7.69561E-1,-5.5647504E-1,1.0971631E-3,3.7543263E-2,2.9343449E-2,-3.1639982E-2,9.4939613E-1,-1.1168492E-2,-8.9533985E-1,4.4550362E-1,-3.9151102E-1,4.6170706E-1,6.128583E-1,-9.0337765E-1,1.0844887E0,-2.9497515E-2,1.1298849E-2,-3.3452105E-2,3.2442335E-2,-0E0,-0E0,-3.532305E-2,-1.9539276E-2,3.1018334E-2,-3.036829E-2,3.8991857E-3,2.1705283E-2,-2.5716633E-2,3.945167E-2,-1.5732935E-2,-3.205019E-2,-9.286066E-3,-0E0,3.696617E-2],"categories":[],"categories_nodes":[],"categories_segments":[],"categories_sizes":[],"default_left":[0,0,0,0,0,0,0,0,0,0,0,0,0,0,0,0,0,0,0,0,0,0,0,0,0,0,0,0,0,0,0,0,0,0,0,0,0,0,0,0,0,0,0,0,0,0,0],"id":18,"left_children":[1,3,5,7,9,11,13,15,17,19,21,23,25,27,29,-1,-1,-1,-1,31,-1,33,35,37,39,41,43,45,-1,-1,-1,-1,-1,-1,-1,-1,-1,-1,-1,-1,-1,-1,-1,-1,-1,-1,-1],"loss_changes":[1.0610506E2,1.49494705E1,2.7910671E1,5.6695633E0,1.245256E1,2.8942379E1,1.7272142E1,2.8334198E0,1.3094479E1,8.410475E0,1.150504E1,1.3928398E1,2.3860382E1,1.8925264E1,8.513458E0,0E0,0E0,0E0,0E0,3.4284306E0,0E0,3.1693277E0,9.121E0,1.5028082E1,1.265974E1,1.0571429E1,1.0811325E1,4.6289825E0,0E0,0E0,0E0,0E0,0E0,0E0,0E0,0E0,0E0,0E0,0E0,0E0,0E0,0E0,0E0,0E0,0E0,0E0,0E0],"parents":[2147483647,0,0,1,1,2,2,3,3,4,4,5,5,6,6,7,7,8,8,9,9,10,10,11,11,12,12,13,13,14,14,19,19,21,21,22,22,23,23,24,24,25,25,26,26,27,27],"right_children":[2,4,6,8,10,12,14,16,18,20,22,24,26,28,30,-1,-1,-1,-1,32,-1,34,36,38,40,42,44,46,-1,-1,-1,-1,-1,-1,-1,-1,-1,-1,-1,-1,-1,-1,-1,-1,-1,-1,-1],"split_conditions":[-1.8300423E-2,-3.810844E-2,4.30931E-2,8.821918E-1,5E3,4.376E3,6.47E2,3.3552866E3,4.81E3,1.0887722E0,-1.4903846E-2,1.3927709E-2,1.2E2,6.761E3,4.6783075E-2,1.0971631E-3,3.7543263E-2,2.9343449E-2,-3.1639982E-2,2.0372496E0,-1.1168492E-2,-1.0574468E-1,6.0892E3,2.0977369E-2,4.5305713E3,1.1069801E-1,5.769138E-2,1.02E2,-2.9497515E-2,1.1298849E-2,-3.3452105E-2,3.2442335E-2,-0E0,-0E0,-3.532305E-2,-1.9539276E-2,3.1018334E-2,-3.036829E-2,3.8991857E-3,2.1705283E-2,-2.5716633E-2,3.945167E-2,-1.5732935E-2,-3.205019E-2,-9.286066E-3,-0E0,3.696617E-2],"split_indices":[15,15,39,30,6,2,33,28,0,35,37,24,33,0,39,0,0,0,0,14,0,37,3,23,0,13,13,33,0,0,0,0,0,0,0,0,0,0,0,0,0,0,0,0,0,0,0],"split_type":[0,0,0,0,0,0,0,0,0,0,0,0,0,0,0,0,0,0,0,0,0,0,0,0,0,0,0,0,0,0,0,0,0,0,0,0,0,0,0,0,0,0,0,0,0,0,0],"sum_hessian":[3.74531E2,1.2073091E2,2.538001E2,6.9985664E1,5.074525E1,2.1188857E2,4.1911537E1,5.942871E1,1.0556953E1,2.8978832E1,2.1766418E1,7.444423E1,1.3744434E2,2.9703375E1,1.2208162E1,3.8535323E0,5.5575176E1,7.3565297E0,3.200424E0,2.5156387E1,3.822444E0,1.1292255E1,1.0474164E1,4.1588043E1,3.2856186E1,9.452044E0,1.2799229E2,2.6147833E1,3.5555408E0,4.0841837E0,8.123979E0,2.1977053E1,3.1793358E0,3.1092777E0,8.182978E0,3.007929E0,7.4662347E0,1.9217613E1,2.237043E1,2.8612137E1,4.2440495E0,6.2425346E0,3.2095091E0,9.7911255E1,3.0081032E1,3.1827874E0,2.2965046E1],"tree_param":{"num_deleted":"0","num_feature":"41","num_nodes":"47","size_leaf_vector":"1"}},{"base_weights":[9.100132E-3,6.4862883E-1,-2.4836007E-1,1.0124749E0,1.20172545E-1,4.415824E-1,-4.2216027E-1,-0E0,1.1208404E0,-7.219136E-1,4.411736E-1,-2.8827605E-1,7.1381897E-1,1.904087E-1,-7.4498427E-1,1.1032444E-2,-7.889707E-3,3.2271624E-3,1.1728189E0,5.567175E-3,-3.5343174E-2,-1.422727E-1,8.0911386E-1,-8.928808E-1,2.0297717E-2,9.3445545E-1,-8.551696E-3,3.9271927E-1,-3.828065E-2,-7.687937E-2,-1.0725678E0,2.8438868E-3,3.6533996E-2,-3.7000064E-2,1.0428152E-2,3.301885E-2,-4.013096E-3,-0E0,-3.7440076E-2,3.615263E-4,3.1791177E-2,3.5471725E-3,3.648043E-2,6.1470764E-3,-3.3279102E-2,-0E0,-3.431673E-2],"categories":[],"categories_nodes":[],"categories_segments":[],"categories_sizes":[],"default_left":[0,0,0,0,0,0,0,0,0,0,0,0,0,0,0,0,0,0,0,0,0,0,0,0,0,0,0,0,0,0,0,0,0,0,0,0,0,0,0,0,0,0,0,0,0,0,0],"id":19,"left_children":[1,3,5,7,9,11,13,15,17,19,21,23,25,27,29,-1,-1,-1,31,-1,-1,33,35,37,-1,39,-1,41,-1,43,45,-1,-1,-1,-1,-1,-1,-1,-1,-1,-1,-1,-1,-1,-1,-1,-1],"loss_changes":[6.2782513E1,1.9807423E1,3.2522316E1,6.164238E0,1.3068458E1,1.1406581E1,4.364696E1,1.0274107E0,1.5280075E0,6.6406794E0,8.624904E0,9.67604E0,9.98571E0,2.210711E1,3.0106026E1,0E0,0E0,0E0,1.0865707E0,0E0,0E0,9.145364E0,7.6514063E0,3.1404705E0,0E0,2.8815517E0,0E0,1.3730383E1,0E0,1.5730445E1,6.957451E0,0E0,0E0,0E0,0E0,0E0,0E0,0E0,0E0,0E0,0E0,0E0,0E0,0E0,0E0,0E0,0E0],"parents":[2147483647,0,0,1,1,2,2,3,3,4,4,5,5,6,6,7,7,8,8,9,9,10,10,11,11,12,12,13,13,14,14,18,18,21,21,22,22,23,23,25,25,27,27,29,29,30,30],"right_children":[2,4,6,8,10,12,14,16,18,20,22,24,26,28,30,-1,-1,-1,32,-1,-1,34,36,38,-1,40,-1,42,-1,44,46,-1,-1,-1,-1,-1,-1,-1,-1,-1,-1,-1,-1,-1,-1,-1,-1],"split_conditions":[-2.8074866E-2,4.31225E3,4.050807E-2,-9.3676314E-2,4.6712518E-2,-2.5986314E-2,4.18E2,4.725E3,-5.1497836E-2,8.53E2,4.398E3,-7.1647903E-3,-8.264462E-3,4.5052633E-1,4.387E3,1.1032444E-2,-7.889707E-3,3.2271624E-3,4.095E3,5.567175E-3,-3.5343174E-2,-1.12223355E-2,-5.4872565E-2,4.205E3,2.0297717E-2,3E0,-8.551696E-3,1.571E3,-3.828065E-2,9.91092E-2,-6.55058E-2,2.8438868E-3,3.6533996E-2,-3.7000064E-2,1.0428152E-2,3.301885E-2,-4.013096E-3,-0E0,-3.7440076E-2,3.615263E-4,3.1791177E-2,3.5471725E-3,3.648043E-2,6.1470764E-3,-3.3279102E-2,-0E0,-3.431673E-2],"split_indices":[12,2,34,24,11,39,33,6,26,1,1,37,27,34,2,0,0,0,4,0,0,26,27,2,0,20,0,9,0,34,27,0,0,0,0,0,0,0,0,0,0,0,0,0,0,0,0],"split_type":[0,0,0,0,0,0,0,0,0,0,0,0,0,0,0,0,0,0,0,0,0,0,0,0,0,0,0,0,0,0,0,0,0,0,0,0,0,0,0,0,0,0,0,0,0,0,0],"sum_hessian":[3.7590298E2,1.0835507E2,2.675479E2,6.223775E1,4.6117325E1,5.221255E1,2.1533536E2,6.822123E0,5.541563E1,1.1351118E1,3.4766205E1,1.3162532E1,3.905002E1,7.346008E1,1.4187527E2,3.7678854E0,3.0542376E0,3.8674085E0,5.154822E1,3.361659E0,7.9894595E0,1.275022E1,2.2015984E1,8.797909E0,4.3646226E0,3.288425E1,6.165768E0,6.611851E1,7.3415723E0,4.829091E1,9.358436E1,3.141893E0,4.8406326E1,3.8779845E0,8.872236E0,1.7435133E1,4.580851E0,3.0104232E0,5.7874856E0,5.082508E0,2.7801743E1,5.1784138E1,1.4334372E1,3.812034E1,1.01705675E1,6.1704364E0,8.7413925E1],"tree_param":{"num_deleted":"0","num_feature":"41","num_nodes":"47","size_leaf_vector":"1"}},{"base_weights":[2.8229938E-3,6.8462443E-1,-3.0447116E-1,1.7833927E-1,9.858149E-1,1.8938029E-1,-6.224076E-1,4.854946E-1,-6.9796115E-1,-0E0,1.0334382E0,-1.1158762E0,3.6955342E-1,-1.18519284E-1,-1.1043595E0,7.674426E-1,-2.1143768E-2,-0E0,-3.0694894E-2,1.0744272E0,1.156184E-3,-1.3681911E-3,-4.093605E-2,4.9910465E-1,-3.2403313E-2,5.8809435E-1,-5.6933326E-1,-1.2256815E0,-1.5707666E-1,2.9602524E-2,-0E0,3.3356663E-2,-0E0,8.085894E-3,3.649774E-2,2.5912115E-2,-1.2380729E-2,1.7581234E-2,-2.6223632E-2,-4.7953073E-3,-3.807197E-2,-3.025649E-2,1.3237546E-2],"categories":[],"categories_nodes":[],"categories_segments":[],"categories_sizes":[],"default_left":[0,0,0,0,0,0,0,0,0,0,0,0,0,0,0,0,0,0,0,0,0,0,0,0,0,0,0,0,0,0,0,0,0,0,0,0,0,0,0,0,0,0,0],"id":20,"left_children":[1,3,5,7,9,11,13,15,17,-1,19,21,23,25,27,29,-1,-1,-1,31,-1,-1,-1,33,-1,35,37,39,41,-1,-1,-1,-1,-1,-1,-1,-1,-1,-1,-1,-1,-1,-1],"loss_changes":[8.045884E1,1.6833462E1,4.1820244E1,1.3145227E1,2.813858E0,2.402731E1,3.7740845E1,1.3317421E1,3.2574487E0,0E0,1.6604233E0,1.7322302E0,1.7515888E1,2.6453901E1,7.663391E0,5.989992E0,0E0,0E0,0E0,1.5814209E0,0E0,0E0,0E0,1.2214262E1,0E0,9.710669E0,1.9156153E1,1.5428238E0,7.286237E0,0E0,0E0,0E0,0E0,0E0,0E0,0E0,0E0,0E0,0E0,0E0,0E0,0E0,0E0],"parents":[2147483647,0,0,1,1,2,2,3,3,4,4,5,5,6,6,7,7,8,8,10,10,11,11,12,12,13,13,14,14,15,15,19,19,23,23,25,25,26,26,27,27,28,28],"right_children":[2,4,6,8,10,12,14,16,18,-1,20,22,24,26,28,30,-1,-1,-1,32,-1,-1,-1,34,-1,36,38,40,42,-1,-1,-1,-1,-1,-1,-1,-1,-1,-1,-1,-1,-1,-1],"split_conditions":[7E0,-1.3108158E-2,4.387E3,-3.148432E-2,2E0,3E0,7.9614E1,1.446E4,2E0,-0E0,5.8E3,-2.5418477E-2,1.2E1,6E3,5.451649E-2,8.9863014E-1,-2.1143768E-2,-0E0,-3.0694894E-2,6.0206052E-2,1.156184E-3,-1.3681911E-3,-4.093605E-2,1.1E1,-3.2403313E-2,6.35E2,3E0,1.1232877E-1,8.184922E-1,2.9602524E-2,-0E0,3.3356663E-2,-0E0,8.085894E-3,3.649774E-2,2.5912115E-2,-1.2380729E-2,1.7581234E-2,-2.6223632E-2,-4.7953073E-3,-3.807197E-2,-3.025649E-2,1.3237546E-2],"split_indices":[25,39,2,27,20,20,8,1,21,0,2,36,20,0,24,30,0,0,0,37,0,0,0,20,0,25,20,30,14,0,0,0,0,0,0,0,0,0,0,0,0,0,0],"split_type":[0,0,0,0,0,0,0,0,0,0,0,0,0,0,0,0,0,0,0,0,0,0,0,0,0,0,0,0,0,0,0,0,0,0,0,0,0,0,0,0,0,0,0],"sum_hessian":[3.7921997E2,1.1825559E2,2.6096436E2,4.6238865E1,7.201673E1,1.0121229E2,1.5975208E2,3.55783E1,1.0660563E1,3.9848156E0,6.803191E1,1.0658317E1,9.055397E1,8.002668E1,7.972539E1,2.9874752E1,5.703549E0,3.3901088E0,7.270455E0,6.4259445E1,3.77247E0,3.1022773E0,7.55604E0,8.466146E1,5.892509E0,3.0128214E1,4.9898468E1,6.934733E1,1.0378063E1,2.3630219E1,6.2445345E0,6.1182144E1,3.077301E0,6.675807E1,1.7903393E1,2.4566557E1,5.561657E0,9.441804E0,4.0456665E1,3.888687E0,6.545864E1,4.548317E0,5.8297462E0],"tree_param":{"num_deleted":"0","num_feature":"41","num_nodes":"43","size_leaf_vector":"1"}},{"base_weights":[2.8878577E-2,7.7025694E-1,-2.7415964E-1,4.276012E-2,8.8949347E-1,-6.699512E-1,-5.6420073E-2,4.8086843E-1,-2.6217591E-2,9.650058E-1,-0E0,3.490025E-2,-1.080868E0,6.7431666E-2,-6.893675E-1,2.9336892E-2,-0E0,1.0163193E0,-4.9243197E-5,-3.1164486E-2,2.5398506E-2,-7.4087936E-1,4.273412E-1,1.0190991E-2,-1.2453616E0,-7.185461E-2,1.1108783E0,1.2012507E-2,-9.8751324E-1,-1.5229523E-2,1.3229113E-2,-0E0,3.211343E-2,-0E0,-3.8091727E-2,-3.0086996E-2,2.3677936E-2,-4.0624976E-2,-0E0,-3.894488E-2,1.3346922E-3,3.8656007E-2,-0E0,6.9701666E-4,-3.6096398E-2],"categories":[],"categories_nodes":[],"categories_segments":[],"categories_sizes":[],"default_left":[0,0,0,0,0,0,0,0,0,0,0,0,0,0,0,0,0,0,0,0,0,0,0,0,0,0,0,0,0,0,0,0,0,0,0,0,0,0,0,0,0,0,0,0,0],"id":21,"left_children":[1,3,5,7,9,11,13,15,-1,17,19,21,23,25,27,-1,29,31,-1,-1,-1,33,35,-1,37,39,41,-1,43,-1,-1,-1,-1,-1,-1,-1,-1,-1,-1,-1,-1,-1,-1,-1,-1],"loss_changes":[8.490629E1,8.548729E0,2.212761E1,7.562862E0,7.14093E0,2.7917168E1,1.4391997E1,3.8410707E0,0E0,5.325897E0,8.397765E0,1.0711266E1,1.5427025E1,2.240884E1,1.0945896E1,0E0,2.1896904E0,5.645233E0,0E0,0E0,0E0,5.576704E0,1.3820945E1,0E0,8.469902E0,1.9824614E1,2.5652332E0,0E0,6.618498E0,0E0,0E0,0E0,0E0,0E0,0E0,0E0,0E0,0E0,0E0,0E0,0E0,0E0,0E0,0E0,0E0],"parents":[2147483647,0,0,1,1,2,2,3,3,4,4,5,5,6,6,7,7,9,9,10,10,11,11,12,12,13,13,14,14,16,16,17,17,21,21,22,22,24,24,25,25,26,26,28,28],"right_children":[2,4,6,8,10,12,14,16,-1,18,20,22,24,26,28,-1,30,32,-1,-1,-1,34,36,-1,38,40,42,-1,44,-1,-1,-1,-1,-1,-1,-1,-1,-1,-1,-1,-1,-1,-1,-1,-1],"split_conditions":[-2.2506202E-2,-2.4433011E-2,4.451852E-2,4.3023125E3,7.485E3,4.425E3,4.5079087E3,-3.4789544E-2,-2.6217591E-2,1.397E3,4.0185093E-3,1.163E3,3.9898932E-2,1.5425E3,3.720347E-2,2.9336892E-2,5.7175E3,5.7E1,-4.9243197E-5,-3.1164486E-2,2.5398506E-2,4.3056E3,4.135E3,1.0190991E-2,7.43E3,3E0,6.9875E3,1.2012507E-2,-5.2244723E-2,-1.5229523E-2,1.3229113E-2,-0E0,3.211343E-2,-0E0,-3.8091727E-2,-3.0086996E-2,2.3677936E-2,-4.0624976E-2,-0E0,-3.894488E-2,1.3346922E-3,3.8656007E-2,-0E0,6.9701666E-4,-3.6096398E-2],"split_indices":[15,38,11,28,5,0,28,38,0,33,26,33,34,9,34,0,4,33,0,0,0,0,4,0,5,20,4,0,37,0,0,0,0,0,0,0,0,0,0,0,0,0,0,0,0],"split_type":[0,0,0,0,0,0,0,0,0,0,0,0,0,0,0,0,0,0,0,0,0,0,0,0,0,0,0,0,0,0,0,0,0,0,0,0,0,0,0,0,0,0,0,0,0],"sum_hessian":[3.728043E2,1.0845588E2,2.6434842E2,1.6740686E1,9.1715195E1,9.108061E1,1.7326779E2,1.2547768E1,4.1929193E0,8.536589E1,6.349305E0,3.315256E1,5.7928047E1,1.4471169E2,2.8556118E1,5.913507E0,6.634261E0,8.1971924E1,3.3939688E0,3.1817153E0,3.1675901E0,9.833558E0,2.3319004E1,5.2149296E0,5.271312E1,1.2805621E2,1.6655462E1,5.303206E0,2.325291E1,3.4998229E0,3.1344383E0,3.3016346E0,7.867029E1,4.015781E0,5.8177776E0,3.6147506E0,1.9704252E1,4.8970142E1,3.7429757E0,1.0520884E1,1.1753533E2,1.3539276E1,3.1161866E0,3.5096118E0,1.97433E1],"tree_param":{"num_deleted":"0","num_feature":"41","num_nodes":"45","size_leaf_vector":"1"}},{"base_weights":[1.8595414E-2,7.4639344E-1,-3.1494832E-1,4.7857442E-1,1.1756127E0,5.753277E-1,-4.203746E-1,8.783238E-1,-4.489083E-2,1.2564039E0,-0E0,-1.0995312E-2,9.1927004E-1,-5.5072058E-2,-7.825436E-1,-3.1555581E-3,9.937396E-1,1.8871795E-1,-3.0687293E-2,4.0091895E-2,3.81915E-3,-3.9457106E-3,3.587494E-2,4.0394023E-1,-6.622686E-1,-4.0761656E-1,-1.1347909E0,3.381081E-2,-0E0,-3.075237E-3,3.1845607E-2,-3.738046E-2,1.8101862E-2,1.9049728E-2,-2.7164543E-2,-1.9548507E-2,2.2538513E-2,-0E0,-3.6689688E-2],"categories":[],"categories_nodes":[],"categories_segments":[],"categories_sizes":[],"default_left":[0,0,0,0,0,0,0,0,0,0,0,0,0,0,0,0,0,0,0,0,0,0,0,0,0,0,0,0,0,0,0,0,0,0,0,0,0,0,0],"id":22,"left_children":[1,3,5,7,9,11,13,15,17,19,-1,-1,21,23,25,-1,27,29,-1,-1,-1,-1,-1,31,33,35,37,-1,-1,-1,-1,-1,-1,-1,-1,-1,-1,-1,-1],"loss_changes":[8.900629E1,1.0790382E1,2.3609112E1,1.661762E1,2.918026E0,9.489552E0,2.8838718E1,6.0132256E0,8.636583E0,1.7654762E0,0E0,0E0,7.191101E0,3.268422E1,1.2475319E1,0E0,4.387165E0,7.981029E0,0E0,0E0,0E0,0E0,0E0,2.2017609E1,1.7215626E1,1.6943884E1,4.600456E0,0E0,0E0,0E0,0E0,0E0,0E0,0E0,0E0,0E0,0E0,0E0,0E0],"parents":[2147483647,0,0,1,1,2,2,3,3,4,4,5,5,6,6,7,7,8,8,9,9,12,12,13,13,14,14,16,16,17,17,23,23,24,24,25,25,26,26],"right_children":[2,4,6,8,10,12,14,16,18,20,-1,-1,22,24,26,-1,28,30,-1,-1,-1,-1,-1,32,34,36,38,-1,-1,-1,-1,-1,-1,-1,-1,-1,-1,-1,-1],"split_conditions":[-1.9310117E-2,1.3974809E-2,4.373E3,4.251E3,2.1042563E-1,9.8875E2,6.53E2,-8.7702654E-2,8.657534E-1,1.70075E3,-0E0,-1.0995312E-2,-2.5986314E-2,6.3E3,8.738647E-2,-3.1555581E-3,-1.7707108E-2,7.9452056E-1,-3.0687293E-2,4.0091895E-2,3.81915E-3,-3.9457106E-3,3.587494E-2,-5.964923E-2,3E0,1.307E3,-7.4346595E-2,3.381081E-2,-0E0,-3.075237E-3,3.1845607E-2,-3.738046E-2,1.8101862E-2,1.9049728E-2,-2.7164543E-2,-1.9548507E-2,2.2538513E-2,-0E0,-3.6689688E-2],"split_indices":[15,39,3,2,34,9,33,26,30,9,0,0,39,3,34,0,13,30,0,0,0,0,0,13,20,33,36,0,0,0,0,0,0,0,0,0,0,0,0],"split_type":[0,0,0,0,0,0,0,0,0,0,0,0,0,0,0,0,0,0,0,0,0,0,0,0,0,0,0,0,0,0,0,0,0,0,0,0,0,0,0],"sum_hessian":[3.619246E2,1.1409935E2,2.4782524E2,7.364778E1,4.0451565E1,2.4527851E1,2.232974E2,4.226511E1,3.1382675E1,3.707831E1,3.3732555E0,5.7570596E0,1.8770792E1,1.13402725E2,1.0989467E2,3.5429244E0,3.8722187E1,2.5483736E1,5.8989377E0,3.3540993E1,3.5373182E0,3.321517E0,1.5449275E1,6.3929897E1,4.9472824E1,5.6176212E1,5.3718456E1,3.322498E1,5.497207E0,1.924155E1,6.242187E0,5.505163E0,5.8424736E1,6.7803283E0,4.2692497E1,4.766093E1,8.51528E0,4.601437E0,4.911702E1],"tree_param":{"num_deleted":"0","num_feature":"41","num_nodes":"39","size_leaf_vector":"1"}},{"base_weights":[-7.8010107E-3,6.80906E-1,-3.3005184E-1,7.8871554E-1,-3.438593E-1,9.44314E-2,-5.213954E-1,1.0619444E0,3.458409E-1,8.440354E-3,-3.68731E-2,4.7629336E-1,-7.232662E-1,-1.2988317E-1,-1.1348047E0,1.1378438E0,-1.0403385E-3,-4.9410615E-2,9.549572E-1,-3.5903063E-2,7.053418E-1,-1.1754979E0,1.7603895E-2,1.100764E0,-3.1309682E-1,-1.2442378E0,-0E0,3.695028E-2,-0E0,-3.437576E-2,3.9909426E-3,2.190381E-3,3.3133328E-2,-2.3659337E-2,2.6129037E-2,-2.683659E-3,-3.9337877E-2,4.2616785E-2,-0E0,-3.938254E-2,-1.9348805E-3,-6.787553E-3,-3.8487315E-2,-1.5187148E-2,1.2573072E-2],"categories":[],"categories_nodes":[],"categories_segments":[],"categories_sizes":[],"default_left":[0,0,0,0,0,0,0,0,0,0,0,0,0,0,0,0,0,0,0,0,0,0,0,0,0,0,0,0,0,0,0,0,0,0,0,0,0,0,0,0,0,0,0,0,0],"id":23,"left_children":[1,3,5,7,9,11,13,15,17,-1,-1,19,21,23,25,27,-1,29,31,-1,33,35,-1,37,39,41,43,-1,-1,-1,-1,-1,-1,-1,-1,-1,-1,-1,-1,-1,-1,-1,-1,-1,-1],"loss_changes":[8.307442E1,1.3980671E1,2.1378296E1,1.1214394E1,7.8166637E0,2.509706E1,4.15096E1,6.589615E0,1.1848167E1,0E0,0E0,2.2211018E1,1.6478079E1,2.4975302E1,8.025955E0,6.6264267E0,0E0,6.8059583E0,1.1854858E0,0E0,1.3651049E1,1.3289089E0,0E0,5.108591E0,2.3182102E1,5.047455E-1,2.016952E0,0E0,0E0,0E0,0E0,0E0,0E0,0E0,0E0,0E0,0E0,0E0,0E0,0E0,0E0,0E0,0E0,0E0,0E0],"parents":[2147483647,0,0,1,1,2,2,3,3,4,4,5,5,6,6,7,7,8,8,11,11,12,12,13,13,14,14,15,15,17,17,18,18,20,20,21,21,23,23,24,24,25,25,26,26],"right_children":[2,4,6,8,10,12,14,16,18,-1,-1,20,22,24,26,28,-1,30,32,-1,34,36,-1,38,40,42,44,-1,-1,-1,-1,-1,-1,-1,-1,-1,-1,-1,-1,-1,-1,-1,-1,-1,-1],"split_conditions":[-1.9310117E-2,1.4633333E2,7.57587E1,4.2875E3,9.626056E-1,3.236559E-1,9.222791E-2,1.7571177E-1,1.0834174E-2,8.440354E-3,-3.68731E-2,-7.011393E-2,1.2698293E0,1.6438356E-1,4.2075E4,8.44775E1,-1.0403385E-3,-3.586755E-2,-2.9681005E-2,-3.5903063E-2,4.9975E3,6.4498395E-2,1.7603895E-2,4.351E3,3.8356164E-1,3.959625E3,2.037035E-2,3.695028E-2,-0E0,-3.437576E-2,3.9909426E-3,2.190381E-3,3.3133328E-2,-2.3659337E-2,2.6129037E-2,-2.683659E-3,-3.9337877E-2,4.2616785E-2,-0E0,-3.938254E-2,-1.9348805E-3,-6.787553E-3,-3.8487315E-2,-1.5187148E-2,1.2573072E-2],"split_indices":[15,25,8,2,14,34,34,34,39,0,0,13,14,30,1,8,0,26,26,0,7,13,0,4,30,2,38,0,0,0,0,0,0,0,0,0,0,0,0,0,0,0,0,0,0],"split_type":[0,0,0,0,0,0,0,0,0,0,0,0,0,0,0,0,0,0,0,0,0,0,0,0,0,0,0,0,0,0,0,0,0,0,0,0,0,0,0,0,0,0,0,0,0],"sum_hessian":[3.728783E2,1.173366E2,2.5554169E2,1.0736292E2,9.973674E0,7.801159E1,1.7753009E2,6.370548E1,4.3657444E1,5.7830396E0,4.190634E0,5.443831E1,2.3573278E1,1.1046987E2,6.706023E1,6.0381832E1,3.323645E0,2.6317072E1,1.7340372E1,5.266481E0,4.917183E1,1.8205994E1,5.367285E0,1.2634387E1,9.783549E1,6.0714878E1,6.3453503E0,5.56804E1,4.7014318E0,3.4062464E0,2.2910826E1,3.806273E0,1.35341E1,3.7416034E0,4.5430225E1,3.1179724E0,1.5088021E1,9.518376E0,3.1160104E0,1.7404898E1,8.043059E1,3.5445693E0,5.7170307E1,3.1566942E0,3.1886559E0],"tree_param":{"num_deleted":"0","num_feature":"41","num_nodes":"45","size_leaf_vector":"1"}},{"base_weights":[1.7224323E-2,7.394785E-1,-2.6208115E-1,1.0478563E0,2.438429E-1,1.10589035E-1,-5.014971E-1,-0E0,1.1209369E0,-2.1422575E-1,8.123327E-1,-9.0837157E-1,2.5516972E-1,-6.992256E-2,-9.2710257E-1,-0E0,3.5818305E-2,-4.7882292E-1,1.8247953E-2,-0E0,9.848179E-1,-3.7263848E-2,-2.9484394E-3,-2.7578387E-1,5.070502E-1,-4.8002625E-1,6.0699916E-1,9.513632E-2,-1.0506834E0,-2.9516375E-2,2.4819768E-3,-0E0,3.3782545E-2,4.7028614E-3,-2.2651747E-2,1.8844867E-2,-2.9039687E-2,9.110725E-3,-2.0507393E-2,2.6808003E-2,-1.1461803E-2,-1.9729938E-2,3.018344E-2,-1.2997085E-3,-3.417999E-2],"categories":[],"categories_nodes":[],"categories_segments":[],"categories_sizes":[],"default_left":[0,0,0,0,0,0,0,0,0,0,0,0,0,0,0,0,0,0,0,0,0,0,0,0,0,0,0,0,0,0,0,0,0,0,0,0,0,0,0,0,0,0,0,0,0],"id":24,"left_children":[1,3,5,7,9,11,13,-1,15,17,19,21,23,25,27,-1,-1,29,-1,-1,31,-1,-1,33,35,37,39,41,43,-1,-1,-1,-1,-1,-1,-1,-1,-1,-1,-1,-1,-1,-1,-1,-1],"loss_changes":[7.5192154E1,1.4262684E1,2.4221313E1,5.0935593E0,1.2106921E1,1.4971948E1,2.9020897E1,0E0,4.7846603E0,5.559333E0,2.994792E0,1.8170223E0,1.2857929E1,2.3683348E1,1.1370842E1,0E0,0E0,6.7006187E0,0E0,0E0,1.2800064E0,0E0,0E0,6.9054756E0,1.2144545E1,9.335854E0,9.954763E0,7.696005E0,5.306305E0,0E0,0E0,0E0,0E0,0E0,0E0,0E0,0E0,0E0,0E0,0E0,0E0,0E0,0E0,0E0,0E0],"parents":[2147483647,0,0,1,1,2,2,3,3,4,4,5,5,6,6,8,8,9,9,10,10,11,11,12,12,13,13,14,14,17,17,20,20,23,23,24,24,25,25,26,26,27,27,28,28],"right_children":[2,4,6,8,10,12,14,-1,16,18,20,22,24,26,28,-1,-1,30,-1,-1,32,-1,-1,34,36,38,40,42,44,-1,-1,-1,-1,-1,-1,-1,-1,-1,-1,-1,-1,-1,-1,-1,-1],"split_conditions":[-2.3194656E-2,4.3008E3,4.387E3,-1.07749626E-1,8.064305E-3,3E0,5.77E2,-0E0,7.7077923E-3,1.65875E3,-2.9681005E-2,8.30096E1,-1.7143348E-2,3.1552415E-2,3.9898932E-2,-0E0,3.5818305E-2,-6.993007E-2,1.8247953E-2,-0E0,1.39125E3,-3.7263848E-2,-2.9484394E-3,3E0,8.44775E1,5.94E3,1.65525E3,4.4750044E3,-5.2821968E-2,-2.9516375E-2,2.4819768E-3,-0E0,3.3782545E-2,4.7028614E-3,-2.2651747E-2,1.8844867E-2,-2.9039687E-2,9.110725E-3,-2.0507393E-2,2.6808003E-2,-1.1461803E-2,-1.9729938E-2,3.018344E-2,-1.2997085E-3,-3.417999E-2],"split_indices":[15,2,2,24,39,20,33,0,23,9,26,8,39,39,34,0,0,27,0,0,9,0,0,21,8,4,9,28,39,0,0,0,0,0,0,0,0,0,0,0,0,0,0,0,0],"split_type":[0,0,0,0,0,0,0,0,0,0,0,0,0,0,0,0,0,0,0,0,0,0,0,0,0,0,0,0,0,0,0,0,0,0,0,0,0,0,0,0,0,0,0,0,0],"sum_hessian":[3.6742984E2,1.0277462E2,2.6465524E2,6.10816E1,4.169302E1,1.02201164E2,1.6245407E2,3.8403544E0,5.7241245E1,2.263237E1,1.9060648E1,1.0855333E1,9.134583E1,8.269516E1,7.975891E1,3.6076498E0,5.3633595E1,1.8517746E1,4.114624E0,3.4836106E0,1.5577037E1,6.2471147E0,4.6082187E0,2.8067736E1,6.32781E1,5.2688274E1,3.0006886E1,7.7667847E0,7.199213E1,1.0092948E1,8.424799E0,3.0064504E0,1.2570586E1,1.4186912E1,1.3880823E1,5.9899082E1,3.3790166E0,9.698132E0,4.2990143E1,2.4161432E1,5.8454537E0,3.879928E0,3.8868568E0,6.916034E0,6.507609E1],"tree_param":{"num_deleted":"0","num_feature":"41","num_nodes":"45","size_leaf_vector":"1"}},{"base_weights":[-1.8689863E-2,6.4337415E-1,-3.1238875E-1,9.6750605E-1,1.8594094E-1,-9.0576375E-1,-1.601353E-1,1.0597211E0,-2.2456485E-3,-6.7624874E-2,3.2326557E-2,-1.0607797E0,4.5469467E-2,-6.821829E-2,-1.0809073E0,1.138783E0,-0E0,-9.9019146E-1,1.4307675E-1,-0E0,-1.1673383E0,-2.1345045E-3,1.07909115E-2,-4.1100132E-1,3.1859088E-1,-4.079075E-2,-0E0,-0E0,3.6686648E-2,-3.757613E-2,-4.0761954E-3,2.1423945E-2,-7.5222477E-3,-7.561604E-3,-3.8952433E-2,2.4450222E-2,-1.769383E-2,1.7483953E-2,-8.8674035E-3],"categories":[],"categories_nodes":[],"categories_segments":[],"categories_sizes":[],"default_left":[0,0,0,0,0,0,0,0,0,0,0,0,0,0,0,0,0,0,0,0,0,0,0,0,0,0,0,0,0,0,0,0,0,0,0,0,0,0,0],"id":25,"left_children":[1,3,5,7,9,11,13,15,-1,17,-1,19,21,23,25,27,-1,29,31,-1,33,-1,-1,35,37,-1,-1,-1,-1,-1,-1,-1,-1,-1,-1,-1,-1,-1,-1],"loss_changes":[7.1922005E1,1.5353558E1,2.2059364E1,7.3122253E0,1.243753E1,8.622135E0,1.6410501E1,5.4196243E0,0E0,8.741002E0,0E0,5.2026863E0,6.0889745E-1,2.5802223E1,6.0141144E0,4.8257904E0,0E0,2.4318123E-1,8.062848E0,0E0,2.8650627E0,0E0,0E0,2.3301964E1,1.513018E1,0E0,0E0,0E0,0E0,0E0,0E0,0E0,0E0,0E0,0E0,0E0,0E0,0E0,0E0],"parents":[2147483647,0,0,1,1,2,2,3,3,4,4,5,5,6,6,7,7,9,9,11,11,12,12,13,13,14,14,15,15,17,17,18,18,20,20,23,23,24,24],"right_children":[2,4,6,8,10,12,14,16,-1,18,-1,20,22,24,26,28,-1,30,32,-1,34,-1,-1,36,38,-1,-1,-1,-1,-1,-1,-1,-1,-1,-1,-1,-1,-1,-1],"split_conditions":[-1.9310117E-2,4.3008E3,-2.829955E-2,1.7571177E-1,3.2068096E-2,1.8684498E0,1.2E1,1.397E3,-2.2456485E-3,-2.9681005E-2,3.2326557E-2,-8.196721E-2,1.18075E3,7E0,6.1775E3,-8.7702654E-2,-0E0,6.706996E-2,-3.690453E-2,-0E0,4E0,-2.1345045E-3,1.07909115E-2,4.373E3,4.072E2,-4.079075E-2,-0E0,-0E0,3.6686648E-2,-3.757613E-2,-4.0761954E-3,2.1423945E-2,-7.5222477E-3,-7.561604E-3,-3.8952433E-2,2.4450222E-2,-1.769383E-2,1.7483953E-2,-8.8674035E-3],"split_indices":[15,2,39,34,39,14,20,33,0,26,0,10,9,20,4,26,0,24,13,0,20,0,0,3,25,0,0,0,0,0,0,0,0,0,0,0,0,0,0],"split_type":[0,0,0,0,0,0,0,0,0,0,0,0,0,0,0,0,0,0,0,0,0,0,0,0,0,0,0,0,0,0,0,0,0,0,0,0,0,0,0],"sum_hessian":[3.685306E2,1.1165167E2,2.5687894E2,6.3088886E1,4.8562786E1,4.9596344E1,2.0728261E2,5.8819637E1,4.269246E0,3.8016045E1,1.0546741E1,4.340195E1,6.194393E0,1.9092091E2,1.6361694E1,5.491394E1,3.905696E0,6.918757E0,3.1097288E1,4.005463E0,3.939649E1,3.0429935E0,3.1513996E0,1.0254177E2,8.837914E1,1.3041095E1,3.3206003E0,4.2660217E0,5.064792E1,3.8628356E0,3.055921E0,1.3230976E1,1.7866312E1,6.4400697E0,3.2956417E1,1.1659605E1,9.0882164E1,6.298761E1,2.5391535E1],"tree_param":{"num_deleted":"0","num_feature":"41","num_nodes":"39","size_leaf_vector":"1"}},{"base_weights":[-1.3768707E-2,-4.0537068E-1,4.6542478E-1,4.5345342E-1,-6.077863E-1,9.360571E-1,1.6366896E-1,-3.286848E-1,7.625959E-1,-7.5239575E-1,1.782627E-1,1.0988778E0,-6.867659E-3,-4.8169377E-1,3.8884306E-1,6.1551193E-3,-3.5143025E-2,9.450245E-1,-0E0,1.22993246E-1,-8.1911576E-1,-3.3975556E-1,9.038277E-1,1.1703526E0,-0E0,-3.1072587E-2,1.78639E-2,4.3442392E-1,-9.572991E-1,-5.5877084E-1,5.374425E-1,3.5124246E-2,-0E0,-1.3584699E-2,2.0529373E-2,-0E0,-2.6708467E-2,-2.4541432E-2,4.4639264E-3,3.482059E-2,-0E0,7.0337197E-3,3.717362E-2,-0E0,2.390995E-2,-3.4766573E-2,-0E0,-2.8700475E-2,3.2585193E-4,2.4395699E-2,-9.101552E-4],"categories":[],"categories_nodes":[],"categories_segments":[],"categories_sizes":[],"default_left":[0,0,0,0,0,0,0,0,0,0,0,0,0,0,0,0,0,0,0,0,0,0,0,0,0,0,0,0,0,0,0,0,0,0,0,0,0,0,0,0,0,0,0,0,0,0,0,0,0,0,0],"id":26,"left_children":[1,3,5,7,9,11,13,15,17,19,21,23,25,27,29,-1,-1,31,-1,33,35,37,39,41,-1,-1,-1,43,45,47,49,-1,-1,-1,-1,-1,-1,-1,-1,-1,-1,-1,-1,-1,-1,-1,-1,-1,-1,-1,-1],"loss_changes":[6.711525E1,3.5007442E1,2.1372536E1,9.926352E0,1.9179459E1,1.0443905E1,1.4794975E1,6.19149E0,4.246601E0,8.913834E0,1.0532407E1,3.6027298E0,7.2807035E0,1.2266393E1,1.1200776E1,0E0,0E0,6.12961E0,0E0,3.9361668E0,6.922844E0,4.367426E0,2.002945E0,1.2554321E0,0E0,0E0,0E0,1.906382E0,2.824791E0,3.2717013E0,1.1435293E1,0E0,0E0,0E0,0E0,0E0,0E0,0E0,0E0,0E0,0E0,0E0,0E0,0E0,0E0,0E0,0E0,0E0,0E0,0E0,0E0],"parents":[2147483647,0,0,1,1,2,2,3,3,4,4,5,5,6,6,7,7,8,8,9,9,10,10,11,11,12,12,13,13,14,14,17,17,19,19,20,20,21,21,22,22,23,23,27,27,28,28,29,29,30,30],"right_children":[2,4,6,8,10,12,14,16,18,20,22,24,26,28,30,-1,-1,32,-1,34,36,38,40,42,-1,-1,-1,44,46,48,50,-1,-1,-1,-1,-1,-1,-1,-1,-1,-1,-1,-1,-1,-1,-1,-1,-1,-1,-1,-1],"split_conditions":[4.6519477E-2,3.457383E-2,4.5305713E3,-3.550199E-2,2.3808E4,2.253436E-3,-3.401942E-2,-9.437259E-3,3.252412E-2,-7.4346595E-2,2.1561462E-2,4.2835713E3,4.8E3,2.1888164E-3,7.32697E1,6.1551193E-3,-3.5143025E-2,-8.264462E-3,-0E0,-1.0712904E-1,9.91E2,1.1E1,4.2075E4,-7.96846E-2,-0E0,-3.1072587E-2,1.78639E-2,-6.603774E-2,-2.9588297E-2,7.035E3,7.98768E1,3.5124246E-2,-0E0,-1.3584699E-2,2.0529373E-2,-0E0,-2.6708467E-2,-2.4541432E-2,4.4639264E-3,3.482059E-2,-0E0,7.0337197E-3,3.717362E-2,-0E0,2.390995E-2,-3.4766573E-2,-0E0,-2.8700475E-2,3.2585193E-4,2.4395699E-2,-9.101552E-4],"split_indices":[23,34,0,37,1,13,26,10,23,36,12,2,6,34,8,0,0,27,0,36,9,20,1,26,0,0,0,12,13,4,8,0,0,0,0,0,0,0,0,0,0,0,0,0,0,0,0,0,0,0,0],"split_type":[0,0,0,0,0,0,0,0,0,0,0,0,0,0,0,0,0,0,0,0,0,0,0,0,0,0,0,0,0,0,0,0,0,0,0,0,0,0,0,0,0,0,0,0,0,0,0,0,0,0,0],"sum_hessian":[3.549678E2,1.9661218E2,1.5835564E2,3.620371E1,1.6040848E2,5.9339703E1,9.901593E1,9.312718E0,2.6890991E1,1.3661232E2,2.3796164E1,5.1294758E1,8.044946E0,2.4020859E1,7.499507E1,5.669496E0,3.6432223E0,2.174277E1,5.148221E0,8.523821E0,1.2808849E2,1.3545034E1,1.0251129E1,4.767345E1,3.6213088E0,3.1851003E0,4.859845E0,7.5347037E0,1.6486155E1,8.692621E0,6.630245E1,1.8114258E1,3.628513E0,3.4712906E0,5.052531E0,1.1155469E1,1.1693302E2,7.367494E0,6.177541E0,7.1123505E0,3.1387792E0,4.7112813E0,4.296217E1,3.3492308E0,4.185473E0,1.2876367E1,3.6097884E0,5.5511937E0,3.1414273E0,4.5377434E1,2.0925016E1],"tree_param":{"num_deleted":"0","num_feature":"41","num_nodes":"51","size_leaf_vector":"1"}},{"base_weights":[-2.39206E-2,6.305191E-1,-3.5239175E-1,9.068792E-1,2.5447282E-1,3.5595757E-1,-4.433641E-1,1.0162158E0,-3.208802E-2,-7.9662055E-1,5.069764E-1,-2.8659207E-1,3.204511E-2,-9.401272E-1,-1.8385302E-1,1.1092631E0,-4.1483236E-3,1.0717699E-2,-1.8948697E-2,-0E0,-3.237124E-2,1.8447198E-1,3.4506317E-2,-7.963425E-1,1.648223E-2,-1.3048717E0,-2.3680189E-1,-0E0,-8.561326E-1,5.7845935E-3,3.74302E-2,1.4689992E-2,-2.0516194E-2,-3.495755E-2,-0E0,-5.365722E-3,-4.102042E-2,-2.5107617E-2,1.6786367E-2,-6.0256794E-3,2.7160678E-2,-3.6022104E-2,1.7024042E-2],"categories":[],"categories_nodes":[],"categories_segments":[],"categories_sizes":[],"default_left":[0,0,0,0,0,0,0,0,0,0,0,0,0,0,0,0,0,0,0,0,0,0,0,0,0,0,0,0,0,0,0,0,0,0,0,0,0,0,0,0,0,0,0],"id":27,"left_children":[1,3,5,7,9,11,13,15,17,19,21,23,-1,25,27,29,-1,-1,-1,-1,-1,31,-1,33,-1,35,37,39,41,-1,-1,-1,-1,-1,-1,-1,-1,-1,-1,-1,-1,-1,-1],"loss_changes":[7.8143585E1,1.10585785E1,1.603762E1,7.970829E0,1.4870436E1,1.3749477E1,2.6721931E1,7.8107224E0,2.3748472E0,1.6471939E0,7.868762E0,7.2162457E0,0E0,1.6753311E1,1.7582909E1,5.544014E0,0E0,0E0,0E0,0E0,0E0,9.157908E0,0E0,2.7516007E0,0E0,1.3850708E0,1.4236925E1,2.1155561E1,1.6735645E1,0E0,0E0,0E0,0E0,0E0,0E0,0E0,0E0,0E0,0E0,0E0,0E0,0E0,0E0],"parents":[2147483647,0,0,1,1,2,2,3,3,4,4,5,5,6,6,7,7,8,8,9,9,10,10,11,11,13,13,14,14,15,15,21,21,23,23,25,25,26,26,27,27,28,28],"right_children":[2,4,6,8,10,12,14,16,18,20,22,24,-1,26,28,30,-1,-1,-1,-1,-1,32,-1,34,-1,36,38,40,42,-1,-1,-1,-1,-1,-1,-1,-1,-1,-1,-1,-1,-1,-1],"split_conditions":[-1.9310117E-2,4.3008E3,4.373E3,1.7571177E-1,-2.9681005E-2,1.6572848E-2,4.542557E-2,1.397E3,-3.810844E-2,2.1888164E-3,2.0295503E-2,2.1197668E-3,3.204511E-2,7.561644E-1,4.47699E3,5.2054796E-2,-4.1483236E-3,1.0717699E-2,-1.8948697E-2,-0E0,-3.237124E-2,-5.7344854E-2,3.4506317E-2,1.3069336E-2,1.648223E-2,4.4E3,1.5044058E-3,4.311172E3,8.191781E-1,5.7845935E-3,3.74302E-2,1.4689992E-2,-2.0516194E-2,-3.495755E-2,-0E0,-5.365722E-3,-4.102042E-2,-2.5107617E-2,1.6786367E-2,-6.0256794E-3,2.7160678E-2,-3.6022104E-2,1.7024042E-2],"split_indices":[15,2,3,34,26,23,11,33,15,34,10,10,0,30,28,30,0,0,0,0,0,27,0,24,0,6,10,28,30,0,0,0,0,0,0,0,0,0,0,0,0,0,0],"split_type":[0,0,0,0,0,0,0,0,0,0,0,0,0,0,0,0,0,0,0,0,0,0,0,0,0,0,0,0,0,0,0,0,0,0,0,0,0,0,0,0,0,0,0],"sum_hessian":[3.6176187E2,1.19415985E2,2.423459E2,6.607797E1,5.3338017E1,2.5833536E1,2.1651236E2,6.002952E1,6.048451E0,8.938243E0,4.4399773E1,1.3314074E1,1.2519463E1,7.162276E1,1.448896E2,5.6408203E1,3.6213164E0,3.0232964E0,3.0251546E0,3.33429E0,5.603953E0,3.1893732E1,1.250604E1,9.058181E0,4.255893E0,4.538259E1,2.6240166E1,1.1564978E2,2.9239826E1,8.820484E0,4.758772E1,2.4935492E1,6.958241E0,5.457659E0,3.6005216E0,3.5316293E0,4.1850964E1,1.5636204E1,1.0603961E1,9.614592E1,1.9503859E1,2.4295902E1,4.9439244E0],"tree_param":{"num_deleted":"0","num_feature":"41","num_nodes":"43","size_leaf_vector":"1"}},{"base_weights":[-5.415097E-3,-3.348765E-1,4.7449005E-1,2.9823554E-1,-5.3189355E-1,9.526809E-1,1.20500885E-1,-3.9213198E-1,5.686674E-1,-7.143295E-1,1.6314884E-1,-6.763869E-3,1.065599E0,-5.992518E-1,4.1445458E-1,4.9136644E-3,-8.313474E-1,-1.3565875E-2,7.947374E-1,-4.0262043E-1,-1.2657233E0,6.8272823E-1,-5.892957E-1,-0E0,1.172895E0,1.116968E-2,-8.716391E-1,6.16111E-1,-2.7494016E-1,-0E0,-3.7039474E-2,-0E0,2.8413126E-2,1.8685807E-2,-1.8622732E-2,-4.0759E-2,-0E0,-2.9698976E-3,3.12273E-2,-3.0090276E-2,-0E0,9.888266E-3,3.8050745E-2,-0E0,-4.0241126E-2,3.0479822E-2,2.1698715E-3,-2.1583583E-2,1.8614506E-2],"categories":[],"categories_nodes":[],"categories_segments":[],"categories_sizes":[],"default_left":[0,0,0,0,0,0,0,0,0,0,0,0,0,0,0,0,0,0,0,0,0,0,0,0,0,0,0,0,0,0,0,0,0,0,0,0,0,0,0,0,0,0,0,0,0,0,0,0,0],"id":28,"left_children":[1,3,5,7,9,11,13,15,17,19,21,-1,23,25,27,-1,29,-1,31,33,35,37,39,-1,41,-1,43,45,47,-1,-1,-1,-1,-1,-1,-1,-1,-1,-1,-1,-1,-1,-1,-1,-1,-1,-1,-1,-1],"loss_changes":[5.5661457E1,2.6726109E1,2.2864956E1,9.791996E0,2.130231E1,9.071957E0,1.8121725E1,4.250868E0,9.506632E0,1.9902908E1,1.3918825E1,0E0,6.065346E0,7.3922997E0,9.222595E0,0E0,2.790234E0,0E0,4.700485E0,1.9900497E1,4.4187775E0,7.1126747E0,3.8751855E0,0E0,1.7865219E0,0E0,8.568865E0,9.586592E0,6.324796E0,0E0,0E0,0E0,0E0,0E0,0E0,0E0,0E0,0E0,0E0,0E0,0E0,0E0,0E0,0E0,0E0,0E0,0E0,0E0,0E0],"parents":[2147483647,0,0,1,1,2,2,3,3,4,4,5,5,6,6,7,7,8,8,9,9,10,10,12,12,13,13,14,14,16,16,18,18,19,19,20,20,21,21,22,22,24,24,26,26,27,27,28,28],"right_children":[2,4,6,8,10,12,14,16,18,20,22,-1,24,26,28,-1,30,-1,32,34,36,38,40,-1,42,-1,44,46,48,-1,-1,-1,-1,-1,-1,-1,-1,-1,-1,-1,-1,-1,-1,-1,-1,-1,-1,-1,-1],"split_conditions":[5.0573874E-2,4.050807E-2,4.079E3,4E0,3.237987E-2,3E0,-1.8590169E-2,-8.790738E-3,-1.901631E-2,1.0591837E-1,3.4408602E-1,-6.763869E-3,-8.245184E-2,-9.078788E-2,3E-1,4.9136644E-3,4.3056E3,-1.3565875E-2,-5.170164E-2,3.077061E3,6.810073E-2,7.145082E-2,7.45138E1,-0E0,7.592991E-2,1.116968E-2,6.8333335E-2,7.73724E1,7E0,-0E0,-3.7039474E-2,-0E0,2.8413126E-2,1.8685807E-2,-1.8622732E-2,-4.0759E-2,-0E0,-2.9698976E-3,3.12273E-2,-3.0090276E-2,-0E0,9.888266E-3,3.8050745E-2,-0E0,-4.0241126E-2,3.0479822E-2,2.1698715E-3,-2.1583583E-2,1.8614506E-2],"split_indices":[23,34,2,20,26,20,39,10,26,34,34,0,26,12,34,0,0,0,12,28,39,37,8,0,23,0,23,8,20,0,0,0,0,0,0,0,0,0,0,0,0,0,0,0,0,0,0,0,0],"split_type":[0,0,0,0,0,0,0,0,0,0,0,0,0,0,0,0,0,0,0,0,0,0,0,0,0,0,0,0,0,0,0,0,0,0,0,0,0,0,0,0,0,0,0,0,0,0,0,0,0],"sum_hessian":[3.4991766E2,2.089842E2,1.4093346E2,4.8211323E1,1.6077289E2,5.7668865E1,8.326459E1,1.23390255E1,3.58723E1,1.2845337E2,3.231952E1,4.1384845E0,5.3530384E1,2.270676E1,6.055783E1,4.85625E0,7.482775E0,5.429691E0,3.0442606E1,8.487913E1,4.3574238E1,1.9986433E1,1.2333087E1,5.198826E0,4.833156E1,4.047656E0,1.8659103E1,4.8098446E1,1.2459384E1,3.079587E0,4.403188E0,4.2107234E0,2.6231882E1,1.3595993E1,7.1283134E1,4.0014088E1,3.5601506E0,5.743938E0,1.4242495E1,7.1269946E0,5.206093E0,6.6593914E0,4.1672165E1,6.88441E0,1.17746935E1,2.590617E1,2.2192276E1,9.269383E0,3.19E0],"tree_param":{"num_deleted":"0","num_feature":"41","num_nodes":"49","size_leaf_vector":"1"}},{"base_weights":[-4.811877E-3,5.7121855E-1,-2.8387156E-1,3.459902E-1,1.0839283E0,4.6666005E-1,-3.8862693E-1,8.684855E-1,-0E0,-0E0,3.64299E-2,-2.1580186E-2,8.503322E-1,-8.151243E-1,-9.792331E-2,1.0730737E0,-8.2054676E-4,2.6142916E-1,-7.9291147E-1,-4.0789065E-3,3.7878737E-2,-1.1979748E0,-1.2851745E-1,-2.72737E-1,5.31794E-1,6.9796396E-3,3.58321E-2,-9.397799E-3,1.820779E-2,-0E0,-3.6950562E-2,-2.9732282E-3,-3.7249774E-2,-2.8433403E-2,1.1784785E-2,1.20432815E-5,-2.0370375E-2,-1.0236517E-2,2.6121393E-2],"categories":[],"categories_nodes":[],"categories_segments":[],"categories_sizes":[],"default_left":[0,0,0,0,0,0,0,0,0,0,0,0,0,0,0,0,0,0,0,0,0,0,0,0,0,0,0,0,0,0,0,0,0,0,0,0,0,0,0],"id":29,"left_children":[1,3,5,7,9,11,13,15,17,-1,-1,-1,19,21,23,25,-1,27,29,-1,-1,31,33,35,37,-1,-1,-1,-1,-1,-1,-1,-1,-1,-1,-1,-1,-1,-1],"loss_changes":[5.7061905E1,1.1318108E1,1.9180334E1,1.584091E1,4.9257812E0,1.4285381E1,2.5487267E1,7.3719215E0,1.1295746E1,0E0,0E0,0E0,1.0860521E1,2.0812733E1,1.4302111E1,1.0978966E0,0E0,8.242259E0,3.7126236E0,0E0,0E0,1.043808E0,1.5242495E1,1.2244301E1,9.134787E0,0E0,0E0,0E0,0E0,0E0,0E0,0E0,0E0,0E0,0E0,0E0,0E0,0E0,0E0],"parents":[2147483647,0,0,1,1,2,2,3,3,4,4,5,5,6,6,7,7,8,8,12,12,13,13,14,14,15,15,17,17,18,18,21,21,22,22,23,23,24,24],"right_children":[2,4,6,8,10,12,14,16,18,-1,-1,-1,20,22,24,26,-1,28,30,-1,-1,32,34,36,38,-1,-1,-1,-1,-1,-1,-1,-1,-1,-1,-1,-1,-1,-1],"split_conditions":[-1.8300423E-2,2.2113787E-2,4.373E3,-4.7075994E-2,8.2443625E-2,4.1273335E3,5.2032426E-2,8.821918E-1,7.199305E-2,-0E0,3.64299E-2,-2.1580186E-2,-2.5275774E-2,7.561644E-1,4.3498065E-2,9.707143E-2,-8.2054676E-4,-4.6728972E-2,9.626056E-1,-4.0789065E-3,3.7878737E-2,4.34E3,-2.3345206E-2,5.0975E3,5.4516665E3,6.9796396E-3,3.58321E-2,-9.397799E-3,1.820779E-2,-0E0,-3.6950562E-2,-2.9732282E-3,-3.7249774E-2,-2.8433403E-2,1.1784785E-2,1.20432815E-5,-2.0370375E-2,-1.0236517E-2,2.6121393E-2],"split_indices":[15,39,3,15,14,4,11,30,34,0,0,0,39,30,39,23,0,37,14,0,0,0,39,0,3,0,0,0,0,0,0,0,0,0,0,0,0,0,0],"split_type":[0,0,0,0,0,0,0,0,0,0,0,0,0,0,0,0,0,0,0,0,0,0,0,0,0,0,0,0,0,0,0,0,0,0,0,0,0,0,0],"sum_hessian":[3.5375433E2,1.1376618E2,2.3998814E2,8.214386E1,3.1622324E1,2.7589787E1,2.1239836E2,3.2776787E1,4.936707E1,3.3913524E0,2.823097E1,5.7858796E0,2.1803907E1,8.360047E1,1.2879788E2,2.7350157E1,5.426629E0,3.7096172E1,1.2270897E1,6.0089736E0,1.5794933E1,5.2020405E1,3.1580067E1,1.0272038E2,2.6077505E1,5.042232E0,2.2307926E1,1.2894105E1,2.4202068E1,5.616576E0,6.654321E0,3.051649E0,4.8968754E1,1.2549853E1,1.9030214E1,6.0848896E1,4.1871483E1,6.46466E0,1.9612844E1],"tree_param":{"num_deleted":"0","num_feature":"41","num_nodes":"39","size_leaf_vector":"1"}},{"base_weights":[-1.2229654E-3,6.897477E-1,-2.3492521E-1,1.0998303E0,2.9221734E-1,3.809819E-1,-3.472036E-1,3.431019E-2,5.1897154E-3,-7.8692234E-1,5.2301335E-1,-2.8509172E-2,5.8800024E-1,1.1321211E-1,-5.6945634E-1,-8.242151E-4,-3.2328967E-2,-7.6119206E-3,6.784866E-1,-2.1600928E-2,9.493075E-1,4.518383E-1,-5.641443E-1,-3.279212E-2,-8.840958E-1,-6.0777166E-3,2.4336094E-2,1.922912E-2,-1.7874084E-2,-6.51717E-3,3.5934594E-2,-1.5064158E-3,3.396294E-2,-2.9494328E-2,1.4242533E-2,-7.890168E-3,3.1541616E-2,-0E0,-2.970439E-2],"categories":[],"categories_nodes":[],"categories_segments":[],"categories_sizes":[],"default_left":[0,0,0,0,0,0,0,0,0,0,0,0,0,0,0,0,0,0,0,0,0,0,0,0,0,0,0,0,0,0,0,0,0,0,0,0,0,0,0],"id":30,"left_children":[1,3,5,7,9,11,13,-1,-1,15,17,-1,19,21,23,-1,-1,-1,25,27,29,31,33,35,37,-1,-1,-1,-1,-1,-1,-1,-1,-1,-1,-1,-1,-1,-1],"loss_changes":[5.688243E1,1.257922E1,1.858738E1,8.755493E-2,1.238307E1,1.1615317E1,2.3831335E1,0E0,0E0,6.929755E-1,5.689149E0,0E0,9.010069E0,1.7208603E1,2.523566E1,0E0,0E0,0E0,5.067276E0,5.8693404E0,8.33308E0,1.860262E1,1.1784624E1,1.4619738E1,8.569405E0,0E0,0E0,0E0,0E0,0E0,0E0,0E0,0E0,0E0,0E0,0E0,0E0,0E0,0E0],"parents":[2147483647,0,0,1,1,2,2,3,3,4,4,5,5,6,6,9,9,10,10,12,12,13,13,14,14,18,18,19,19,20,20,21,21,22,22,23,23,24,24],"right_children":[2,4,6,8,10,12,14,-1,-1,16,18,-1,20,22,24,-1,-1,-1,26,28,30,32,34,36,38,-1,-1,-1,-1,-1,-1,-1,-1,-1,-1,-1,-1,-1,-1],"split_conditions":[-2.7046626E-2,4.079E3,3.457383E-2,8.41683E1,-3.4698155E-2,-7.011393E-2,7.57587E1,3.431019E-2,5.1897154E-3,5.412149E-1,-7.224172E-2,-2.8509172E-2,4.8219177E-1,3.236559E-1,4.387E3,-8.242151E-4,-3.2328967E-2,-7.6119206E-3,7.4447E1,4.485E3,-5.3302113E-2,6.267954E-2,1.2698293E0,5.1371165E-2,-3.5763487E-2,-6.0777166E-3,2.4336094E-2,1.922912E-2,-1.7874084E-2,-6.51717E-3,3.5934594E-2,-1.5064158E-3,3.396294E-2,-2.9494328E-2,1.4242533E-2,-7.890168E-3,3.1541616E-2,-0E0,-2.970439E-2],"split_indices":[15,2,34,8,26,13,8,0,0,14,24,0,30,34,2,0,0,0,8,5,37,37,14,12,38,0,0,0,0,0,0,0,0,0,0,0,0,0,0],"split_type":[0,0,0,0,0,0,0,0,0,0,0,0,0,0,0,0,0,0,0,0,0,0,0,0,0,0,0,0,0,0,0,0,0,0,0,0,0,0,0],"sum_hessian":[3.5206516E2,8.715984E1,2.649053E2,4.035997E1,4.6799873E1,3.8918774E1,2.2598653E2,3.717176E1,3.1882112E0,6.845401E0,3.995447E1,3.8626697E0,3.5056103E1,7.234798E1,1.5363855E2,3.301694E0,3.543707E0,5.4327097E0,3.4521763E1,1.2540405E1,2.2515697E1,4.9551678E1,2.2796297E1,5.8571228E1,9.506733E1,3.4294915E0,3.1092272E1,4.932651E0,7.607754E0,3.2806678E0,1.923503E1,2.846379E1,2.1087887E1,1.698791E1,5.8083878E0,5.0010525E1,8.560702E0,1.0837262E1,8.4230064E1],"tree_param":{"num_deleted":"0","num_feature":"41","num_nodes":"39","size_leaf_vector":"1"}},{"base_weights":[1.5497448E-2,8.0315095E-1,-1.5330589E-1,9.563839E-1,-0E0,1.8961209E-1,-3.82856E-1,3.493803E-2,5.2760464E-1,2.1435272E-2,-3.2017954E-2,-9.299456E-1,3.3209872E-1,1.3147126E-1,-6.362905E-1,2.1973515E-3,2.7905932E-2,-6.120325E-4,-3.349963E-2,-2.5181553E-1,5.746653E-1,6.149712E-1,-6.241468E-1,2.797559E-1,-8.427871E-1,1.4902298E-2,-8.929997E-3,2.0334573E-2,-1.4426039E-2,2.0435458E-2,-2.2984684E-2,-5.725341E-3,3.047945E-2,-2.8314592E-2,1.0142053E-2,-1.7079506E-2,2.1361902E-2,1.780476E-3,-2.7317692E-2],"categories":[],"categories_nodes":[],"categories_segments":[],"categories_sizes":[],"default_left":[0,0,0,0,0,0,0,0,0,0,0,0,0,0,0,0,0,0,0,0,0,0,0,0,0,0,0,0,0,0,0,0,0,0,0,0,0,0,0],"id":31,"left_children":[1,3,5,7,9,11,13,-1,15,-1,-1,17,19,21,23,25,-1,-1,-1,27,29,31,33,35,37,-1,-1,-1,-1,-1,-1,-1,-1,-1,-1,-1,-1,-1,-1],"loss_changes":[4.8039852E1,7.8526154E0,2.3334051E1,2.1787796E0,1.01086E1,1.8462608E1,2.3768566E1,0E0,3.6883516E0,0E0,0E0,9.96438E-1,1.5456715E1,2.1952274E1,2.370578E1,2.2099748E0,0E0,0E0,0E0,6.8381505E0,1.1562693E1,1.31556E1,8.090766E0,8.971965E0,7.0231934E0,0E0,0E0,0E0,0E0,0E0,0E0,0E0,0E0,0E0,0E0,0E0,0E0,0E0,0E0],"parents":[2147483647,0,0,1,1,2,2,3,3,4,4,5,5,6,6,8,8,11,11,12,12,13,13,14,14,15,15,19,19,20,20,21,21,22,22,23,23,24,24],"right_children":[2,4,6,8,10,12,14,-1,16,-1,-1,18,20,22,24,26,-1,-1,-1,28,30,32,34,36,38,-1,-1,-1,-1,-1,-1,-1,-1,-1,-1,-1,-1,-1,-1],"split_conditions":[-3.810844E-2,8.821918E-1,4.387E3,-5.515361E-2,4.9225E3,3E0,4.18E2,3.493803E-2,5.061867E-3,2.1435272E-2,-3.2017954E-2,-1.9581672E-2,-1.7143348E-2,3.236559E-1,4.0104948E-2,-6.6791095E-2,2.7905932E-2,-6.120325E-4,-3.349963E-2,4.25E3,1.404E3,3.2876712E-1,1.2698293E0,-4.280923E-2,1.1232877E-1,1.4902298E-2,-8.929997E-3,2.0334573E-2,-1.4426039E-2,2.0435458E-2,-2.2984684E-2,-5.725341E-3,3.047945E-2,-2.8314592E-2,1.0142053E-2,-1.7079506E-2,2.1361902E-2,1.780476E-3,-2.7317692E-2],"split_indices":[15,30,2,15,0,20,33,0,10,0,0,38,39,34,34,37,0,0,0,6,33,30,14,37,30,0,0,0,0,0,0,0,0,0,0,0,0,0,0],"split_type":[0,0,0,0,0,0,0,0,0,0,0,0,0,0,0,0,0,0,0,0,0,0,0,0,0,0,0,0,0,0,0,0,0,0,0,0,0,0,0],"sum_hessian":[3.5353787E2,6.2445946E1,2.9109192E2,5.218169E1,1.0264253E1,1.1508081E2,1.7601111E2,3.1822311E1,2.035938E1,6.4552255E0,3.809027E0,1.1264493E1,1.03816315E2,5.7036224E1,1.1897489E2,1.0564362E1,9.795018E0,3.1141012E0,8.150392E0,2.9242657E1,7.457366E1,3.5758152E1,2.127807E1,2.0897215E1,9.8077675E1,4.8747525E0,5.689609E0,4.336763E0,2.4905893E1,7.0459984E1,4.1136746E0,1.1314503E1,2.444365E1,1.6773441E1,4.504628E0,6.109435E0,1.4787781E1,5.8381042E0,9.223957E1],"tree_param":{"num_deleted":"0","num_feature":"41","num_nodes":"39","size_leaf_vector":"1"}},{"base_weights":[3.508318E-2,6.8085706E-1,-2.1991304E-1,1.0309314E0,3.6860162E-1,-4.18703E-1,2.1791342E-1,-0E0,1.1001893E0,-3.9210933E-1,5.4372907E-1,-0E0,-6.902208E-1,1.0095514E0,-0E0,3.5473302E-2,8.148092E-3,-2.718774E-2,1.8141338E-3,-1.4573939E-1,7.2663665E-1,-2.8619465E-1,4.6631774E-1,-0E0,-8.8724E-1,3.4035444E-3,3.3954404E-2,-3.6376974E-1,5.5004674E-1,1.4357657E-2,-2.3757631E-2,2.4623502E-2,-0E0,4.3181297E-3,-3.224281E-2,-2.8803093E-2,2.3353845E-2,1.877283E-2,-2.462428E-2,3.0679882E-3,-2.9036967E-2,2.9162709E-2,-1.7485334E-2,2.871906E-2,-1.6599488E-2],"categories":[],"categories_nodes":[],"categories_segments":[],"categories_sizes":[],"default_left":[0,0,0,0,0,0,0,0,0,0,0,0,0,0,0,0,0,0,0,0,0,0,0,0,0,0,0,0,0,0,0,0,0,0,0,0,0,0,0,0,0,0,0,0,0],"id":32,"left_children":[1,3,5,7,9,11,13,-1,15,17,19,21,23,25,27,-1,-1,-1,-1,29,31,33,35,37,39,-1,-1,41,43,-1,-1,-1,-1,-1,-1,-1,-1,-1,-1,-1,-1,-1,-1,-1,-1],"loss_changes":[5.8108414E1,8.982822E0,2.2098444E1,2.21072E0,8.038611E0,2.0238266E1,1.2627378E1,0E0,8.751755E-1,3.355563E0,6.776479E0,9.528372E0,1.4417915E1,3.1505585E-1,1.3039908E1,0E0,0E0,0E0,0E0,4.97247E0,3.4729843E0,1.568737E1,1.326783E1,1.3749899E1,7.621254E0,0E0,0E0,1.1585721E1,1.309425E1,0E0,0E0,0E0,0E0,0E0,0E0,0E0,0E0,0E0,0E0,0E0,0E0,0E0,0E0,0E0,0E0],"parents":[2147483647,0,0,1,1,2,2,3,3,4,4,5,5,6,6,8,8,9,9,10,10,11,11,12,12,13,13,14,14,19,19,20,20,21,21,22,22,23,23,24,24,27,27,28,28],"right_children":[2,4,6,8,10,12,14,-1,16,18,20,22,24,26,28,-1,-1,-1,-1,30,32,34,36,38,40,-1,-1,42,44,-1,-1,-1,-1,-1,-1,-1,-1,-1,-1,-1,-1,-1,-1,-1,-1],"split_conditions":[-2.202189E-2,4.079E3,2.6084049E-2,-1.037214E-1,-2.9681005E-2,4.376E3,1.4520548E-1,-0E0,7.556675E-3,1.1742398E-2,-2.4433011E-2,4.8219177E-1,2E0,4.911E3,1.544E3,3.5473302E-2,8.148092E-3,-2.718774E-2,1.8141338E-3,3.016887E-2,1.3775E2,1.6712329E-1,-3.7744775E-2,8E0,4.45E0,3.4035444E-3,3.3954404E-2,9.895E2,6.85E3,1.4357657E-2,-2.3757631E-2,2.4623502E-2,-0E0,4.3181297E-3,-3.224281E-2,-2.8803093E-2,2.3353845E-2,1.877283E-2,-2.462428E-2,3.0679882E-3,-2.9036967E-2,2.9162709E-2,-1.7485334E-2,2.871906E-2,-1.6599488E-2],"split_indices":[15,2,39,26,26,2,30,0,36,39,38,30,32,1,9,0,0,0,0,34,25,30,38,20,25,0,0,9,6,0,0,0,0,0,0,0,0,0,0,0,0,0,0,0,0],"split_type":[0,0,0,0,0,0,0,0,0,0,0,0,0,0,0,0,0,0,0,0,0,0,0,0,0,0,0,0,0,0,0,0,0,0,0,0,0,0,0,0,0,0,0,0,0],"sum_hessian":[3.4721506E2,9.869303E1,2.4852202E2,4.339141E1,5.5301624E1,1.7253435E2,7.598766E1,3.6475976E0,3.9743813E1,8.932482E0,4.6369144E1,6.7510185E1,1.0502417E2,1.4499874E1,6.1487793E1,3.447409E1,5.269722E0,4.5122776E0,4.420204E0,8.6396475E0,3.7729496E1,4.132144E1,2.6188744E1,2.3740934E1,8.128323E1,3.069984E0,1.1429891E1,3.6514626E1,2.4973164E1,3.8049073E0,4.8347397E0,3.4401314E1,3.3281825E0,2.6710155E1,1.4611286E1,3.567721E0,2.2621023E1,1.3620324E1,1.0120611E1,5.1616416E0,7.612159E1,3.7750194E0,3.273961E1,1.9047537E1,5.9256277E0],"tree_param":{"num_deleted":"0","num_feature":"41","num_nodes":"45","size_leaf_vector":"1"}},{"base_weights":[-0E0,-2.9414108E-1,3.931768E-1,2.2782756E-2,-6.799623E-1,8.0339396E-1,1.23105265E-1,3.480008E-2,-1.11501046E-1,2.2465507E-3,-1.0100508E0,9.926619E-1,-3.888798E-1,-9.4126326E-1,2.768021E-1,-6.9761395E-1,2.4808508E-1,-8.155857E-1,7.0675385E-1,-1.0716363E0,-0E0,-0E0,1.0673934E0,-3.1234827E-2,6.9643124E-3,-3.6434047E-2,-0E0,-7.9617985E-2,6.8819E-1,-3.9024804E-2,-2.7627705E-3,-1.3648675E-2,1.5471079E-2,-3.659736E-2,1.0443295E-3,2.945515E-2,-4.7195354E-3,-3.3908423E-2,-0E0,2.2172665E-3,3.3612296E-2,1.186765E-2,-1.825025E-2,-7.421783E-3,2.6455943E-2],"categories":[],"categories_nodes":[],"categories_segments":[],"categories_sizes":[],"default_left":[0,0,0,0,0,0,0,0,0,0,0,0,0,0,0,0,0,0,0,0,0,0,0,0,0,0,0,0,0,0,0,0,0,0,0,0,0,0,0,0,0,0,0,0,0],"id":33,"left_children":[1,3,5,7,9,11,13,-1,15,17,19,21,23,25,27,29,31,33,35,37,-1,-1,39,-1,-1,-1,-1,41,43,-1,-1,