{"learner":{"attributes":{"scikit_learn":"{\"_estimator_type\": \"classifier\"}"},"feature_names":["price_trend_30d","month","msp_gap","distance_from_min","trend_strength","drawdown_7","price_spread_ratio","price_vs_7d_avg","rain_7d_sum","temp_7d_avg","is_raining_today","weather_shock_flag","year_norm","surrounding_price","price_wave_lag_score","cbot_price_inr","cbot_7day_trend","days_from_harvest_start"],"feature_types":["float","int","float","float","float","float","float","float","float","float","float","float","float","float","float","float","float","float"],"gradient_booster":{"model":{"cats":{"enc":[],"feature_segments":[],"sorted_idx":[]},"gbtree_model_param":{"num_parallel_tree":"1","num_trees":"600"},"iteration_indptr":[0,1,2,3,4,5,6,7,8,9,10,11,12,13,14,15,16,17,18,19,20,21,22,23,24,25,26,27,28,29,30,31,32,33,34,35,36,37,38,39,40,41,42,43,44,45,46,47,48,49,50,51,52,53,54,55,56,57,58,59,60,61,62,63,64,65,66,67,68,69,70,71,72,73,74,75,76,77,78,79,80,81,82,83,84,85,86,87,88,89,90,91,92,93,94,95,96,97,98,99,100,101,102,103,104,105,106,107,108,109,110,111,112,113,114,115,116,117,118,119,120,121,122,123,124,125,126,127,128,129,130,131,132,133,134,135,136,137,138,139,140,141,142,143,144,145,146,147,148,149,150,151,152,153,154,155,156,157,158,159,160,161,162,163,164,165,166,167,168,169,170,171,172,173,174,175,176,177,178,179,180,181,182,183,184,185,186,187,188,189,190,191,192,193,194,195,196,197,198,199,200,201,202,203,204,205,206,207,208,209,210,211,212,213,214,215,216,217,218,219,220,221,222,223,224,225,226,227,228,229,230,231,232,233,234,235,236,237,238,239,240,241,242,243,244,245,246,247,248,249,250,251,252,253,254,255,256,257,258,259,260,261,262,263,264,265,266,267,268,269,270,271,272,273,274,275,276,277,278,279,280,281,282,283,284,285,286,287,288,289,290,291,292,293,294,295,296,297,298,299,300,301,302,303,304,305,306,307,308,309,310,311,312,313,314,315,316,317,318,319,320,321,322,323,324,325,326,327,328,329,330,331,332,333,334,335,336,337,338,339,340,341,342,343,344,345,346,347,348,349,350,351,352,353,354,355,356,357,358,359,360,361,362,363,364,365,366,367,368,369,370,371,372,373,374,375,376,377,378,379,380,381,382,383,384,385,386,387,388,389,390,391,392,393,394,395,396,397,398,399,400,401,402,403,404,405,406,407,408,409,410,411,412,413,414,415,416,417,418,419,420,421,422,423,424,425,426,427,428,429,430,431,432,433,434,435,436,437,438,439,440,441,442,443,444,445,446,447,448,449,450,451,452,453,454,455,456,457,458,459,460,461,462,463,464,465,466,467,468,469,470,471,472,473,474,475,476,477,478,479,480,481,482,483,484,485,486,487,488,489,490,491,492,493,494,495,496,497,498,499,500,501,502,503,504,505,506,507,508,509,510,511,512,513,514,515,516,517,518,519,520,521,522,523,524,525,526,527,528,529,530,531,532,533,534,535,536,537,538,539,540,541,542,543,544,545,546,547,548,549,550,551,552,553,554,555,556,557,558,559,560,561,562,563,564,565,566,567,568,569,570,571,572,573,574,575,576,577,578,579,580,581,582,583,584,585,586,587,588,589,590,591,592,593,594,595,596,597,598,599,600],"tree_info":[0,0,0,0,0,0,0,0,0,0,0,0,0,0,0,0,0,0,0,0,0,0,0,0,0,0,0,0,0,0,0,0,0,0,0,0,0,0,0,0,0,0,0,0,0,0,0,0,0,0,0,0,0,0,0,0,0,0,0,0,0,0,0,0,0,0,0,0,0,0,0,0,0,0,0,0,0,0,0,0,0,0,0,0,0,0,0,0,0,0,0,0,0,0,0,0,0,0,0,0,0,0,0,0,0,0,0,0,0,0,0,0,0,0,0,0,0,0,0,0,0,0,0,0,0,0,0,0,0,0,0,0,0,0,0,0,0,0,0,0,0,0,0,0,0,0,0,0,0,0,0,0,0,0,0,0,0,0,0,0,0,0,0,0,0,0,0,0,0,0,0,0,0,0,0,0,0,0,0,0,0,0,0,0,0,0,0,0,0,0,0,0,0,0,0,0,0,0,0,0,0,0,0,0,0,0,0,0,0,0,0,0,0,0,0,0,0,0,0,0,0,0,0,0,0,0,0,0,0,0,0,0,0,0,0,0,0,0,0,0,0,0,0,0,0,0,0,0,0,0,0,0,0,0,0,0,0,0,0,0,0,0,0,0,0,0,0,0,0,0,0,0,0,0,0,0,0,0,0,0,0,0,0,0,0,0,0,0,0,0,0,0,0,0,0,0,0,0,0,0,0,0,0,0,0,0,0,0,0,0,0,0,0,0,0,0,0,0,0,0,0,0,0,0,0,0,0,0,0,0,0,0,0,0,0,0,0,0,0,0,0,0,0,0,0,0,0,0,0,0,0,0,0,0,0,0,0,0,0,0,0,0,0,0,0,0,0,0,0,0,0,0,0,0,0,0,0,0,0,0,0,0,0,0,0,0,0,0,0,0,0,0,0,0,0,0,0,0,0,0,0,0,0,0,0,0,0,0,0,0,0,0,0,0,0,0,0,0,0,0,0,0,0,0,0,0,0,0,0,0,0,0,0,0,0,0,0,0,0,0,0,0,0,0,0,0,0,0,0,0,0,0,0,0,0,0,0,0,0,0,0,0,0,0,0,0,0,0,0,0,0,0,0,0,0,0,0,0,0,0,0,0,0,0,0,0,0,0,0,0,0,0,0,0,0,0,0,0,0,0,0,0,0,0,0,0,0,0,0,0,0,0,0,0,0,0,0,0,0,0,0,0,0,0,0,0,0,0,0,0,0,0,0,0,0,0,0,0,0,0,0,0,0,0,0,0,0,0,0,0,0,0,0,0,0,0,0,0,0,0,0,0,0,0,0,0,0,0,0,0,0,0,0,0,0,0,0,0,0,0,0,0,0,0,0,0,0,0,0,0,0,0,0,0,0,0,0,0,0,0],"trees":[{"base_weights":[-1.04952445E-2,-1.006288E0,5.5837506E-1,-1.2860641E0,4.9358687E-1,2.539391E-1,9.15659E-1,3.5162684E-2,-1.4519488E0,-1.3664479E-2,5.7169102E-2,-4.6430394E-1,6.917938E-1,1.2810073E0,1.6046475E-1,-9.1300505E-1,-6.885856E-2,-6.838221E-2,2.291083E-1,9.1746116E-1,-4.191712E-2,6.3565785E-1,1.8628346E0,1.2347897E0,-6.9195473E-1,-5.0275013E-2,3.3554073E-2,3.385699E-2,-6.320713E-2,4.7506407E-2,-1.6224269E-2,5.0877575E-2,-4.3616515E-2,4.9242686E-2,8.4044605E-2,1.2600635E-3,7.442455E-2,-6.397599E-3,-6.2132522E-2],"categories":[],"categories_nodes":[],"categories_segments":[],"categories_sizes":[],"default_left":[0,0,0,0,0,0,0,0,0,0,0,0,0,0,0,0,0,0,0,0,0,0,0,0,0,0,0,0,0,0,0,0,0,0,0,0,0,0,0],"id":0,"left_children":[1,3,5,7,9,11,13,-1,15,-1,-1,17,19,21,23,25,-1,-1,27,29,-1,31,33,35,37,-1,-1,-1,-1,-1,-1,-1,-1,-1,-1,-1,-1,-1,-1],"loss_changes":[1.8642719E2,5.0936584E1,2.2420998E1,3.768141E1,1.5820873E1,3.6373703E1,2.607631E1,0E0,1.1879623E1,0E0,0E0,3.8448284E1,2.9083797E1,2.2716103E1,3.063521E1,2.1415236E1,0E0,0E0,3.3687653E1,2.3446579E1,0E0,3.665245E1,2.0816345E0,1.0876194E1,8.144325E0,0E0,0E0,0E0,0E0,0E0,0E0,0E0,0E0,0E0,0E0,0E0,0E0,0E0,0E0],"parents":[2147483647,0,0,1,1,2,2,3,3,4,4,5,5,6,6,8,8,11,11,12,12,13,13,14,14,15,15,18,18,19,19,21,21,22,22,23,23,24,24],"right_children":[2,4,6,8,10,12,14,-1,16,-1,-1,18,20,22,24,26,-1,-1,28,30,-1,32,34,36,38,-1,-1,-1,-1,-1,-1,-1,-1,-1,-1,-1,-1,-1,-1],"split_conditions":[-6.442559E-2,4.7402554E3,6.219178E-1,3.287671E-2,-6.3183587E-3,3.7586678E-2,8.8366196E-2,3.5162684E-2,-9.450177E-2,-1.3664479E-2,5.7169102E-2,-2.3521794E-2,1.8467E3,4E-1,-8.183155E-3,-1.1411043E-1,-6.885856E-2,-6.838221E-2,-2.2391455E-2,6.2068056E-2,-4.191712E-2,4.823E2,8.30137E-1,-1.7655563E-2,7.832252E-2,-5.0275013E-2,3.3554073E-2,3.385699E-2,-6.320713E-2,4.7506407E-2,-1.6224269E-2,5.0877575E-2,-4.3616515E-2,4.9242686E-2,8.4044605E-2,1.2600635E-3,7.442455E-2,-6.397599E-3,-6.2132522E-2],"split_indices":[5,15,17,17,4,0,0,0,0,0,0,4,3,12,5,5,0,0,5,4,0,3,17,5,4,0,0,0,0,0,0,0,0,0,0,0,0,0,0],"split_type":[0,0,0,0,0,0,0,0,0,0,0,0,0,0,0,0,0,0,0,0,0,0,0,0,0,0,0,0,0,0,0,0,0,0,0,0,0,0,0],"sum_hessian":[3.2702832E2,1.1868323E2,2.083451E2,1.0020157E2,1.8481667E1,1.1356706E2,9.477803E1,6.781899E0,9.341966E1,1.0043953E1,8.437714E0,4.290245E1,7.066461E1,6.3317554E1,3.1460476E1,3.2729603E1,6.0690063E1,1.4872585E1,2.8029867E1,6.3020103E1,7.644509E0,3.1093618E1,3.2223938E1,1.3772015E1,1.7688461E1,2.7643179E1,5.0864244E0,2.1337202E1,6.692663E0,5.2480396E1,1.0539705E1,2.2953358E1,8.140262E0,1.0628942E1,2.1594995E1,5.1260843E0,8.64593E0,1.1739428E1,5.949034E0],"tree_param":{"num_deleted":"0","num_feature":"18","num_nodes":"39","size_leaf_vector":"1"}},{"base_weights":[-6.399826E-2,-1.1425661E0,3.7477788E-1,-6.385386E-1,-1.6427662E0,-7.502231E-1,5.1002187E-1,-1.3151096E0,1.0182626E0,-3.0407071E-2,-6.9623455E-2,-1.4353127E0,4.90837E-2,-5.0170396E-2,6.217898E-1,-6.870347E-2,2.8160393E-2,1.8446254E-2,6.7505255E-2,-2.7604153E-2,-6.6354044E-2,7.3098266E-1,-9.164315E-1,1.738354E-2,6.1807483E-2,1.3206187E-3,-6.195389E-2],"categories":[],"categories_nodes":[],"categories_segments":[],"categories_sizes":[],"default_left":[0,0,0,0,0,0,0,0,0,0,0,0,0,0,0,0,0,0,0,0,0,0,0,0,0,0,0],"id":1,"left_children":[1,3,5,7,9,11,13,15,17,-1,-1,19,-1,-1,21,-1,-1,-1,-1,-1,-1,23,25,-1,-1,-1,-1],"loss_changes":[1.5021709E2,2.1865196E1,3.467691E1,5.4565308E1,2.3408356E0,3.5012802E1,4.0554012E1,2.9083527E1,4.332409E0,0E0,0E0,1.7382889E0,0E0,0E0,3.268373E1,0E0,0E0,0E0,0E0,0E0,0E0,4.2252342E1,8.022683E0,0E0,0E0,0E0,0E0],"parents":[2147483647,0,0,1,1,2,2,3,3,4,4,5,5,6,6,7,7,8,8,11,11,14,14,21,21,22,22],"right_children":[2,4,6,8,10,12,14,16,18,-1,-1,20,-1,-1,22,-1,-1,-1,-1,-1,-1,24,26,-1,-1,-1,-1],"split_conditions":[-8.044369E-2,-2.4399399E-3,-4.4328E3,-6.8543907E-3,-1.509113E-1,1.1E1,-5.6783378E-2,4.7006196E3,-1.455E3,-3.0407071E-2,-6.9623455E-2,-1.7317288E-2,4.90837E-2,-5.0170396E-2,1.09028615E-1,-6.870347E-2,2.8160393E-2,1.8446254E-2,6.7505255E-2,-2.7604153E-2,-6.6354044E-2,-1.9745E3,-4.6983343E-3,1.738354E-2,6.1807483E-2,1.3206187E-3,-6.195389E-2],"split_indices":[5,16,2,16,7,1,4,15,2,0,0,16,0,0,4,0,0,0,0,0,0,2,5,0,0,0,0],"split_type":[0,0,0,0,0,0,0,0,0,0,0,0,0,0,0,0,0,0,0,0,0,0,0,0,0,0,0],"sum_hessian":[3.15349E2,9.079275E1,2.2455624E2,4.6456886E1,4.433586E1,2.3531063E1,2.0102519E2,3.317581E1,1.3281074E1,5.4007397E0,3.8935123E1,1.771719E1,5.813872E0,1.1314029E1,1.8971115E2,2.7827696E1,5.348116E0,8.251665E0,5.029409E0,5.1345854E0,1.2582604E1,1.7768755E2,1.2023607E1,1.3148116E2,4.6206394E1,5.1226444E0,6.900963E0],"tree_param":{"num_deleted":"0","num_feature":"18","num_nodes":"27","size_leaf_vector":"1"}},{"base_weights":[8.205263E-3,-1.1630839E0,4.711379E-1,-1.3198057E0,6.883988E-3,9.09346E-1,1.11685865E-1,-1.4601574E0,-4.33408E-3,1.3429681E0,1.552256E-1,4.107973E-1,-1.1485994E0,-1.5758516E0,3.268469E-4,1.2075665E-4,1.453562E0,-2.9865319E-2,4.7227648E-1,-7.778127E-1,6.883811E-1,-6.626412E-2,-1.1346024E-2,-4.2566556E-2,-6.807285E-2,6.3940965E-2,3.224902E-2,4.333484E-2,-1.1894724E-3,-4.9985327E-2,-4.0126066E-3,-4.4281933E-2,3.6601666E-2],"categories":[],"categories_nodes":[],"categories_segments":[],"categories_sizes":[],"default_left":[0,0,0,0,0,0,0,0,0,0,0,0,0,0,0,0,0,0,0,0,0,0,0,0,0,0,0,0,0,0,0,0,0],"id":2,"left_children":[1,3,5,7,-1,9,11,13,-1,15,17,19,21,23,-1,-1,25,-1,27,29,31,-1,-1,-1,-1,-1,-1,-1,-1,-1,-1,-1,-1],"loss_changes":[1.765425E2,1.9636528E1,3.6575554E1,1.3746994E1,0E0,3.3962677E1,4.923052E1,1.2734207E1,0E0,9.693298E0,1.1628857E1,3.5333046E1,1.0341579E1,2.3360138E0,0E0,0E0,4.222E0,0E0,9.3237705E0,6.2522507E0,3.604073E1,0E0,0E0,0E0,0E0,0E0,0E0,0E0,0E0,0E0,0E0,0E0,0E0],"parents":[2147483647,0,0,1,1,2,2,3,3,5,5,6,6,7,7,9,9,10,10,11,11,12,12,13,13,16,16,18,18,19,19,20,20],"right_children":[2,4,6,8,-1,10,12,14,-1,16,18,20,22,24,-1,-1,26,-1,28,30,32,-1,-1,-1,-1,-1,-1,-1,-1,-1,-1,-1,-1],"split_conditions":[-8.044369E-2,4.80681E3,3.5569105E-1,1.2E1,6.883988E-3,9.8E2,1.4828545E-2,1.5675E4,-4.33408E-3,3.7823865E3,2.9041097E-1,3.068493E-1,7.938E2,-1.22372836E-1,3.268469E-4,1.2075665E-4,3.2076558E-1,-2.9865319E-2,-6.3749407E-3,-5.553565E-3,-6.0963158E-2,-6.626412E-2,-1.1346024E-2,-4.2566556E-2,-6.807285E-2,6.3940965E-2,3.224902E-2,4.333484E-2,-1.1894724E-3,-4.9985327E-2,-4.0126066E-3,-4.4281933E-2,3.6601666E-2],"split_indices":[5,15,14,1,0,3,16,13,0,15,17,17,3,7,0,0,14,0,5,16,5,0,0,0,0,0,0,0,0,0,0,0,0],"split_type":[0,0,0,0,0,0,0,0,0,0,0,0,0,0,0,0,0,0,0,0,0,0,0,0,0,0,0,0,0,0,0,0,0],"sum_hessian":[3.2370422E2,9.120738E1,2.3249684E2,8.170356E1,9.503824E0,1.0395601E2,1.2854083E2,7.296271E1,8.740853E0,6.542369E1,3.853232E1,1.04493996E2,2.4046827E1,6.762889E1,5.3338156E0,5.1353693E0,6.0288322E1,9.58818E0,2.894414E1,1.9373707E1,8.512029E1,1.4499861E1,9.546967E0,1.5383377E1,5.224551E1,4.793097E1,1.2357353E1,1.2621405E1,1.6322735E1,1.0835559E1,8.538147E0,9.056487E0,7.6063805E1],"tree_param":{"num_deleted":"0","num_feature":"18","num_nodes":"33","size_leaf_vector":"1"}},{"base_weights":[-3.8776357E-2,-9.8385096E-1,4.8516807E-1,-1.0747321E0,3.06504E-2,5.876438E-1,-5.139176E-1,-5.194973E-1,-6.125472E-2,2.9656285E-1,1.3787876E0,-6.456351E-2,4.5086208E-1,9.4768834E-1,-8.990572E-1,5.6496835E-1,-6.8811625E-2,1.5407975E0,9.290084E-3,3.393678E-2,-0E0,3.727301E-3,6.529558E-2,-1.0884409E-2,-6.431126E-2,3.6543433E-2,-8.356386E-3,2.8007634E-2,6.518161E-2],"categories":[],"categories_nodes":[],"categories_segments":[],"categories_sizes":[],"default_left":[0,0,0,0,0,0,0,0,0,0,0,0,0,0,0,0,0,0,0,0,0,0,0,0,0,0,0,0,0],"id":3,"left_children":[1,3,5,7,-1,9,11,13,-1,15,17,-1,19,21,23,25,-1,27,-1,-1,-1,-1,-1,-1,-1,-1,-1,-1,-1],"loss_changes":[1.6250272E2,1.9474182E1,2.1916656E1,2.7334747E1,0E0,4.363173E1,2.2152927E1,2.983117E1,0E0,7.756519E1,8.987663E0,0E0,2.0527802E0,6.1871643E0,1.7999554E1,3.421583E1,0E0,1.9580002E0,0E0,0E0,0E0,0E0,0E0,0E0,0E0,0E0,0E0,0E0,0E0],"parents":[2147483647,0,0,1,1,2,2,3,3,5,5,6,6,7,7,9,9,10,10,12,12,13,13,14,14,15,15,17,17],"right_children":[2,4,6,8,-1,10,12,14,-1,16,18,-1,20,22,24,26,-1,28,-1,-1,-1,-1,-1,-1,-1,-1,-1,-1,-1],"split_conditions":[-6.442559E-2,1.595805E4,1.6575898E-1,5.125273E-1,3.06504E-2,-2.0695E3,3.6955926E-1,-9.243992E-2,-6.125472E-2,-3.4763E3,4.6627653E-1,-6.456351E-2,2E-1,-1.030752E-1,7E0,5.30129E-3,-6.8811625E-2,-4.2181224E-2,9.290084E-3,3.393678E-2,-0E0,3.727301E-3,6.529558E-2,-1.0884409E-2,-6.431126E-2,3.6543433E-2,-8.356386E-3,2.8007634E-2,6.518161E-2],"split_indices":[5,13,0,14,0,2,6,0,0,2,14,0,12,0,1,16,0,5,0,0,0,0,0,0,0,0,0,0,0],"split_type":[0,0,0,0,0,0,0,0,0,0,0,0,0,0,0,0,0,0,0,0,0,0,0,0,0,0,0,0,0],"sum_hessian":[3.261132E2,1.16067444E2,2.1004575E2,1.1075892E2,5.308527E0,1.9096997E2,1.9075779E1,5.104668E1,5.9712242E1,1.4070314E2,5.026683E1,8.646513E0,1.0429266E1,1.012979E1,4.091689E1,1.2485652E2,1.5846613E1,4.366562E1,6.601209E0,5.079449E0,5.3498173E0,5.076486E0,5.053304E0,2.2520231E1,1.8396658E1,8.604401E1,3.8812515E1,5.1261096E0,3.8539513E1],"tree_param":{"num_deleted":"0","num_feature":"18","num_nodes":"29","size_leaf_vector":"1"}},{"base_weights":[-1.4139646E-2,-1.0632236E0,4.1341636E-1,-1.2557203E0,3.734147E-1,-1.1402785E0,5.450243E-1,-7.836305E-1,-6.4892426E-2,-2.6475647E-3,3.2188695E-2,-6.8732104E-3,-6.3348144E-2,4.702521E-3,7.073447E-1,-1.0530185E0,2.8769044E-2,6.508366E-2,-4.6162623E-1,5.8938336E-1,6.581648E-2,-5.627106E-2,-3.354722E-3,-4.1263424E-2,2.2899093E-2,2.9029246E-2,-1.6224658E-2],"categories":[],"categories_nodes":[],"categories_segments":[],"categories_sizes":[],"default_left":[0,0,0,0,0,0,0,0,0,0,0,0,0,0,0,0,0,0,0,0,0,0,0,0,0,0,0],"id":4,"left_children":[1,3,5,7,9,11,13,15,-1,-1,-1,-1,-1,17,19,21,-1,-1,23,25,-1,-1,-1,-1,-1,-1,-1],"loss_changes":[1.4407791E2,2.6283958E1,4.719547E1,1.2735886E1,2.3457537E0,7.313776E0,1.8430138E1,1.619088E1,0E0,0E0,0E0,0E0,0E0,3.8612785E1,1.674369E1,1.0950546E1,0E0,0E0,2.390743E1,2.0085197E1,0E0,0E0,0E0,0E0,0E0,0E0,0E0],"parents":[2147483647,0,0,1,1,2,2,3,3,4,4,5,5,6,6,7,7,13,13,14,14,15,15,18,18,19,19],"right_children":[2,4,6,8,10,12,14,16,-1,-1,-1,-1,-1,18,20,22,-1,-1,24,26,-1,-1,-1,-1,-1,-1,-1],"split_conditions":[-7.61558E-2,4.80681E3,-5.7574894E-2,-8.5771486E-2,-2.140747E-2,8.544E3,3.8593125E3,-1.11687906E-1,-6.4892426E-2,-2.6475647E-3,3.2188695E-2,-6.8732104E-3,-6.3348144E-2,3.3695527E3,1.2E1,-4.6381466E-3,2.8769044E-2,6.508366E-2,1.2385507E-1,1E1,6.581648E-2,-5.627106E-2,-3.354722E-3,-4.1263424E-2,2.2899093E-2,2.9029246E-2,-1.6224658E-2],"split_indices":[5,15,4,0,4,13,15,5,0,0,0,0,0,15,1,4,0,0,0,1,0,0,0,0,0,0,0],"split_type":[0,0,0,0,0,0,0,0,0,0,0,0,0,0,0,0,0,0,0,0,0,0,0,0,0,0,0],"sum_hessian":[3.19089E2,9.202835E1,2.2706062E2,8.132682E1,1.0701531E1,1.7073677E1,2.0998695E2,3.703898E1,4.428784E1,5.6041756E0,5.097356E0,5.8689075E0,1.1204769E1,4.8890026E1,1.6109692E2,3.171916E1,5.3198175E0,1.04073715E1,3.8482655E1,1.4464304E2,1.645388E1,2.2830763E1,8.888397E0,2.487282E1,1.3609836E1,1.2753734E2,1.7105705E1],"tree_param":{"num_deleted":"0","num_feature":"18","num_nodes":"27","size_leaf_vector":"1"}},{"base_weights":[-5.7909507E-3,-1.0003772E0,5.1963586E-1,-1.2447672E0,2.3977527E-1,6.2088245E-1,-7.893509E-1,-1.3216999E0,3.7932065E-3,1.2196785E0,-3.9707508E-2,3.7364137E-1,1.0223126E0,-6.4234614E-2,2.0667829E-2,3.445102E-3,-1.4069337E0,6.375164E-2,2.6197383E-2,-5.129265E-2,5.5574757E-1,1.1847678E0,-6.4534787E-3,-6.206205E-2,-1.2392207E-2,5.4066487E-2,1.3600841E-2,-6.692153E-4,5.6348246E-2],"categories":[],"categories_nodes":[],"categories_segments":[],"categories_sizes":[],"default_left":[0,0,0,0,0,0,0,0,0,0,0,0,0,0,0,0,0,0,0,0,0,0,0,0,0,0,0,0,0],"id":5,"left_children":[1,3,5,7,9,11,13,15,-1,17,-1,19,21,-1,-1,-1,23,-1,-1,-1,25,27,-1,-1,-1,-1,-1,-1,-1],"loss_changes":[1.731485E2,3.5121292E1,2.9190102E1,1.0134811E1,2.4941837E1,1.9502655E1,1.7922043E1,1.1156052E1,0E0,1.1462021E0,0E0,3.881344E1,1.4940018E1,0E0,0E0,0E0,1.2946335E1,0E0,0E0,0E0,1.9081879E1,1.8235779E1,0E0,0E0,0E0,0E0,0E0,0E0,0E0],"parents":[2147483647,0,0,1,1,2,2,3,3,4,4,5,5,6,6,7,7,9,9,11,11,12,12,16,16,20,20,21,21],"right_children":[2,4,6,8,10,12,14,16,-1,18,-1,20,22,-1,-1,-1,24,-1,-1,-1,26,28,-1,-1,-1,-1,-1,-1,-1],"split_conditions":[-6.202991E-2,4.7163315E3,6.2955374E-1,1.58125E4,4.7247338E-1,9.94695E3,4.7945204E-1,4.3835618E-2,3.7932065E-3,9.5E0,-3.9707508E-2,1.8356164E-1,1.6052885E-1,-6.4234614E-2,2.0667829E-2,3.445102E-3,1.2E1,6.375164E-2,2.6197383E-2,-5.129265E-2,5E0,3.8610168E3,-6.4534787E-3,-6.206205E-2,-1.2392207E-2,5.4066487E-2,1.3600841E-2,-6.692153E-4,5.6348246E-2],"split_indices":[5,15,14,13,14,13,17,17,0,3,0,17,0,0,0,0,1,0,0,0,1,15,0,0,0,0,0,0,0],"split_type":[0,0,0,0,0,0,0,0,0,0,0,0,0,0,0,0,0,0,0,0,0,0,0,0,0,0,0,0,0],"sum_hessian":[3.292458E2,1.1356457E2,2.1568123E2,9.4933464E1,1.8631107E1,2.0075542E2,1.4925814E1,8.9860794E1,5.0726686E0,1.042998E1,8.201128E0,1.255865E2,7.516891E1,9.089957E0,5.835856E0,5.0622706E0,8.479852E1,5.0712976E0,5.358682E0,1.1789511E1,1.13797E2,6.617058E1,8.998333E0,7.4476135E1,1.0322388E1,2.3044828E1,9.075217E1,1.0470708E1,5.5699867E1],"tree_param":{"num_deleted":"0","num_feature":"18","num_nodes":"29","size_leaf_vector":"1"}},{"base_weights":[-5.31078E-2,1.7018597E-1,-9.155555E-1,6.568478E-2,1.00363106E-1,-1.1301131E0,2.8866421E-2,-7.158122E-1,2.7615327E-1,-1.3434366E0,3.604922E-2,-1.0866818E0,3.176667E-1,1.2680498E-1,1.1910923E0,-1.4860611E0,-1.5271785E-2,9.61654E-3,-6.518697E-2,-3.115847E-2,5.411727E-2,-2.1611124E-2,1.363099E-2,1.0817963E-2,6.3196056E-2,-6.338174E-2,-2.7712557E-2],"categories":[],"categories_nodes":[],"categories_segments":[],"categories_sizes":[],"default_left":[0,0,0,0,0,0,0,0,0,0,0,0,0,0,0,0,0,0,0,0,0,0,0,0,0,0,0],"id":6,"left_children":[1,3,5,-1,7,9,-1,11,13,15,-1,17,19,21,23,25,-1,-1,-1,-1,-1,-1,-1,-1,-1,-1,-1],"loss_changes":[6.0541058E1,2.5304993E1,2.3568638E1,0E0,3.4494186E1,2.6218628E1,0E0,1.67475E1,2.6739182E1,6.4573364E0,0E0,2.3332287E1,1.4679149E1,2.46029E1,9.244717E0,2.21743E0,0E0,0E0,0E0,0E0,0E0,0E0,0E0,0E0,0E0,0E0,0E0],"parents":[2147483647,0,0,1,1,2,2,4,4,5,5,7,7,8,8,9,9,11,11,12,12,13,13,14,14,15,15],"right_children":[2,4,6,-1,8,10,-1,12,14,16,-1,18,20,22,24,26,-1,-1,-1,-1,-1,-1,-1,-1,-1,-1,-1],"split_conditions":[6.1632943E-1,3.3695527E3,3.4959022E-2,6.568478E-2,3.8685024E3,1.56246E4,2.8866421E-2,1.3448894E-1,1.2E1,8.304555E-3,3.604922E-2,9.2825E3,2.9633063E-1,-2.6301877E-3,4.56E1,4.9308145E-1,-1.5271785E-2,9.61654E-3,-6.518697E-2,-3.115847E-2,5.411727E-2,-2.1611124E-2,1.363099E-2,1.0817963E-2,6.3196056E-2,-6.338174E-2,-2.7712557E-2],"split_indices":[14,15,0,0,15,13,0,0,1,0,0,13,14,0,3,6,0,0,0,0,0,0,0,0,0,0,0],"split_type":[0,0,0,0,0,0,0,0,0,0,0,0,0,0,0,0,0,0,0,0,0,0,0,0,0,0,0],"sum_hessian":[3.121735E2,2.4851733E2,6.3656166E1,1.0170152E1,2.3834718E2,5.660843E1,7.0477376E0,4.159325E1,1.9675394E2,5.157962E1,5.028808E0,3.0642351E1,1.0950899E1,1.7021681E2,2.6537119E1,4.4352257E1,7.2273636E0,9.005537E0,2.1636816E1,5.3911633E0,5.559736E0,4.085447E1,1.2936235E2,8.459363E0,1.8077757E1,3.8454487E1,5.897769E0],"tree_param":{"num_deleted":"0","num_feature":"18","num_nodes":"27","size_leaf_vector":"1"}},{"base_weights":[3.397249E-3,-1.1770808E0,2.7510002E-1,-1.433243E0,1.9787315E-2,-6.0457725E-2,3.5513842E-1,-2.3928246E-2,-1.5091145E0,-6.20681E-1,5.030071E-1,-6.413022E-2,-2.3846189E-2,1.5886265E-1,-6.0008377E-2,5.9560853E-1,-4.676337E-2,-4.079164E-2,6.5475695E-2,1.4785704E-2,4.9568493E-2],"categories":[],"categories_nodes":[],"categories_segments":[],"categories_sizes":[],"default_left":[0,0,0,0,0,0,0,0,0,0,0,0,0,0,0,0,0,0,0,0,0],"id":7,"left_children":[1,3,5,7,-1,-1,9,-1,11,13,15,-1,-1,17,-1,19,-1,-1,-1,-1,-1],"loss_changes":[1.0399574E2,2.6775406E1,3.815107E1,2.2379608E0,0E0,0E0,3.686567E1,0E0,2.9262238E0,2.3481895E1,3.4812317E1,0E0,0E0,3.43294E1,0E0,2.9898872E1,0E0,0E0,0E0,0E0,0E0],"parents":[2147483647,0,0,1,1,2,2,3,3,6,6,8,8,9,9,10,10,13,13,15,15],"right_children":[2,4,6,8,-1,-1,10,-1,12,14,16,-1,-1,18,-1,20,-1,-1,-1,-1,-1],"split_conditions":[-4.4248E3,1.2E1,-6.0767945E-2,-4.607481E-2,1.9787315E-2,-6.0457725E-2,-2.4775079E-2,-2.3928246E-2,3.3622604E-2,-4.3208716E-3,1.3645315E-1,-6.413022E-2,-2.3846189E-2,-6.8543907E-3,-6.0008377E-2,-1.85E3,-4.676337E-2,-4.079164E-2,6.5475695E-2,1.4785704E-2,4.9568493E-2],"split_indices":[2,1,4,16,0,0,7,0,4,16,4,0,0,16,0,2,0,0,0,0,0],"split_type":[0,0,0,0,0,0,0,0,0,0,0,0,0,0,0,0,0,0,0,0,0],"sum_hessian":[3.2250937E2,5.964912E1,2.6286026E2,5.189917E1,7.749952E0,1.0450931E1,2.5240932E2,5.172573E0,4.6726597E1,3.2705364E1,2.1970395E2,4.1573997E1,5.1526003E0,1.7712288E1,1.4993074E1,2.0884178E2,1.0862179E1,9.988969E0,7.72332E0,1.558525E2,5.298928E1],"tree_param":{"num_deleted":"0","num_feature":"18","num_nodes":"21","size_leaf_vector":"1"}},{"base_weights":[-2.9726198E-2,-9.3402815E-1,3.0772164E-1,-1.1671776E0,2.3679069E-1,7.868629E-1,-9.107987E-3,-1.3136902E0,-4.392764E-3,5.1254876E-2,-5.439348E-2,1.4402517E0,3.1155595E-1,-9.074757E-1,2.994244E-1,-3.261283E-1,-6.069734E-2,2.0134287E-2,6.507756E-2,7.673587E-1,-4.5490566E-1,-1.3246576E0,2.787247E-2,-4.105084E-2,4.4605502E-1,3.3491496E-2,-5.3053875E-2,5.174307E-2,2.7578298E-3,4.6366556E-3,-3.6079932E-2,-6.465513E-2,-1.8981945E-2,-1.1823975E-2,2.8023807E-2],"categories":[],"categories_nodes":[],"categories_segments":[],"categories_sizes":[],"default_left":[0,0,0,0,0,0,0,0,0,0,0,0,0,0,0,0,0,0,0,0,0,0,0,0,0,0,0,0,0,0,0,0,0,0,0],"id":8,"left_children":[1,3,5,7,9,11,13,15,-1,-1,-1,17,19,21,23,25,-1,-1,-1,27,29,31,-1,-1,33,-1,-1,-1,-1,-1,-1,-1,-1,-1,-1],"loss_changes":[9.698498E1,2.3950539E1,3.519615E1,1.091069E1,2.6927965E1,2.800977E1,3.9161972E1,1.2059105E1,0E0,0E0,0E0,5.6952667E0,1.9503395E1,2.5175951E1,2.0799976E1,1.53389015E1,0E0,0E0,0E0,1.2556595E1,5.532062E0,6.2351837E0,0E0,0E0,1.823075E1,0E0,0E0,0E0,0E0,0E0,0E0,0E0,0E0,0E0,0E0],"parents":[2147483647,0,0,1,1,2,2,3,3,4,4,5,5,6,6,7,7,11,11,12,12,13,13,14,14,15,15,19,19,20,20,21,21,24,24],"right_children":[2,4,6,8,10,12,14,16,-1,-1,-1,18,20,22,24,26,-1,-1,-1,28,30,32,-1,-1,34,-1,-1,-1,-1,-1,-1,-1,-1,-1,-1],"split_conditions":[-8.044369E-2,4.7402554E3,3.2622612E-1,8.657534E-1,-3.1906907E-3,5.1997885E-2,3.369863E-1,-1.5679975E-1,-4.392764E-3,5.1254876E-2,-5.439348E-2,-3.097325E-2,6.3835615E-1,6.0639262E-2,-6.442559E-2,9.015196E-1,-6.069734E-2,2.0134287E-2,6.507756E-2,-3.1495E3,-2.984004E-3,4.665741E3,2.787247E-2,-4.105084E-2,4.5534775E-1,3.3491496E-2,-5.3053875E-2,5.174307E-2,2.7578298E-3,4.6366556E-3,-3.6079932E-2,-6.465513E-2,-1.8981945E-2,-1.1823975E-2,2.8023807E-2],"split_indices":[5,15,14,17,16,0,17,0,0,0,0,4,17,0,5,14,0,0,0,2,5,15,0,0,14,0,0,0,0,0,0,0,0,0,0],"split_type":[0,0,0,0,0,0,0,0,0,0,0,0,0,0,0,0,0,0,0,0,0,0,0,0,0,0,0,0,0,0,0,0,0,0,0],"sum_hessian":[3.1567517E2,8.538542E1,2.3028976E2,7.127975E1,1.4105675E1,9.120005E1,1.390897E2,6.230892E1,8.970824E0,8.684193E0,5.421482E0,3.7461887E1,5.3738167E1,3.5143536E1,1.03946175E2,1.11851225E1,5.11238E1,6.9275804E0,3.0534306E1,3.377939E1,1.9958778E1,2.807857E1,7.064968E0,9.686747E0,9.425942E1,5.199815E0,5.985307E0,1.8696896E1,1.5082495E1,8.993484E0,1.0965294E1,2.0146236E1,7.932332E0,2.3942867E1,7.031656E1],"tree_param":{"num_deleted":"0","num_feature":"18","num_nodes":"35","size_leaf_vector":"1"}},{"base_weights":[-2.6960297E-2,-8.480206E-1,4.0179953E-1,-1.0887305E0,3.7129745E-1,2.572193E-1,1.0060937E0,2.9858466E-2,-1.2126166E0,-2.3783231E-2,5.6437477E-2,-6.1882805E-2,3.9138988E-1,-5.9544317E-2,1.513765E0,-1.3355695E0,-3.103354E-1,-8.561758E-1,5.166482E-1,6.56955E-2,3.2785423E-2,1.1556305E-3,-5.7778936E-2,3.3268876E-2,-5.3103454E-2,-6.5731145E-2,1.7766828E-2,4.3629162E-2,1.5213246E-2],"categories":[],"categories_nodes":[],"categories_segments":[],"categories_sizes":[],"default_left":[0,0,0,0,0,0,0,0,0,0,0,0,0,0,0,0,0,0,0,0,0,0,0,0,0,0,0,0,0],"id":9,"left_children":[1,3,5,7,9,11,13,-1,15,-1,-1,-1,17,-1,19,21,23,25,27,-1,-1,-1,-1,-1,-1,-1,-1,-1,-1],"loss_changes":[1.10248535E2,3.201632E1,1.757933E1,2.1429138E1,1.9391273E1,4.1013565E1,5.1927437E1,0E0,8.828987E0,0E0,0E0,0E0,2.4889214E1,0E0,1.3643723E0,1.1214066E1,1.45959635E1,1.5790241E1,1.0633663E1,0E0,0E0,0E0,0E0,0E0,0E0,0E0,0E0,0E0,0E0],"parents":[2147483647,0,0,1,1,2,2,3,3,4,4,5,5,6,6,8,8,12,12,14,14,15,15,16,16,17,17,18,18],"right_children":[2,4,6,8,10,12,14,-1,16,-1,-1,-1,18,-1,20,22,24,26,28,-1,-1,-1,-1,-1,-1,-1,-1,-1,-1],"split_conditions":[-6.202991E-2,4.7163315E3,8.630137E-1,3.287671E-2,-6.3183587E-3,-5.7574894E-2,3.8610168E3,2.9858466E-2,1.486125E4,-2.3783231E-2,5.6437477E-2,-6.1882805E-2,1.246E2,-5.9544317E-2,3.8203727E-2,-8.0559954E-2,1.5E0,8.0273974E-1,9.416525E-3,6.56955E-2,3.2785423E-2,1.1556305E-3,-5.7778936E-2,3.3268876E-2,-5.3103454E-2,-6.5731145E-2,1.7766828E-2,4.3629162E-2,1.5213246E-2],"split_indices":[5,15,17,17,4,4,15,0,13,0,0,0,3,0,7,4,3,17,7,0,0,0,0,0,0,0,0,0,0],"split_type":[0,0,0,0,0,0,0,0,0,0,0,0,0,0,0,0,0,0,0,0,0,0,0,0,0,0,0,0,0],"sum_hessian":[3.1107788E2,1.06462074E2,2.0461581E2,8.906796E1,1.7394108E1,1.6639595E2,3.8219875E1,5.263547E0,8.380442E1,9.188979E0,8.205129E0,1.0736634E1,1.5565932E2,6.1025705E0,3.2117302E1,7.3233864E1,1.0570551E1,1.35973015E1,1.4206201E2,2.5822247E1,6.295056E0,5.3995275E0,6.783434E1,5.0194006E0,5.551151E0,8.353865E0,5.2434363E0,2.5775768E1,1.1628624E2],"tree_param":{"num_deleted":"0","num_feature":"18","num_nodes":"29","size_leaf_vector":"1"}},{"base_weights":[-6.1084524E-2,-7.9477584E-1,3.5014927E-1,-3.040904E-1,-1.2756684E0,-6.2716746E-1,4.4662035E-1,-1.0426979E0,1.2354805E0,3.1252587E-3,-1.4126377E0,7.736999E-3,-5.6972515E-2,7.696066E-1,9.423301E-2,-4.7647664E-1,-5.7205126E-2,2.2863904E-2,5.876175E-2,-2.6248097E-2,-5.9785165E-2,-4.7211793E-1,9.275527E-1,2.145013E-1,-5.7796795E-2,-4.3020476E-2,2.6831677E-2,2.6606036E-2,-5.9670817E-2,-1.207572E-2,4.1049395E-2,-6.1094807E-3,4.7023572E-2],"categories":[],"categories_nodes":[],"categories_segments":[],"categories_sizes":[],"default_left":[0,0,0,0,0,0,0,0,0,0,0,0,0,0,0,0,0,0,0,0,0,0,0,0,0,0,0,0,0,0,0,0,0],"id":10,"left_children":[1,3,5,7,9,11,13,15,17,-1,19,-1,-1,21,23,25,-1,-1,-1,-1,-1,27,29,31,-1,-1,-1,-1,-1,-1,-1,-1,-1],"loss_changes":[9.545543E1,2.6270203E1,1.9369324E1,6.684196E1,1.0809296E1,1.2519691E1,2.0911793E1,7.805279E0,1.9192944E0,0E0,2.0207443E0,0E0,0E0,1.9371635E1,1.681406E1,1.2908686E1,0E0,0E0,0E0,0E0,0E0,1.4362968E1,1.0797661E1,3.0015465E1,0E0,0E0,0E0,0E0,0E0,0E0,0E0,0E0,0E0],"parents":[2147483647,0,0,1,1,2,2,3,3,4,4,5,5,6,6,7,7,8,8,10,10,13,13,14,14,15,15,21,21,22,22,23,23],"right_children":[2,4,6,8,10,12,14,16,18,-1,20,-1,-1,22,24,26,-1,-1,-1,-1,-1,28,30,32,-1,-1,-1,-1,-1,-1,-1,-1,-1],"split_conditions":[-6.0963158E-2,-2.4399399E-3,-5.3562522E-2,-6.8543907E-3,3.2622612E-1,8.544E3,-3.8395086E-3,9.46095E3,-1.4510643E-1,3.1252587E-3,-1.5724114E-1,7.736999E-3,-5.6972515E-2,4E0,1.19229585E-1,9.0144E3,-5.7205126E-2,2.2863904E-2,5.876175E-2,-2.6248097E-2,-5.9785165E-2,2.2526307E-4,2.045482E-1,-2.0695E3,-5.7796795E-2,-4.3020476E-2,2.6831677E-2,2.6606036E-2,-5.9670817E-2,-1.207572E-2,4.1049395E-2,-6.1094807E-3,4.7023572E-2],"split_indices":[5,16,4,16,14,13,16,13,5,0,7,0,0,1,4,13,0,0,0,0,0,7,14,2,0,0,0,0,0,0,0,0,0],"split_type":[0,0,0,0,0,0,0,0,0,0,0,0,0,0,0,0,0,0,0,0,0,0,0,0,0,0,0,0,0,0,0,0,0],"sum_hessian":[3.143026E2,1.12643456E2,2.0165916E2,5.6664913E1,5.597854E1,1.7530073E1,1.8412909E2,3.8555595E1,1.8109318E1,5.1156025E0,5.0862934E1,8.949372E0,8.580702E0,9.530657E1,8.8822525E1,1.6674343E1,2.1881254E1,5.7216034E0,1.2387714E1,5.9737105E0,4.4889225E1,1.0458982E1,8.484759E1,8.3243546E1,5.5789824E0,1.1052892E1,5.6214523E0,5.062321E0,5.396661E0,6.076022E0,7.877156E1,6.0762722E1,2.2480822E1],"tree_param":{"num_deleted":"0","num_feature":"18","num_nodes":"33","size_leaf_vector":"1"}},{"base_weights":[2.4575384E-2,-7.9406464E-1,4.3207598E-1,-9.6992E-1,5.554782E-1,2.2092494E-1,9.670707E-1,-1.0839517E0,3.2640703E-2,-2.6072582E-2,6.0803782E-2,4.242603E-1,-7.9366213E-1,1.2858013E0,-2.4670405E-2,-1.2426748E0,2.2789553E-2,-8.8989556E-1,5.801864E-1,-6.46586E-2,1.822668E-1,1.4350377E0,2.475314E-2,-5.796716E-2,-1.5675932E-2,3.35498E-2,-2.78145E-2,-5.9916906E-2,2.467129E-3,2.8534696E-2,-4.410756E-2,3.133597E-2,-1.3109083E-2,6.1412018E-2,2.4746073E-2],"categories":[],"categories_nodes":[],"categories_segments":[],"categories_sizes":[],"default_left":[0,0,0,0,0,0,0,0,0,0,0,0,0,0,0,0,0,0,0,0,0,0,0,0,0,0,0,0,0,0,0,0,0,0,0],"id":11,"left_children":[1,3,5,7,9,11,13,15,-1,-1,-1,17,19,21,-1,23,25,27,29,-1,31,33,-1,-1,-1,-1,-1,-1,-1,-1,-1,-1,-1,-1,-1],"loss_changes":[1.03478134E2,2.5037636E1,2.307552E1,1.9566772E1,1.5577708E1,3.1246126E1,3.0244957E1,1.5360832E1,0E0,0E0,0E0,2.6241745E1,2.0761944E1,3.767395E0,0E0,1.2569527E1,7.490709E0,8.138692E0,2.608228E1,0E0,4.110194E0,2.0290833E0,0E0,0E0,0E0,0E0,0E0,0E0,0E0,0E0,0E0,0E0,0E0,0E0,0E0],"parents":[2147483647,0,0,1,1,2,2,3,3,4,4,5,5,6,6,7,7,11,11,12,12,13,13,15,15,16,16,17,17,18,18,20,20,21,21],"right_children":[2,4,6,8,10,12,14,16,-1,-1,-1,18,20,22,-1,24,26,28,30,-1,32,34,-1,-1,-1,-1,-1,-1,-1,-1,-1,-1,-1,-1,-1],"split_conditions":[-6.442559E-2,4.7945347E3,-1.85E3,1.625E4,-4.408E3,-3.4763E3,1.6052885E-1,1.2E1,3.2640703E-2,-2.6072582E-2,6.0803782E-2,1.9452055E-1,1.3467E3,1.0123E3,-2.4670405E-2,-7.61558E-2,-7.9011075E-2,-3.91E3,1.3725E3,-6.46586E-2,3.7519739E3,6.2068056E-2,2.475314E-2,-5.796716E-2,-1.5675932E-2,3.35498E-2,-2.78145E-2,-5.9916906E-2,2.467129E-3,2.8534696E-2,-4.410756E-2,3.133597E-2,-1.3109083E-2,6.1412018E-2,2.4746073E-2],"split_indices":[5,15,2,13,2,2,0,1,0,0,0,17,3,3,0,5,4,2,3,0,15,4,0,0,0,0,0,0,0,0,0,0,0,0,0],"split_type":[0,0,0,0,0,0,0,0,0,0,0,0,0,0,0,0,0,0,0,0,0,0,0,0,0,0,0,0,0,0,0,0,0,0,0],"sum_hessian":[3.0826974E2,1.0205481E2,2.0621494E2,9.060385E1,1.1450953E1,1.490055E2,5.720944E1,8.558813E1,5.015726E0,5.183724E0,6.267228E0,1.2469544E2,2.4310053E1,4.7834515E1,9.374925E0,7.482469E1,1.0763436E1,1.2658689E1,1.1203676E2,1.2889275E1,1.1420778E1,3.8024876E1,9.809639E0,5.9549637E1,1.5275057E1,5.025196E0,5.7382402E0,7.4373693E0,5.221319E0,1.0440943E2,7.627327E0,5.0859404E0,6.3348384E0,3.297235E1,5.0525255E0],"tree_param":{"num_deleted":"0","num_feature":"18","num_nodes":"35","size_leaf_vector":"1"}},{"base_weights":[7.9124846E-2,-8.522757E-1,3.9150685E-1,-9.874453E-1,4.609334E-2,-5.0906044E-1,4.8657376E-1,-1.1096054E0,-2.9509126E-3,5.5489715E-2,-5.0735477E-2,-1.0724541E0,4.337695E-2,-5.4956283E-2,5.5427176E-1,-1.2173048E0,2.9392885E-3,-5.918269E-2,-1.7751979E-2,6.1937845E-1,-6.755207E-1,-3.686794E-2,-5.6637987E-2,1.9100275E-2,4.1922454E-2,-5.520961E-2,5.9907287E-3],"categories":[],"categories_nodes":[],"categories_segments":[],"categories_sizes":[],"default_left":[0,0,0,0,0,0,0,0,0,0,0,0,0,0,0,0,0,0,0,0,0,0,0,0,0,0,0],"id":12,"left_children":[1,3,5,7,9,11,13,15,-1,-1,-1,17,-1,-1,19,21,-1,-1,-1,23,25,-1,-1,-1,-1,-1,-1],"loss_changes":[9.566671E1,1.0165951E1,2.132788E1,7.8259964E0,2.232181E1,2.2619213E1,2.8810467E1,8.264488E0,0E0,0E0,0E0,3.810835E0,0E0,0E0,1.772911E1,1.8738556E0,0E0,0E0,0E0,1.1875229E1,6.887307E0,0E0,0E0,0E0,0E0,0E0,0E0],"parents":[2147483647,0,0,1,1,2,2,3,3,4,4,5,5,6,6,7,7,11,11,14,14,15,15,19,19,20,20],"right_children":[2,4,6,8,10,12,14,16,-1,-1,-1,18,-1,-1,20,22,-1,-1,-1,24,26,-1,-1,-1,-1,-1,-1],"split_conditions":[-8.044369E-2,8.657534E-1,-4.4328E3,1.524017E-2,8.7945205E-1,8.547945E-1,-6.334227E-2,1.56435E4,-2.9509126E-3,5.5489715E-2,-5.0735477E-2,1.4086558E-2,4.337695E-2,-5.4956283E-2,1.3645315E-1,-7.268578E-2,2.9392885E-3,-5.918269E-2,-1.7751979E-2,-1.85E3,2.8016037E-1,-3.686794E-2,-5.6637987E-2,1.9100275E-2,4.1922454E-2,-5.520961E-2,5.9907287E-3],"split_indices":[5,17,2,7,17,17,4,13,0,0,0,7,0,0,4,7,0,0,0,2,0,0,0,0,0,0,0],"split_type":[0,0,0,0,0,0,0,0,0,0,0,0,0,0,0,0,0,0,0,0,0,0,0,0,0,0,0],"sum_hessian":[3.268165E2,8.156707E1,2.4524944E2,7.091003E1,1.0657039E1,2.290109E1,2.2234834E2,6.2261612E1,8.648417E0,5.285264E0,5.371775E0,1.7207075E1,5.694017E0,7.077316E0,2.1527103E2,5.7117653E1,5.143958E0,9.525682E0,7.681392E0,2.0499597E2,1.027506E1,2.5425274E1,3.1692379E1,1.5578612E2,4.9209846E1,5.245031E0,5.0300293E0],"tree_param":{"num_deleted":"0","num_feature":"18","num_nodes":"27","size_leaf_vector":"1"}},{"base_weights":[1.1558904E-3,-8.131845E-1,2.3153643E-1,-2.8018147E-1,-1.2860991E0,5.926036E-1,-4.7189765E-2,-8.281647E-1,3.737328E-2,-1.7836677E-2,-5.6249402E-2,3.5316876E-1,6.2823646E-2,5.627106E-2,-2.1218088E-1,-1.1101308E0,3.0667724E-3,-3.9301716E-2,5.028519E-1,-4.596273E-1,1.1004353E0,-1.9612584E-2,-5.2446578E-2,3.0998928E-2,-2.123673E-2,-4.6331055E-2,6.5353797E-3,1.1490394E-2,6.508594E-2],"categories":[],"categories_nodes":[],"categories_segments":[],"categories_sizes":[],"default_left":[0,0,0,0,0,0,0,0,0,0,0,0,0,0,0,0,0,0,0,0,0,0,0,0,0,0,0,0,0],"id":13,"left_children":[1,3,5,7,9,11,13,15,-1,-1,-1,17,-1,-1,19,21,-1,-1,23,25,27,-1,-1,-1,-1,-1,-1,-1,-1],"loss_changes":[5.7771397E1,1.6592873E1,2.4272488E1,2.2918716E1,2.7799187E0,2.382727E1,3.290489E1,6.190838E0,0E0,0E0,0E0,1.7575844E1,0E0,0E0,4.053767E1,1.4305344E0,0E0,0E0,2.2314037E1,4.583349E1,7.826351E0,0E0,0E0,0E0,0E0,0E0,0E0,0E0,0E0],"parents":[2147483647,0,0,1,1,2,2,3,3,4,4,5,5,6,6,7,7,11,11,14,14,15,15,18,18,19,19,20,20],"right_children":[2,4,6,8,10,12,14,16,-1,-1,-1,18,-1,-1,20,22,-1,-1,24,26,28,-1,-1,-1,-1,-1,-1,-1,-1],"split_conditions":[-2.4775079E-2,-2.4399399E-3,3.6648583E-1,-4.9769585E-3,1.4480953E-1,4.7006196E3,3.3695527E3,4.566254E3,3.737328E-2,-1.7836677E-2,-5.6249402E-2,3.7362458E3,6.2823646E-2,5.627106E-2,5.233333E-1,3.9199324E3,3.0667724E-3,-3.9301716E-2,4.3531367E3,3.535941E-2,6.520548E-1,-1.9612584E-2,-5.2446578E-2,3.0998928E-2,-2.123673E-2,-4.6331055E-2,6.5353797E-3,1.1490394E-2,6.508594E-2],"split_indices":[7,16,14,16,6,15,15,15,0,0,0,15,0,0,6,15,0,0,15,0,17,0,0,0,0,0,0,0,0],"split_type":[0,0,0,0,0,0,0,0,0,0,0,0,0,0,0,0,0,0,0,0,0,0,0,0,0,0,0,0,0],"sum_hessian":[3.062429E2,6.687872E1,2.3936418E2,3.228994E1,3.4588783E1,1.03944786E2,1.3541939E2,2.2526518E1,9.763421E0,5.0206385E0,2.9568144E1,8.4677155E1,1.9267633E1,1.2972059E1,1.2244733E2,1.7085829E1,5.440689E0,7.9048905E0,7.677226E1,1.0363644E2,1.881089E1,5.148538E0,1.1937292E1,6.1049236E1,1.5723029E1,4.852338E1,5.5113056E1,8.076729E0,1.073416E1],"tree_param":{"num_deleted":"0","num_feature":"18","num_nodes":"29","size_leaf_vector":"1"}},{"base_weights":[4.642246E-2,-8.5647124E-1,3.5594234E-1,-3.374581E-1,-5.5746015E-2,-9.277761E-1,4.8167798E-1,-8.424253E-1,1.0184397E0,-3.6944853E-4,-4.9657144E-2,5.6223366E-2,4.1398352E-1,-1.1825356E0,2.1579107E-2,2.1225369E-2,5.50038E-2,-3.0439502E-1,5.853619E-1,-1.8284393E-2,-5.3527158E-2,-3.845799E-2,1.4558924E-2,3.1033427E-2,5.1002074E-3],"categories":[],"categories_nodes":[],"categories_segments":[],"categories_sizes":[],"default_left":[0,0,0,0,0,0,0,0,0,0,0,0,0,0,0,0,0,0,0,0,0,0,0,0,0],"id":14,"left_children":[1,3,5,7,-1,9,11,13,15,-1,-1,-1,17,19,-1,-1,-1,21,23,-1,-1,-1,-1,-1,-1],"loss_changes":[8.679731E1,2.1456871E1,3.7753212E1,2.9412277E1,0E0,5.8888893E0,1.2463512E1,1.5275612E1,1.1192875E0,0E0,0E0,0E0,2.4653301E1,2.060192E0,0E0,0E0,0E0,1.7445742E1,1.3832188E1,0E0,0E0,0E0,0E0,0E0,0E0],"parents":[2147483647,0,0,1,1,2,2,3,3,5,5,6,6,7,7,8,8,12,12,13,13,17,17,18,18],"right_children":[2,4,6,8,-1,10,12,14,16,-1,-1,-1,18,20,-1,-1,-1,22,24,-1,-1,-1,-1,-1,-1],"split_conditions":[-8.044369E-2,-2.4399399E-3,-4.4328E3,-4.9769585E-3,-5.5746015E-2,7.40115E3,3.3695527E3,4.7006196E3,4.469248E3,-3.6944853E-4,-4.9657144E-2,5.6223366E-2,3.8593125E3,7.68805E3,2.1579107E-2,2.1225369E-2,5.50038E-2,-9.87588E-3,1.1876E3,-1.8284393E-2,-5.3527158E-2,-3.845799E-2,1.4558924E-2,3.1033427E-2,5.1002074E-3],"split_indices":[5,16,2,16,0,13,15,15,15,0,0,0,15,13,0,0,0,5,3,0,0,0,0,0,0],"split_type":[0,0,0,0,0,0,0,0,0,0,0,0,0,0,0,0,0,0,0,0,0,0,0,0,0],"sum_hessian":[3.0867368E2,7.826842E1,2.3040527E2,4.0730083E1,3.7538334E1,1.9914173E1,2.1049109E2,3.0007175E1,1.0722907E1,5.412319E0,1.4501854E1,1.2919706E1,1.975714E2,2.4254383E1,5.752792E0,5.6979213E0,5.024986E0,3.7792847E1,1.5977855E2,5.093568E0,1.9160816E1,1.891204E1,1.8880806E1,1.1219232E2,4.7586224E1],"tree_param":{"num_deleted":"0","num_feature":"18","num_nodes":"25","size_leaf_vector":"1"}},{"base_weights":[3.9038256E-2,-7.2523487E-1,3.2267913E-1,-1.0225623E0,5.529541E-1,-1.929524E-2,5.0318277E-1,-5.344099E-1,-5.434675E-2,1.1242931E0,-2.3592312E-2,3.9640638E-1,-5.5098206E-1,8.4018093E-1,2.0637807E-1,-8.4676117E-1,2.9774493E-2,5.9191413E-2,2.3493411E-2,-4.203038E-1,7.9592365E-1,-1.8768013E-1,-6.215294E-2,-1.4327311E-2,9.8773533E-1,7.841131E-1,-2.03699E-1,-1.6458174E-2,-5.098437E-2,1.3283981E-2,-4.1827206E-2,-4.8126632E-5,5.3934768E-2,-3.9224643E-2,1.5481215E-2,4.7650967E-2,2.5860542E-2,1.0910742E-2,4.5057148E-2,5.9617143E-3,-3.5021175E-2],"categories":[],"categories_nodes":[],"categories_segments":[],"categories_sizes":[],"default_left":[0,0,0,0,0,0,0,0,0,0,0,0,0,0,0,0,0,0,0,0,0,0,0,0,0,0,0,0,0,0,0,0,0,0,0,0,0,0,0,0,0],"id":15,"left_children":[1,3,5,7,9,11,13,15,-1,17,-1,19,21,23,25,27,-1,-1,-1,29,31,33,-1,-1,35,37,39,-1,-1,-1,-1,-1,-1,-1,-1,-1,-1,-1,-1,-1,-1],"loss_changes":[6.705888E1,3.242208E1,1.3992952E1,1.0293854E1,1.1412024E1,1.7642096E1,1.4523838E1,1.2474793E1,0E0,1.0856562E0,0E0,1.4950167E1,1.2316428E1,1.2585228E1,1.9210949E1,3.8406372E0,0E0,0E0,0E0,7.5935974E0,1.3536676E1,1.2726791E1,0E0,0E0,3.32518E0,5.4321632E0,1.1478811E1,0E0,0E0,0E0,0E0,0E0,0E0,0E0,0E0,0E0,0E0,0E0,0E0,0E0,0E0],"parents":[2147483647,0,0,1,1,2,2,3,3,4,4,5,5,6,6,7,7,9,9,11,11,12,12,13,13,14,14,15,15,19,19,20,20,21,21,24,24,25,25,26,26],"right_children":[2,4,6,8,10,12,14,16,-1,18,-1,20,22,24,26,28,-1,-1,-1,30,32,34,-1,-1,36,38,40,-1,-1,-1,-1,-1,-1,-1,-1,-1,-1,-1,-1,-1,-1],"split_conditions":[-7.61558E-2,4.7402554E3,2.5029704E-1,-9.450177E-2,-4.3208716E-3,1.740947E-1,-7.08823E-3,-1.1768565E-1,-5.434675E-2,-1.625E-1,-2.3592312E-2,1.3277312E-1,4E-1,-5.2531645E-2,2.9937106E-1,-1.5679975E-1,2.9774493E-2,5.9191413E-2,2.3493411E-2,-3.292578E-2,-6.3749407E-3,2E-1,-6.215294E-2,-1.4327311E-2,9.706E2,4.23032E3,7.851298E-2,-1.6458174E-2,-5.098437E-2,1.3283981E-2,-4.1827206E-2,-4.8126632E-5,5.3934768E-2,-3.9224643E-2,1.5481215E-2,4.7650967E-2,2.5860542E-2,1.0910742E-2,4.5057148E-2,5.9617143E-3,-3.5021175E-2],"split_indices":[5,15,6,0,16,6,16,5,0,5,0,6,12,5,6,0,0,0,0,5,5,12,0,0,3,15,0,0,0,0,0,0,0,0,0,0,0,0,0,0,0],"split_type":[0,0,0,0,0,0,0,0,0,0,0,0,0,0,0,0,0,0,0,0,0,0,0,0,0,0,0,0,0,0,0,0,0,0,0,0,0,0,0,0,0],"sum_hessian":[3.074482E2,8.270076E1,2.2474745E2,6.7319405E1,1.5381353E1,7.776202E1,1.4698543E2,2.862815E1,3.8691254E1,1.0323601E1,5.0577526E0,4.3678307E1,3.4083714E1,6.781698E1,7.916846E1,2.334256E1,5.285591E0,5.042871E0,5.28073E0,1.4248528E1,2.942978E1,2.5964392E1,8.119322E0,7.2040515E0,6.0612923E1,3.2588314E1,4.6580143E1,1.2658647E1,1.0683912E1,6.6077104E0,7.6408176E0,1.2381399E1,1.704838E1,1.0687048E1,1.5277344E1,3.6222137E1,2.4390785E1,1.3905501E1,1.8682814E1,3.0956083E1,1.562406E1],"tree_param":{"num_deleted":"0","num_feature":"18","num_nodes":"41","size_leaf_vector":"1"}},{"base_weights":[2.0800175E-2,2.3569874E-1,-6.483584E-1,1.221441E0,1.6509993E-1,-9.10456E-1,5.4393286E-1,1.929787E-2,6.1492175E-2,4.0230042E-1,-3.0085495E-1,-1.0748796E0,2.8293714E-2,4.9634054E-2,-1.2098978E-2,-5.8489833E-2,5.1763916E-1,-8.834624E-1,1.1268757E-1,-3.697576E-1,-1.3266379E0,1.3847114E-2,4.7578663E-2,-7.884016E-3,-5.526399E-2,2.4040055E-2,-2.6719877E-2,-4.8272133E-2,1.2639331E-2,-2.8509652E-2,-5.75428E-2],"categories":[],"categories_nodes":[],"categories_segments":[],"categories_sizes":[],"default_left":[0,0,0,0,0,0,0,0,0,0,0,0,0,0,0,0,0,0,0,0,0,0,0,0,0,0,0,0,0,0,0],"id":16,"left_children":[1,3,5,7,9,11,13,-1,-1,15,17,19,-1,-1,-1,-1,21,23,25,27,29,-1,-1,-1,-1,-1,-1,-1,-1,-1,-1],"loss_changes":[4.3879753E1,1.5751255E1,2.3700207E1,2.6049862E0,2.4117683E1,1.7082226E1,8.679088E0,0E0,0E0,3.1712807E1,1.7918974E1,9.285629E0,0E0,0E0,0E0,0E0,1.5188572E1,1.0095131E1,1.7113361E1,9.787302E0,1.5627441E0,0E0,0E0,0E0,0E0,0E0,0E0,0E0,0E0,0E0,0E0],"parents":[2147483647,0,0,1,1,2,2,3,3,4,4,5,5,6,6,9,9,10,10,11,11,16,16,17,17,18,18,19,19,20,20],"right_children":[2,4,6,8,10,12,14,-1,-1,16,18,20,-1,-1,-1,-1,22,24,26,28,30,-1,-1,-1,-1,-1,-1,-1,-1,-1,-1],"split_conditions":[5.615562E-1,4.109589E-2,3.4959022E-2,4.262698E3,5.061867E-3,1.5675E4,-2.6840717E-2,1.929787E-2,6.1492175E-2,1.7260274E-1,2.4859183E-2,3.8610168E3,2.8293714E-2,4.9634054E-2,-1.2098978E-2,-5.8489833E-2,1.2E1,3.4837675E-1,4.3435776E3,-3.4976844E-2,-2.3881024E-2,1.3847114E-2,4.7578663E-2,-7.884016E-3,-5.526399E-2,2.4040055E-2,-2.6719877E-2,-4.8272133E-2,1.2639331E-2,-2.8509652E-2,-5.75428E-2],"split_indices":[14,17,0,15,16,13,16,0,0,17,7,15,0,0,0,0,1,14,15,0,16,0,0,0,0,0,0,0,0,0,0],"split_type":[0,0,0,0,0,0,0,0,0,0,0,0,0,0,0,0,0,0,0,0,0,0,0,0,0,0,0,0,0,0,0],"sum_hessian":[3.03366E2,2.3022653E2,7.313945E1,1.4202682E1,2.1602385E2,6.0221424E1,1.2918029E1,5.104402E0,9.09828E0,1.433837E2,7.2640144E1,5.5026276E1,5.195146E0,6.8938584E0,6.0241704E0,7.6220527E0,1.3576164E2,2.9784538E1,4.285561E1,1.5231618E1,3.979466E1,1.09483734E2,2.6277912E1,1.3197161E1,1.6587378E1,2.6585056E1,1.6270552E1,6.5825906E0,8.649027E0,7.410804E0,3.2383854E1],"tree_param":{"num_deleted":"0","num_feature":"18","num_nodes":"31","size_leaf_vector":"1"}},{"base_weights":[3.542609E-2,-5.8862454E-1,3.3418688E-1,-8.771889E-1,7.623938E-1,-4.1097514E-2,3.911735E-1,-4.2182493E-1,-1.1894175E0,2.1297059E-3,5.0723676E-2,5.2746262E-2,3.1154612E-1,-7.399746E-1,3.04696E-2,-1.0874429E-2,-5.50504E-2,-7.8060573E-1,4.459992E-1,-1.0791829E-2,-5.0287995E-2,-5.2988958E-2,1.9265618E-2,4.2565525E-2,1.1929792E-2],"categories":[],"categories_nodes":[],"categories_segments":[],"categories_sizes":[],"default_left":[0,0,0,0,0,0,0,0,0,0,0,0,0,0,0,0,0,0,0,0,0,0,0,0,0],"id":17,"left_children":[1,3,5,7,9,-1,11,13,15,-1,-1,-1,17,19,-1,-1,-1,21,23,-1,-1,-1,-1,-1,-1],"loss_changes":[5.6543293E1,3.8941498E1,1.6261824E1,1.0909718E1,6.1646767E0,0E0,1.4031792E1,1.3661097E1,7.6226883E0,0E0,0E0,0E0,2.7266047E1,6.3154564E0,0E0,0E0,0E0,1.473361E1,1.4537556E1,0E0,0E0,0E0,0E0,0E0,0E0],"parents":[2147483647,0,0,1,1,2,2,3,3,4,4,6,6,7,7,8,8,12,12,13,13,17,17,18,18],"right_children":[2,4,6,8,10,-1,12,14,16,-1,-1,-1,18,20,-1,-1,-1,22,24,-1,-1,-1,-1,-1,-1],"split_conditions":[-6.442559E-2,4.7945347E3,1.1161796E-1,-8.5771486E-2,-4.8543014E-2,-4.1097514E-2,3.38674E3,-1.11687906E-1,1.740947E-1,2.1297059E-3,5.0723676E-2,5.2746262E-2,3.7362458E3,-1.22372836E-1,3.04696E-2,-1.0874429E-2,-5.50504E-2,3.8181818E-1,3E0,-1.0791829E-2,-5.0287995E-2,-5.2988958E-2,1.9265618E-2,4.2565525E-2,1.1929792E-2],"split_indices":[5,15,6,0,0,0,15,5,6,0,0,0,15,7,0,0,0,6,1,0,0,0,0,0,0],"split_type":[0,0,0,0,0,0,0,0,0,0,0,0,0,0,0,0,0,0,0,0,0,0,0,0,0],"sum_hessian":[3.0135712E2,9.714208E1,2.0421503E2,8.0395195E1,1.6746891E1,7.448886E0,1.9676614E2,3.3788406E1,4.660679E1,7.5135355E0,9.2333555E0,1.4227781E1,1.8253836E2,2.6992054E1,6.7963514E0,8.390841E0,3.8215946E1,1.9400455E1,1.6313791E2,1.5037402E1,1.1954652E1,1.3577368E1,5.823087E0,3.0145136E1,1.3299277E2],"tree_param":{"num_deleted":"0","num_feature":"18","num_nodes":"25","size_leaf_vector":"1"}},{"base_weights":[9.133519E-3,-8.081282E-1,2.2904582E-1,-3.526369E-1,-1.1980422E0,-7.235098E-1,3.1827188E-1,-1.0837504E0,7.2628915E-1,-1.6516881E-2,-5.2837428E-2,-5.6927845E-2,4.6473607E-2,-8.381196E-1,3.9753857E-1,-5.156926E-2,-1.8326128E-2,4.883782E-2,-0E0,5.241403E-3,-5.519718E-2,-2.1189043E-1,5.7976407E-1,2.4048055E-2,-4.322144E-2,1.6605226E-2,4.7282908E-2],"categories":[],"categories_nodes":[],"categories_segments":[],"categories_sizes":[],"default_left":[0,0,0,0,0,0,0,0,0,0,0,0,0,0,0,0,0,0,0,0,0,0,0,0,0,0,0],"id":18,"left_children":[1,3,5,7,9,11,13,15,17,-1,-1,-1,-1,19,21,-1,-1,-1,-1,-1,-1,23,25,-1,-1,-1,-1],"loss_changes":[5.5083652E1,1.0959312E1,2.0742731E1,2.5667025E1,2.6064186E0,2.9277466E1,2.0629187E1,1.7066154E0,4.684654E0,0E0,0E0,0E0,0E0,7.906766E0,2.3305855E1,0E0,0E0,0E0,0E0,0E0,0E0,3.501026E1,1.5298714E1,0E0,0E0,0E0,0E0],"parents":[2147483647,0,0,1,1,2,2,3,3,4,4,5,5,6,6,7,7,8,8,13,13,14,14,21,21,22,22],"right_children":[2,4,6,8,10,12,14,16,18,-1,-1,-1,-1,20,22,-1,-1,-1,-1,-1,-1,24,26,-1,-1,-1,-1],"split_conditions":[-2.4775079E-2,-2.4399399E-3,-5.7574894E-2,-8.578638E-3,8.7671235E-2,8.6027396E-1,-4.4328E3,3.5081707E-2,4.7637865E-1,-1.6516881E-2,-5.2837428E-2,-5.6927845E-2,4.6473607E-2,-1.1329557E-2,3.8593125E3,-5.156926E-2,-1.8326128E-2,4.883782E-2,-0E0,5.241403E-3,-5.519718E-2,3.4703625E3,8.2465756E-1,2.4048055E-2,-4.322144E-2,1.6605226E-2,4.7282908E-2],"split_indices":[7,16,4,16,17,17,2,4,14,0,0,0,0,16,15,0,0,0,0,0,0,15,17,0,0,0,0],"split_type":[0,0,0,0,0,0,0,0,0,0,0,0,0,0,0,0,0,0,0,0,0,0,0,0,0,0,0],"sum_hessian":[3.047793E2,6.3958897E1,2.408204E2,3.0495455E1,3.346344E1,1.9920841E1,2.2089957E2,1.8230274E1,1.226518E1,5.22928E0,2.8234161E1,1.4746373E1,5.1744676E0,1.3475514E1,2.0742406E2,1.2804056E1,5.4262185E0,6.836534E0,5.428646E0,5.0378027E0,8.437712E0,4.758172E1,1.5984233E2,2.4676323E1,2.2905396E1,1.2698725E2,3.285508E1],"tree_param":{"num_deleted":"0","num_feature":"18","num_nodes":"27","size_leaf_vector":"1"}},{"base_weights":[9.462144E-3,-5.7132953E-1,2.7130783E-1,-7.207325E-1,4.0128097E-2,5.1529413E-1,-1.714663E-1,-9.8066616E-1,1.8893823E-1,9.115524E-1,1.9556971E-1,-5.170228E-2,1.4199786E-2,-1.2082251E0,1.431626E-2,8.375469E-1,-2.9292788E-2,1.3207816E0,4.072532E-1,-6.8531185E-1,7.689619E-1,5.097111E-2,-1.5604706E-1,-1.5771529E-2,-5.1274065E-2,2.9049788E-2,-2.9912014E-2,5.3906277E-2,1.1074617E-2,3.8287256E-2,6.261744E-2,3.0195843E-2,-3.2172687E-2,3.013257E-2,-4.849718E-2,-6.6559995E-3,3.875495E-2,-2.1512158E-2,2.420788E-2],"categories":[],"categories_nodes":[],"categories_segments":[],"categories_sizes":[],"default_left":[0,0,0,0,0,0,0,0,0,0,0,0,0,0,0,0,0,0,0,0,0,0,0,0,0,0,0,0,0,0,0,0,0,0,0,0,0,0,0],"id":19,"left_children":[1,3,5,7,-1,9,11,13,15,17,19,-1,21,23,25,27,-1,29,31,33,35,-1,37,-1,-1,-1,-1,-1,-1,-1,-1,-1,-1,-1,-1,-1,-1,-1,-1],"loss_changes":[4.553723E1,2.2571041E1,2.2443668E1,2.0499283E1,0E0,1.6638111E1,1.5551171E1,1.5262405E1,1.243803E1,1.1516903E1,3.859746E1,0E0,1.412749E1,2.5908127E0,7.779522E0,2.9345322E0,0E0,1.1095123E0,1.2436556E1,2.3839302E1,8.877632E0,0E0,1.7046736E1,0E0,0E0,0E0,0E0,0E0,0E0,0E0,0E0,0E0,0E0,0E0,0E0,0E0,0E0,0E0,0E0],"parents":[2147483647,0,0,1,1,2,2,3,3,5,5,6,6,7,7,8,8,9,9,10,10,12,12,13,13,14,14,15,15,17,17,18,18,19,19,20,20,22,22],"right_children":[2,4,6,8,-1,10,12,14,16,18,20,-1,22,24,26,28,-1,30,32,34,36,-1,38,-1,-1,-1,-1,-1,-1,-1,-1,-1,-1,-1,-1,-1,-1,-1,-1],"split_conditions":[-2.986279E-3,1.625E4,1.0023E3,4.6772764E3,4.0128097E-2,3.6648583E-1,1.142E3,8.657534E-1,4.7247338E-1,3.8630137E-1,4.958904E-1,-5.170228E-2,1.1876E3,6.849315E-2,9.0958905E-1,9.5E0,-2.9292788E-2,2.0062417E-2,9.467639E-3,-4.027899E-2,4.5283332E-1,5.097111E-2,1.3803983E-2,-1.5771529E-2,-5.1274065E-2,2.9049788E-2,-2.9912014E-2,5.3906277E-2,1.1074617E-2,3.8287256E-2,6.261744E-2,3.0195843E-2,-3.2172687E-2,3.013257E-2,-4.849718E-2,-6.6559995E-3,3.875495E-2,-2.1512158E-2,2.420788E-2],"split_indices":[7,13,3,15,0,14,3,17,14,17,17,0,3,17,17,3,0,16,16,16,14,0,16,0,0,0,0,0,0,0,0,0,0,0,0,0,0,0,0],"split_type":[0,0,0,0,0,0,0,0,0,0,0,0,0,0,0,0,0,0,0,0,0,0,0,0,0,0,0,0,0,0,0,0,0,0,0,0,0,0,0],"sum_hessian":[2.9761182E2,9.199555E1,2.0561627E2,8.4576126E1,7.4194255E0,1.3260672E2,7.300957E1,6.5804665E1,1.8771458E1,5.8249706E1,7.435701E1,9.602789E0,6.3406776E1,5.3463425E1,1.2341244E1,1.1132835E1,7.6386228E0,3.1152617E1,2.709709E1,2.9171818E1,4.5185192E1,6.8451385E0,5.6561638E1,5.07484E0,4.8388584E1,6.4728947E0,5.8683486E0,5.000972E0,6.131863E0,1.4670608E1,1.6482008E1,2.1412533E1,5.6845565E0,7.6565337E0,2.1515284E1,7.8981557E0,3.7287037E1,3.7953293E1,1.8608343E1],"tree_param":{"num_deleted":"0","num_feature":"18","num_nodes":"39","size_leaf_vector":"1"}},{"base_weights":[2.7331652E-2,-5.701137E-1,3.203693E-1,-1.11472376E-1,-1.0859656E0,4.0594807E-1,-4.3822214E-1,-7.7095526E-1,9.671866E-1,4.3754396E-3,-4.972278E-2,-3.3631572E-1,5.263211E-1,3.3940736E-2,-5.0517835E-2,-1.9892594E-1,-5.044417E-2,5.217496E-2,7.0515303E-3,-6.0473606E-2,6.7228687E-1,7.630137E-1,4.0831342E-2,-2.9605009E-2,1.09073585E-2,5.4144043E-2,-0E0,-2.8801386E-3,3.5529155E-2,3.6891628E-2,-7.767887E-3],"categories":[],"categories_nodes":[],"categories_segments":[],"categories_sizes":[],"default_left":[0,0,0,0,0,0,0,0,0,0,0,0,0,0,0,0,0,0,0,0,0,0,0,0,0,0,0,0,0,0,0],"id":20,"left_children":[1,3,5,7,9,11,13,15,17,-1,-1,19,21,-1,-1,23,-1,-1,-1,-1,25,27,29,-1,-1,-1,-1,-1,-1,-1,-1],"loss_changes":[5.369747E1,2.3627296E1,1.3543446E1,3.958037E1,9.1251335E0,1.6787165E1,2.3651733E1,9.279076E0,5.251581E0,0E0,0E0,3.2407776E1,1.8307083E1,0E0,0E0,4.6402297E0,0E0,0E0,0E0,0E0,6.735936E0,1.1391392E1,1.1382591E1,0E0,0E0,0E0,0E0,0E0,0E0,0E0,0E0],"parents":[2147483647,0,0,1,1,2,2,3,3,4,4,5,5,6,6,7,7,8,8,11,11,12,12,15,15,20,20,21,21,22,22],"right_children":[2,4,6,8,10,12,14,16,18,-1,-1,20,22,-1,-1,24,-1,-1,-1,-1,26,28,30,-1,-1,-1,-1,-1,-1,-1,-1],"split_conditions":[-6.202991E-2,-2.4399399E-3,3.5017822E-2,-6.8543907E-3,5.7534248E-2,1.890411E-1,2.3059322E-1,9.46095E3,6.082192E-1,4.3754396E-3,-4.972278E-2,6.1083743E-3,9.15E2,3.3940736E-2,-5.0517835E-2,-3.1362765E-2,-5.044417E-2,5.217496E-2,7.0515303E-3,-6.0473606E-2,4.109589E-2,-4.0958386E-2,7.7185E3,-2.9605009E-2,1.09073585E-2,5.4144043E-2,-0E0,-2.8801386E-3,3.5529155E-2,3.6891628E-2,-7.767887E-3],"split_indices":[5,16,16,16,17,17,14,13,17,0,0,16,3,0,0,0,0,0,0,0,17,4,13,0,0,0,0,0,0,0,0],"split_type":[0,0,0,0,0,0,0,0,0,0,0,0,0,0,0,0,0,0,0,0,0,0,0,0,0,0,0,0,0,0,0],"sum_hessian":[3.048124E2,9.9883354E1,2.0492905E2,5.3620014E1,4.626334E1,1.846903E2,2.0238731E1,3.3510162E1,2.0109852E1,5.3353853E0,4.0927956E1,2.5405577E1,1.5928474E2,7.8464823E0,1.239225E1,1.6206366E1,1.7303797E1,1.3555153E1,6.5547004E0,1.1547357E1,1.3858221E1,1.0655699E2,5.2727745E1,7.3800354E0,8.82633E0,6.341522E0,7.516699E0,1.3846403E1,9.271059E1,1.0573568E1,4.215418E1],"tree_param":{"num_deleted":"0","num_feature":"18","num_nodes":"31","size_leaf_vector":"1"}},{"base_weights":[-1.9282598E-2,-8.399974E-1,1.6879985E-1,-1.1840913E0,5.73639E-1,2.618955E-1,-9.407849E-1,-1.8185103E-2,-5.49677E-2,-2.6905545E-4,4.372822E-2,-3.932929E-1,4.092161E-1,4.190051E-3,-6.211835E-2,7.599372E-1,-9.094284E-1,6.503564E-1,1.5970537E-1,5.4664034E-2,8.024341E-3,-5.02793E-2,2.377398E-2,-1.6717255E-2,3.165932E-2,3.538098E-2,-4.467312E-3],"categories":[],"categories_nodes":[],"categories_segments":[],"categories_sizes":[],"default_left":[0,0,0,0,0,0,0,0,0,0,0,0,0,0,0,0,0,0,0,0,0,0,0,0,0,0,0],"id":21,"left_children":[1,3,5,7,9,11,13,-1,-1,-1,-1,15,17,-1,-1,19,21,23,25,-1,-1,-1,-1,-1,-1,-1,-1],"loss_changes":[4.5520546E1,2.749113E1,2.492304E1,5.378853E0,3.5482898E0,2.1577957E1,1.2261793E1,0E0,0E0,0E0,0E0,2.517862E1,1.0750748E1,0E0,0E0,4.047129E0,1.5927246E1,1.4223057E1,1.8048128E1,0E0,0E0,0E0,0E0,0E0,0E0,0E0,0E0],"parents":[2147483647,0,0,1,1,2,2,3,3,4,4,5,5,6,6,11,11,12,12,15,15,16,16,17,17,18,18],"right_children":[2,4,6,8,10,12,14,-1,-1,-1,-1,16,18,-1,-1,20,22,24,26,-1,-1,-1,-1,-1,-1,-1,-1],"split_conditions":[-4.4328E3,1.2E1,1.8467E3,-2.1472473E-1,-1.00280195E-1,-8.044369E-2,-1.619636E-2,-1.8185103E-2,-5.49677E-2,-2.6905545E-4,4.372822E-2,-9.450177E-2,-1.4089468E-3,4.190051E-3,-6.211835E-2,6.148709E-1,4.706382E3,4E0,3E0,5.4664034E-2,8.024341E-3,-5.02793E-2,2.377398E-2,-1.6717255E-2,3.165932E-2,3.538098E-2,-4.467312E-3],"split_indices":[2,1,3,5,0,5,16,0,0,0,0,0,16,0,0,14,15,1,1,0,0,0,0,0,0,0,0],"split_type":[0,0,0,0,0,0,0,0,0,0,0,0,0,0,0,0,0,0,0,0,0,0,0,0,0,0,0],"sum_hessian":[2.9254126E2,5.399495E1,2.3854631E2,4.3612362E1,1.0382587E1,2.2086917E2,1.767713E1,9.825836E0,3.378653E1,5.279678E0,5.1029096E0,4.011495E1,1.8075423E2,6.7737427E0,1.0903388E1,1.2196817E1,2.791813E1,9.089816E1,8.985607E1,5.072724E0,7.124093E0,2.2864328E1,5.0538034E0,1.0295348E1,8.060281E1,2.3963621E1,6.589245E1],"tree_param":{"num_deleted":"0","num_feature":"18","num_nodes":"27","size_leaf_vector":"1"}},{"base_weights":[-1.642641E-2,-7.315214E-1,1.7092562E-1,-5.4590946E-1,-4.957474E-2,2.5702065E-1,-6.6868967E-1,-3.8752386E-1,-4.6837483E-2,7.1367395E-1,1.11887515E-1,-5.574792E-2,2.0088052E-2,2.4181375E-2,-5.854648E-1,3.700508E-1,5.482858E-2,-5.207857E-2,1.9061957E-1,-0E0,-3.5208616E-2,4.2280555E-2,-1.2695717E-2,-5.1414322E-2,1.0917077E-2],"categories":[],"categories_nodes":[],"categories_segments":[],"categories_sizes":[],"default_left":[0,0,0,0,0,0,0,0,0,0,0,0,0,0,0,0,0,0,0,0,0,0,0,0,0],"id":22,"left_children":[1,3,5,7,-1,9,11,13,-1,15,17,-1,-1,-1,19,21,-1,-1,23,-1,-1,-1,-1,-1,-1],"loss_changes":[3.8374565E1,4.7520103E0,1.6510582E1,3.8940802E0,0E0,1.351368E1,1.8823238E1,7.7980604E0,0E0,1.0475084E1,1.7717997E1,0E0,0E0,0E0,5.5708084E0,1.6425829E1,0E0,0E0,1.8538504E1,0E0,0E0,0E0,0E0,0E0,0E0],"parents":[2147483647,0,0,1,1,2,2,3,3,5,5,6,6,7,7,9,9,10,10,14,14,15,15,18,18],"right_children":[2,4,6,8,-1,10,12,14,-1,16,18,-1,-1,-1,20,22,-1,-1,24,-1,-1,-1,-1,-1,-1],"split_conditions":[-2.3086473E-2,8.49E1,6.4413804E-1,9.174323E-1,-4.957474E-2,2.431E2,4.7945204E-1,-1.5724114E-1,-4.6837483E-2,8.630137E-1,-6.0767945E-2,-5.574792E-2,2.0088052E-2,2.4181375E-2,4.3317926E-1,3.5234615E-1,5.482858E-2,-5.207857E-2,5.5634324E-4,-0E0,-3.5208616E-2,4.2280555E-2,-1.2695717E-2,-5.1414322E-2,1.0917077E-2],"split_indices":[7,3,14,14,0,3,17,7,0,17,4,0,0,0,14,14,0,0,7,0,0,0,0,0,0],"split_type":[0,0,0,0,0,0,0,0,0,0,0,0,0,0,0,0,0,0,0,0,0,0,0,0,0],"sum_hessian":[2.8408014E2,5.848412E1,2.2559601E2,4.449397E1,1.3990148E1,2.0535199E2,2.0244024E1,3.691859E1,7.5753813E0,4.8413918E1,1.5693808E2,1.2437759E1,7.806265E0,5.71522E0,3.120337E1,3.2915154E1,1.5498764E1,7.3917627E0,1.4954631E2,1.07661295E1,2.043724E1,1.6267197E1,1.6647957E1,7.0627065E0,1.4248361E2],"tree_param":{"num_deleted":"0","num_feature":"18","num_nodes":"25","size_leaf_vector":"1"}},{"base_weights":[3.650532E-2,-8.333777E-1,2.4196224E-1,-4.676167E-1,-5.0822165E-2,3.2718524E-1,-6.755201E-1,3.2820486E-2,-8.2721144E-1,5.517235E-1,4.706434E-2,-5.4820884E-2,1.5971005E-2,-3.1884542E-1,-4.9479414E-2,-3.9479397E-2,6.781555E-1,7.9796636E-1,-2.722076E-1,-4.399698E-2,1.4472389E-2,3.8418993E-2,7.841953E-3,1.9219352E-2,5.242491E-2,2.7161453E-2,-2.0703541E-2],"categories":[],"categories_nodes":[],"categories_segments":[],"categories_sizes":[],"default_left":[0,0,0,0,0,0,0,0,0,0,0,0,0,0,0,0,0,0,0,0,0,0,0,0,0,0,0],"id":23,"left_children":[1,3,5,7,-1,9,11,-1,13,15,17,-1,-1,19,-1,-1,21,23,25,-1,-1,-1,-1,-1,-1,-1,-1],"loss_changes":[5.395424E1,8.451817E0,1.9298351E1,1.6011707E1,0E0,1.4030258E1,1.6332119E1,0E0,4.9568996E0,2.4816582E1,2.4518902E1,0E0,0E0,7.518491E0,0E0,0E0,1.5416328E1,4.159157E0,1.7053392E1,0E0,0E0,0E0,0E0,0E0,0E0,0E0,0E0],"parents":[2147483647,0,0,1,1,2,2,3,3,5,5,6,6,8,8,9,9,10,10,13,13,16,16,17,17,18,18],"right_children":[2,4,6,8,-1,10,12,-1,14,16,18,-1,-1,20,-1,-1,22,24,26,-1,-1,-1,-1,-1,-1,-1,-1],"split_conditions":[-2.4775079E-2,-8.5771486E-2,6.4413804E-1,5.125273E-1,-5.0822165E-2,-6.756757E-4,4.7945204E-1,3.2820486E-2,-4.808617E-3,1.9726028E-1,3E0,-5.4820884E-2,1.5971005E-2,4.3302548E-1,-4.9479414E-2,-3.9479397E-2,3.642921E-2,1.2018947E-1,2.4187557E-1,-4.399698E-2,1.4472389E-2,3.8418993E-2,7.841953E-3,1.9219352E-2,5.242491E-2,2.7161453E-2,-2.0703541E-2],"split_indices":[7,0,14,14,0,16,17,0,16,17,1,0,0,6,0,0,7,0,14,0,0,0,0,0,0,0,0],"split_type":[0,0,0,0,0,0,0,0,0,0,0,0,0,0,0,0,0,0,0,0,0,0,0,0,0,0,0],"sum_hessian":[3.0008932E2,5.6658833E1,2.434305E2,3.2100506E1,2.4558325E1,2.2342903E2,2.0001469E1,6.6651087E0,2.5435398E1,1.232823E2,1.0014673E2,1.203627E1,7.9651995E0,1.22545395E1,1.318086E1,8.7838125E0,1.1449849E2,2.952356E1,7.062317E1,5.4878964E0,6.7666426E0,7.145507E1,4.3043415E1,1.9549238E1,9.974321E0,1.4036083E1,5.6587082E1],"tree_param":{"num_deleted":"0","num_feature":"18","num_nodes":"27","size_leaf_vector":"1"}},{"base_weights":[4.1990507E-2,-5.675297E-1,2.3567301E-1,-7.669674E-1,3.1826535E-1,6.1780936E-1,1.792479E-3,-9.1953975E-1,2.2605615E-2,-1.2308268E-2,3.763736E-2,-3.055759E-2,7.4435365E-1,5.2307133E-2,-1.4471045E-1,-1.1595658E0,8.382295E-3,1.0453792E0,2.1045548E-1,-5.6852347E-1,4.116688E-1,-1.4438643E-2,-5.0178304E-2,5.3054903E-2,1.25581985E-2,3.59125E-2,-9.404127E-3,-1.3156868E-2,-6.423034E-2,-3.3734318E-2,2.3869017E-2],"categories":[],"categories_nodes":[],"categories_segments":[],"categories_sizes":[],"default_left":[0,0,0,0,0,0,0,0,0,0,0,0,0,0,0,0,0,0,0,0,0,0,0,0,0,0,0,0,0,0,0],"id":24,"left_children":[1,3,5,7,9,11,13,15,-1,-1,-1,-1,17,-1,19,21,-1,23,25,27,29,-1,-1,-1,-1,-1,-1,-1,-1,-1,-1],"loss_changes":[3.4545574E1,1.2748304E1,1.9800179E1,1.2333286E1,5.644257E0,1.5291832E1,2.6904833E1,1.4550968E1,0E0,0E0,0E0,0E0,1.2145649E1,0E0,2.9923004E1,2.6802635E0,0E0,9.557713E0,9.279468E0,1.7160088E1,1.3226517E1,0E0,0E0,0E0,0E0,0E0,0E0,0E0,0E0,0E0,0E0],"parents":[2147483647,0,0,1,1,2,2,3,3,4,4,5,5,6,6,7,7,12,12,14,14,15,15,17,17,18,18,19,19,20,20],"right_children":[2,4,6,8,10,12,14,16,-1,-1,-1,-1,18,-1,20,22,-1,24,26,28,30,-1,-1,-1,-1,-1,-1,-1,-1,-1,-1],"split_conditions":[-8.044369E-2,4.7402554E3,3.2622612E-1,1.57625E4,3.69863E-1,3.723632E3,3.3695527E3,8.657534E-1,2.2605615E-2,-1.2308268E-2,3.763736E-2,-3.055759E-2,9.8E2,5.2307133E-2,3.2408932E-1,1.387689E-1,8.382295E-3,6.3835615E-1,4.0387131E3,-3.5958E3,-5.418631E-2,-1.4438643E-2,-5.0178304E-2,5.3054903E-2,1.25581985E-2,3.59125E-2,-9.404127E-3,-1.3156868E-2,-6.423034E-2,-3.3734318E-2,2.3869017E-2],"split_indices":[5,15,14,13,17,15,15,17,0,0,0,0,3,0,6,6,0,17,15,2,5,0,0,0,0,0,0,0,0,0,0],"split_type":[0,0,0,0,0,0,0,0,0,0,0,0,0,0,0,0,0,0,0,0,0,0,0,0,0,0,0,0,0,0,0],"sum_hessian":[2.907748E2,6.952684E1,2.2124797E2,5.695125E1,1.2575594E1,8.321471E1,1.3803326E2,5.144392E1,5.5073256E0,6.4433193E0,6.132275E0,6.492736E0,7.672197E1,1.3192819E1,1.2484045E2,4.2475883E1,8.968039E0,4.8328056E1,2.8393917E1,7.095189E1,5.388856E1,5.1331997E0,3.734268E1,3.4228325E1,1.4099732E1,1.0855972E1,1.7537943E1,5.8785854E1,1.2166034E1,6.3983345E0,4.7490227E1],"tree_param":{"num_deleted":"0","num_feature":"18","num_nodes":"31","size_leaf_vector":"1"}},{"base_weights":[-7.679462E-3,-9.0655553E-1,1.7373769E-1,-1.1712263E0,3.4784015E-2,5.073216E-2,9.812846E-2,-1.2812763E-3,-5.3018358E-2,-5.706192E-1,2.706543E-1,-1.022048E0,5.7851756E-1,4.074979E-1,-2.2684549E-1,-1.4232092E-2,-5.7272606E-2,-9.101455E-3,4.659562E-2,2.4391646E-2,-8.656426E-3,1.5660657E-2,-3.8465906E-2],"categories":[],"categories_nodes":[],"categories_segments":[],"categories_sizes":[],"default_left":[0,0,0,0,0,0,0,0,0,0,0,0,0,0,0,0,0,0,0,0,0,0,0],"id":25,"left_children":[1,3,5,7,-1,-1,9,-1,-1,11,13,15,17,19,21,-1,-1,-1,-1,-1,-1,-1,-1],"loss_changes":[4.7630226E1,2.4114403E1,1.9816362E1,7.40818E0,0E0,0E0,2.6441145E1,0E0,0E0,2.5006561E1,1.2508824E1,8.63586E0,6.8938212E0,1.8263025E1,1.8504612E1,0E0,0E0,0E0,0E0,0E0,0E0,0E0,0E0],"parents":[2147483647,0,0,1,1,2,2,3,3,6,6,9,9,10,10,11,11,12,12,13,13,14,14],"right_children":[2,4,6,8,-1,-1,10,-1,-1,12,14,16,18,20,22,-1,-1,-1,-1,-1,-1,-1,-1],"split_conditions":[-4.4328E3,5.712E-1,3.38674E3,3.8590747E-1,3.4784015E-2,5.073216E-2,3.8593125E3,-1.2812763E-3,-5.3018358E-2,1.2385507E-1,1.0738954E-1,3.4860527E3,2.9996818E-1,1.82454E-2,2.3059322E-1,-1.4232092E-2,-5.7272606E-2,-9.101455E-3,4.659562E-2,2.4391646E-2,-8.656426E-3,1.5660657E-2,-3.8465906E-2],"split_indices":[2,6,15,14,0,0,15,0,0,0,0,15,14,16,14,0,0,0,0,0,0,0,0],"split_type":[0,0,0,0,0,0,0,0,0,0,0,0,0,0,0,0,0,0,0,0,0,0,0],"sum_hessian":[2.8966656E2,4.8065975E1,2.416006E2,4.2177807E1,5.8881655E0,1.4505977E1,2.2709462E2,5.2507505E0,3.692706E1,4.5979805E1,1.8111482E2,3.315339E1,1.2826415E1,1.4234337E2,3.8771442E1,1.3429894E1,1.9723495E1,5.5872946E0,7.23912E0,1.0762912E2,3.4714256E1,2.123366E1,1.7537783E1],"tree_param":{"num_deleted":"0","num_feature":"18","num_nodes":"23","size_leaf_vector":"1"}},{"base_weights":[-1.0906984E-2,-7.706558E-1,1.5902147E-1,-1.1492299E0,2.9289028E-2,-5.1168956E-2,2.2893363E-1,-4.947841E-2,-1.6263556E-2,1.0181347E0,1.1051318E-1,5.3054735E-2,-0E0,2.0033865E-1,-1.1033614E0,-2.2006992E-3,3.0021928E-2,-5.6083005E-2,-1.954478E-2],"categories":[],"categories_nodes":[],"categories_segments":[],"categories_sizes":[],"default_left":[0,0,0,0,0,0,0,0,0,0,0,0,0,0,0,0,0,0,0],"id":26,"left_children":[1,3,5,7,-1,-1,9,-1,-1,11,13,-1,-1,15,17,-1,-1,-1,-1],"loss_changes":[3.649614E1,3.0291895E1,2.3372643E1,2.0515823E0,0E0,0E0,2.04104E1,0E0,0E0,8.864563E0,2.1199577E1,0E0,0E0,2.5518242E1,1.5847454E0,0E0,0E0,0E0,0E0],"parents":[2147483647,0,0,1,1,2,2,3,3,6,6,9,9,10,10,13,13,14,14],"right_children":[2,4,6,8,-1,-1,10,-1,-1,12,14,-1,-1,16,18,-1,-1,-1,-1],"split_conditions":[-4.4248E3,4.9308145E-1,-6.0767945E-2,2.401832E-2,2.9289028E-2,-5.1168956E-2,7.7225E3,-4.947841E-2,-1.6263556E-2,1E1,1.249377E-1,5.3054735E-2,-0E0,-2.0695E3,1.8798073E-1,-2.2006992E-3,3.0021928E-2,-5.6083005E-2,-1.954478E-2],"split_indices":[2,6,4,4,0,0,13,0,0,1,4,0,0,2,4,0,0,0,0],"split_type":[0,0,0,0,0,0,0,0,0,0,0,0,0,0,0,0,0,0,0],"sum_hessian":[2.802672E2,5.0689255E1,2.2957797E2,4.0731014E1,9.95824E0,9.774166E0,2.198038E2,3.571197E1,5.019043E0,2.7577078E1,1.9222672E2,2.0877188E1,6.6998897E0,1.7983635E2,1.2390366E1,1.2332064E2,5.6515717E1,7.367126E0,5.0232396E0],"tree_param":{"num_deleted":"0","num_feature":"18","num_nodes":"19","size_leaf_vector":"1"}},{"base_weights":[4.803197E-2,-4.3579766E-1,2.5018E-1,-6.622369E-1,3.929311E-1,2.9770523E-1,-5.239158E-2,-8.8879377E-1,1.6737184E-1,4.6517715E-2,-2.6285943E-2,-4.0164452E-2,4.7235212E-1,1.180513E-2,-4.574682E-2,-3.1705398E-2,2.9009609E-2,4.615358E-2,-2.2986351E-1,9.664625E-1,2.8074655E-1,2.678298E-2,-1.8387675E-2,5.377293E-2,2.3410762E-2,2.519447E-2,-8.112528E-3],"categories":[],"categories_nodes":[],"categories_segments":[],"categories_sizes":[],"default_left":[0,0,0,0,0,0,0,0,0,0,0,0,0,0,0,0,0,0,0,0,0,0,0,0,0,0,0],"id":27,"left_children":[1,3,5,7,9,11,-1,13,15,-1,-1,17,19,-1,-1,-1,-1,-1,21,23,25,-1,-1,-1,-1,-1,-1],"loss_changes":[2.8505516E1,1.6394314E1,1.553843E1,1.297928E1,1.6139423E1,1.18926525E1,0E0,1.6588165E1,8.766325E0,0E0,0E0,1.5811847E1,1.2142944E1,0E0,0E0,0E0,0E0,0E0,1.2790314E1,4.2708206E0,1.6544256E1,0E0,0E0,0E0,0E0,0E0,0E0],"parents":[2147483647,0,0,1,1,2,2,3,3,4,4,5,5,7,7,8,8,11,11,12,12,18,18,19,19,20,20],"right_children":[2,4,6,8,10,12,-1,14,16,-1,-1,18,20,-1,-1,-1,-1,-1,22,24,26,-1,-1,-1,-1,-1,-1],"split_conditions":[-3.510193E-3,4.6772764E3,2.5111E3,8.657534E-1,4.031439E-1,2.4684186E-1,-5.239158E-2,-1.5679975E-1,3.9603525E3,4.6517715E-2,-2.6285943E-2,3.4261257E3,2.8235295E-1,1.180513E-2,-4.574682E-2,-3.1705398E-2,2.9009609E-2,4.615358E-2,2.903184E-1,8.064E2,-8.4331253E-4,2.678298E-2,-1.8387675E-2,5.377293E-2,2.3410762E-2,2.519447E-2,-8.112528E-3],"split_indices":[7,15,3,17,14,6,0,0,15,0,0,15,6,0,0,0,0,0,14,3,16,0,0,0,0,0,0],"split_type":[0,0,0,0,0,0,0,0,0,0,0,0,0,0,0,0,0,0,0,0,0,0,0,0,0,0,0],"sum_hessian":[2.8952695E2,8.483316E1,2.0469379E2,6.68805E1,1.7952654E1,1.994895E2,5.204281E0,5.257269E1,1.4307814E1,1.0350498E1,7.6021547E0,6.8046005E1,1.314435E2,9.215537E0,4.3357155E1,5.0380363E0,9.269777E0,8.559729E0,5.9486275E1,3.5452656E1,9.5990845E1,1.1628691E1,4.7857586E1,1.6403559E1,1.9049095E1,5.56892E1,4.0301643E1],"tree_param":{"num_deleted":"0","num_feature":"18","num_nodes":"27","size_leaf_vector":"1"}},{"base_weights":[-4.152507E-2,-6.970984E-1,1.5926075E-1,-9.015546E-1,2.8859177E-1,-3.6278453E-2,4.7877836E-1,-2.6237306E-1,-4.906047E-2,3.0811833E-2,-6.940761E-3,5.188864E-1,-2.3779039E-1,-3.6382716E-2,6.0521317E-1,2.9983342E-1,-4.4081986E-2,-1.2212851E-2,8.1181294E-1,-1.0832909E0,-1.9576918E-2,7.058135E-1,-2.0386457E-2,-4.5064297E-3,3.0032532E-2,4.8847556E-2,1.7072648E-2,-8.904431E-3,-6.279733E-2,4.537E-2,-7.1438146E-3,4.09817E-2,1.3216691E-2],"categories":[],"categories_nodes":[],"categories_segments":[],"categories_sizes":[],"default_left":[0,0,0,0,0,0,0,0,0,0,0,0,0,0,0,0,0,0,0,0,0,0,0,0,0,0,0,0,0,0,0,0,0],"id":28,"left_children":[1,3,5,7,9,11,13,15,-1,-1,-1,17,19,-1,21,23,-1,-1,25,27,29,31,-1,-1,-1,-1,-1,-1,-1,-1,-1,-1,-1],"loss_changes":[3.6295727E1,1.3352562E1,1.3233791E1,1.0720356E1,2.8159297E0,1.4809128E1,1.4616352E1,9.632793E0,0E0,0E0,0E0,8.798954E0,1.7823122E1,0E0,8.70904E0,2.458074E0,0E0,0E0,3.4652424E0,7.7857704E0,1.4503579E1,7.7366943E0,0E0,0E0,0E0,0E0,0E0,0E0,0E0,0E0,0E0,0E0,0E0],"parents":[2147483647,0,0,1,1,2,2,3,3,4,4,5,5,6,6,7,7,11,11,12,12,14,14,15,15,18,18,19,19,20,20,21,21],"right_children":[2,4,6,8,10,12,14,16,-1,-1,-1,18,20,-1,22,24,-1,-1,26,28,30,32,-1,-1,-1,-1,-1,-1,-1,-1,-1,-1,-1],"split_conditions":[-7.61558E-2,4.7402554E3,9.96155E3,-1.0872127E-1,-1.6492857E-1,1.7720771E-1,1.9328776E-1,7.8845465E-1,-4.906047E-2,3.0811833E-2,-6.940761E-3,4.1092085E3,2.5029704E-1,-3.6382716E-2,1.58125E4,-3.925E3,-4.4081986E-2,-1.2212851E-2,4.497544E3,4.61E2,2E0,5.9117038E-2,-2.0386457E-2,-4.5064297E-3,3.0032532E-2,4.8847556E-2,1.7072648E-2,-8.904431E-3,-6.279733E-2,4.537E-2,-7.1438146E-3,4.09817E-2,1.3216691E-2],"split_indices":[5,15,13,0,5,6,6,14,0,0,0,15,6,0,13,2,0,0,15,3,1,0,0,0,0,0,0,0,0,0,0,0,0],"split_type":[0,0,0,0,0,0,0,0,0,0,0,0,0,0,0,0,0,0,0,0,0,0,0,0,0,0,0,0,0,0,0,0,0],"sum_hessian":[2.734889E2,6.366065E1,2.0982825E2,5.287905E1,1.0781596E1,1.3052357E2,7.9304665E1,1.8535467E1,3.4343582E1,5.058309E0,5.7232876E0,3.4208378E1,9.63152E1,6.036341E0,7.326832E1,1.1415817E1,7.11965E0,8.869254E0,2.5339125E1,1.8851118E1,7.746408E1,6.7622986E1,5.6453333E0,6.238315E0,5.1775026E0,1.1102204E1,1.423692E1,7.409514E0,1.1441604E1,8.56383E0,6.890025E1,3.5492546E1,3.213044E1],"tree_param":{"num_deleted":"0","num_feature":"18","num_nodes":"33","size_leaf_vector":"1"}},{"base_weights":[6.222298E-2,-4.889341E-1,2.9461566E-1,4.2724874E-2,-6.2098515E-1,2.1064354E-1,9.7548664E-1,-2.1563712E-1,-8.745275E-1,2.6678377E-1,-5.6575324E-2,5.8687758E-2,1.0767507E-2,4.519441E-2,-6.1610585E-1,-1.1138402E0,-2.7744624E-1,1.1869454E-1,7.496578E-1,1.0430529E-3,-4.8859037E-2,-1.4669577E-2,-4.920582E-2,7.4291336E-3,-3.0498257E-2,1.1880231E-2,-2.0743424E-2,4.0320855E-2,-3.355266E-2],"categories":[],"categories_nodes":[],"categories_segments":[],"categories_sizes":[],"default_left":[0,0,0,0,0,0,0,0,0,0,0,0,0,0,0,0,0,0,0,0,0,0,0,0,0,0,0,0,0],"id":29,"left_children":[1,3,5,-1,7,9,11,13,15,17,-1,-1,-1,-1,19,21,23,25,27,-1,-1,-1,-1,-1,-1,-1,-1,-1,-1],"loss_changes":[3.6812893E1,1.813718E1,1.1238499E1,0E0,7.845434E0,1.6814999E1,7.0014057E0,1.7870129E1,6.4483986E0,1.2429647E1,0E0,0E0,0E0,0E0,1.000255E1,2.343834E0,3.627603E0,1.561482E1,1.77E1,0E0,0E0,0E0,0E0,0E0,0E0,0E0,0E0,0E0,0E0],"parents":[2147483647,0,0,1,1,2,2,4,4,5,5,6,6,7,7,8,8,9,9,14,14,15,15,16,16,17,17,18,18],"right_children":[2,4,6,-1,8,10,12,14,16,18,-1,-1,-1,-1,20,22,24,26,28,-1,-1,-1,-1,-1,-1,-1,-1,-1,-1],"split_conditions":[-6.0963158E-2,3.287671E-2,5.186884E-1,4.2724874E-2,4.7637865E-1,2.15E3,-1.5873017E-2,-9.243992E-2,4.3678162E-1,-2.0695E3,-5.6575324E-2,5.8687758E-2,1.0767507E-2,4.519441E-2,3.8630137E-1,1.387689E-1,5.1020324E-1,-3.4923E3,1.5859313E-1,1.0430529E-3,-4.8859037E-2,-1.4669577E-2,-4.920582E-2,7.4291336E-3,-3.0498257E-2,1.1880231E-2,-2.0743424E-2,4.0320855E-2,-3.355266E-2],"split_indices":[5,17,6,0,14,3,5,0,6,2,0,0,0,0,17,6,6,2,0,0,0,0,0,0,0,0,0,0,0],"split_type":[0,0,0,0,0,0,0,0,0,0,0,0,0,0,0,0,0,0,0,0,0,0,0,0,0,0,0,0,0],"sum_hessian":[2.8543723E2,8.4202675E1,2.0123457E2,5.9694157E0,7.823325E1,1.804374E2,2.0797178E1,3.0968159E1,4.72651E1,1.7527933E2,5.1580563E0,1.1542619E1,9.2545595E0,6.628071E0,2.4340088E1,3.3003998E1,1.42611E1,1.3525258E2,4.002676E1,1.2195125E1,1.2144963E1,5.1210966E0,2.7882902E1,7.50493E0,6.75617E0,1.06222374E2,2.90302E1,3.4795654E1,5.231104E0],"tree_param":{"num_deleted":"0","num_feature":"18","num_nodes":"29","size_leaf_vector":"1"}},{"base_weights":[4.4555575E-2,-7.5468576E-1,2.0863828E-1,-1.1066587E0,2.800654E-2,-4.88367E-2,2.6983276E-1,-1.1951082E0,-1.596858E-2,6.815612E-1,6.781135E-2,-2.5293281E-2,-5.2583635E-2,3.2839112E-2,9.0682536E-1,3.0546203E-1,-5.577178E-1,-2.4613973E-2,4.857898E-2,4.7880664E-2,2.3103977E-2,3.0751642E-2,-1.1730856E-3,-5.1944084E-2,-9.445018E-3],"categories":[],"categories_nodes":[],"categories_segments":[],"categories_sizes":[],"default_left":[0,0,0,0,0,0,0,0,0,0,0,0,0,0,0,0,0,0,0,0,0,0,0,0,0],"id":30,"left_children":[1,3,5,7,-1,-1,9,11,-1,13,15,-1,-1,17,19,21,23,-1,-1,-1,-1,-1,-1,-1,-1],"loss_changes":[3.7560017E1,2.5785423E1,2.1042606E1,1.8480301E0,0E0,0E0,1.8925156E1,1.3051224E0,0E0,1.085067E1,2.3169844E1,0E0,0E0,1.6514849E1,4.4421463E0,1.7625328E1,9.756787E0,0E0,0E0,0E0,0E0,0E0,0E0,0E0,0E0],"parents":[2147483647,0,0,1,1,2,2,3,3,6,6,7,7,9,9,10,10,13,13,14,14,15,15,16,16],"right_children":[2,4,6,8,-1,-1,10,12,-1,14,16,-1,-1,18,20,22,24,-1,-1,-1,-1,-1,-1,-1,-1],"split_conditions":[-4.4328E3,8.7123287E-1,-6.0767945E-2,2.3650289E-2,2.800654E-2,-4.88367E-2,-1.3559014E-2,2.3287672E-1,-1.596858E-2,6E0,1.0123E3,-2.5293281E-2,-5.2583635E-2,4E-1,7.115E2,3.2076558E-1,4.6575344E-1,-2.4613973E-2,4.857898E-2,4.7880664E-2,2.3103977E-2,3.0751642E-2,-1.1730856E-3,-5.1944084E-2,-9.445018E-3],"split_indices":[2,17,4,4,0,0,4,17,0,1,3,0,0,12,3,14,17,0,0,0,0,0,0,0,0],"split_type":[0,0,0,0,0,0,0,0,0,0,0,0,0,0,0,0,0,0,0,0,0,0,0,0,0],"sum_hessian":[2.8462363E2,4.7762966E1,2.3686067E2,3.870669E1,9.056276E0,8.8779745E0,2.279827E2,3.366676E1,5.0399323E0,7.409835E1,1.5388434E2,7.1445217E0,2.6522236E1,1.9508095E1,5.4590252E1,1.12003555E2,4.188079E1,1.2852462E1,6.655633E0,2.74528E1,2.7137453E1,4.6564E1,6.543955E1,1.1662874E1,3.0217918E1],"tree_param":{"num_deleted":"0","num_feature":"18","num_nodes":"25","size_leaf_vector":"1"}},{"base_weights":[9.8267265E-2,-4.1116843E-1,3.2263115E-1,-6.980218E-1,6.2348735E-1,3.968852E-1,-3.2377478E-1,2.6994446E-2,-8.2589644E-1,4.5241613E-2,-1.9042078E-2,-1.6374277E-1,4.855455E-1,2.4402611E-2,-8.727384E-1,-9.572382E-1,2.374784E-2,-9.368515E-1,3.8645636E-2,6.7699E-1,1.1280865E-1,-5.7899185E-2,3.4086292E-3,-4.5162704E-2,-1.827834E-2,-5.569775E-2,-3.4245376E-3,1.4604161E-2,4.4613518E-2,-9.3666855E-3,2.5266545E-2],"categories":[],"categories_nodes":[],"categories_segments":[],"categories_sizes":[],"default_left":[0,0,0,0,0,0,0,0,0,0,0,0,0,0,0,0,0,0,0,0,0,0,0,0,0,0,0,0,0,0,0],"id":31,"left_children":[1,3,5,7,9,11,13,-1,15,-1,-1,17,19,-1,21,23,-1,25,-1,27,29,-1,-1,-1,-1,-1,-1,-1,-1,-1,-1],"loss_changes":[3.337907E1,2.6935482E1,9.864416E0,1.2937767E1,1.166968E1,9.177494E0,1.1475977E1,0E0,1.27146225E1,0E0,0E0,2.3176373E1,1.1111534E1,0E0,7.907439E0,4.474327E0,0E0,5.821784E0,0E0,1.36544E1,1.0081174E1,0E0,0E0,0E0,0E0,0E0,0E0,0E0,0E0,0E0,0E0],"parents":[2147483647,0,0,1,1,2,2,3,3,4,4,5,5,6,6,8,8,11,11,12,12,14,14,15,15,17,17,19,19,20,20],"right_children":[2,4,6,8,10,12,14,-1,16,-1,-1,18,20,-1,22,24,-1,26,-1,28,30,-1,-1,-1,-1,-1,-1,-1,-1,-1,-1],"split_conditions":[-6.202991E-2,4.7402554E3,3.5017822E-2,4.109589E-2,4.7247338E-1,1.8630137E-1,2.3059322E-1,2.6994446E-2,1.593655E4,4.5241613E-2,-1.9042078E-2,1.2253109E-2,9.706E2,2.4402611E-2,5.6164384E-1,7.6438355E-1,2.374784E-2,7.248889E-2,3.8645636E-2,4.3157764E3,1.675E3,-5.7899185E-2,3.4086292E-3,-4.5162704E-2,-1.827834E-2,-5.569775E-2,-3.4245376E-3,1.4604161E-2,4.4613518E-2,-9.3666855E-3,2.5266545E-2],"split_indices":[5,15,16,17,14,17,14,0,13,0,0,16,3,0,17,17,0,0,0,15,3,0,0,0,0,0,0,0,0,0,0],"split_type":[0,0,0,0,0,0,0,0,0,0,0,0,0,0,0,0,0,0,0,0,0,0,0,0,0,0,0,0,0,0,0],"sum_hessian":[2.8994986E2,8.826317E1,2.0168669E2,6.943472E1,1.882844E1,1.8139067E2,2.0296019E1,5.4851956E0,6.3949528E1,1.2924652E1,5.9037886E0,2.4499239E1,1.5689143E2,7.4053464E0,1.2890673E1,5.8896515E1,5.053013E0,1.4700176E1,9.799064E0,1.0293669E2,5.3954742E1,7.8026915E0,5.087981E0,4.2754875E1,1.6141642E1,9.084686E0,5.6154895E0,6.1348255E1,4.158844E1,3.254605E1,2.1408688E1],"tree_param":{"num_deleted":"0","num_feature":"18","num_nodes":"31","size_leaf_vector":"1"}},{"base_weights":[2.8239219E-3,3.0655408E-1,-3.5102654E-1,-5.1696494E-2,4.3627724E-1,9.770203E-1,-5.5240214E-1,2.1094234E-1,7.788009E-1,1.682928E-2,4.9541038E-2,2.564267E-2,-1.0088011E0,-7.071052E-2,7.515182E-1,9.940811E-1,-1.6379384E-2,-2.6289594E-1,4.4197444E-2,7.006046E-3,-1.1863315E0,-1.8454904E-2,1.9168133E-2,4.1680753E-2,-4.1104606E-3,2.4951048E-2,4.9410727E-2,-4.8313394E-2,2.2396871E-3,-3.7495956E-2,-6.4533964E-2],"categories":[],"categories_nodes":[],"categories_segments":[],"categories_sizes":[],"default_left":[0,0,0,0,0,0,0,0,0,0,0,0,0,0,0,0,0,0,0,0,0,0,0,0,0,0,0,0,0,0,0],"id":32,"left_children":[1,3,5,-1,7,9,11,13,15,-1,-1,17,19,21,23,25,-1,27,-1,-1,29,-1,-1,-1,-1,-1,-1,-1,-1,-1,-1],"loss_changes":[2.9655434E1,3.1311495E1,3.454709E1,0E0,1.0411072E1,1.7947006E0,2.9476654E1,1.305799E1,1.4364399E1,0E0,0E0,1.5935189E1,1.3402153E1,1.2390467E1,7.4756317E0,3.1842346E0,0E0,1.228454E1,0E0,0E0,4.0122986E0,0E0,0E0,0E0,0E0,0E0,0E0,0E0,0E0,0E0,0E0],"parents":[2147483647,0,0,1,1,2,2,4,4,5,5,6,6,7,7,8,8,11,11,12,12,13,13,14,14,15,15,17,17,20,20],"right_children":[2,4,6,-1,8,10,12,14,16,-1,-1,18,20,22,24,26,-1,28,-1,-1,30,-1,-1,-1,-1,-1,-1,-1,-1,-1,-1],"split_conditions":[-6.756757E-4,1.9726028E-1,4.109589E-2,-5.1696494E-2,4.328484E3,8.957E3,4.0387131E3,3.7135877E-2,1.0073E3,1.682928E-2,4.9541038E-2,3.9850657E3,2E-1,1.450875E4,4E-1,-5.849457E-3,-1.6379384E-2,4.719E2,4.4197444E-2,7.006046E-3,8.064E2,-1.8454904E-2,1.9168133E-2,4.1680753E-2,-4.1104606E-3,2.4951048E-2,4.9410727E-2,-4.8313394E-2,2.2396871E-3,-3.7495956E-2,-6.4533964E-2],"split_indices":[16,17,17,0,15,13,15,4,3,0,0,15,12,13,12,4,0,3,0,0,3,0,0,0,0,0,0,0,0,0,0],"split_type":[0,0,0,0,0,0,0,0,0,0,0,0,0,0,0,0,0,0,0,0,0,0,0,0,0,0,0,0,0,0,0],"sum_hessian":[2.739687E2,1.4764919E2,1.26319496E2,1.0349358E1,1.3729982E2,1.605967E1,1.1025983E2,8.3967926E1,5.3331898E1,6.0919156E0,9.967753E0,4.8966633E1,6.1293194E1,5.5654705E1,2.831322E1,4.5361416E1,7.970482E0,3.9161068E1,9.805566E0,7.9206185E0,5.3372578E1,3.2739338E1,2.2915365E1,2.1051783E1,7.2614365E0,1.946968E1,2.5891735E1,9.256846E0,2.9904222E1,3.588348E1,1.7489096E1],"tree_param":{"num_deleted":"0","num_feature":"18","num_nodes":"31","size_leaf_vector":"1"}},{"base_weights":[3.205267E-2,-5.232322E-1,1.8860269E-1,-8.952995E-2,-1.0441068E0,-7.761964E-1,2.6898688E-1,-8.217012E-1,7.967575E-1,-1.4176465E-2,-4.7164597E-2,-5.068846E-2,1.1601819E-2,3.9295796E-1,-3.5155803E-1,-4.560845E-2,1.5176005E-3,8.441584E-3,4.6082467E-2,-7.152506E-1,4.870605E-1,8.141582E-2,-6.039956E-2,5.3014737E-3,-4.963552E-2,3.2245815E-2,1.1522519E-2,-3.3180714E-2,3.519667E-2],"categories":[],"categories_nodes":[],"categories_segments":[],"categories_sizes":[],"default_left":[0,0,0,0,0,0,0,0,0,0,0,0,0,0,0,0,0,0,0,0,0,0,0,0,0,0,0,0,0],"id":33,"left_children":[1,3,5,7,9,11,13,15,17,-1,-1,-1,-1,19,21,-1,-1,-1,-1,23,25,27,-1,-1,-1,-1,-1,-1,-1],"loss_changes":[2.459528E1,1.3840639E1,1.7297543E1,2.3453215E1,2.0409641E0,9.44845E0,1.5900581E1,5.572459E0,3.0206442E0,0E0,0E0,0E0,0E0,1.8193615E1,1.7570942E1,0E0,0E0,0E0,0E0,6.3947854E0,9.729389E0,1.9647583E1,0E0,0E0,0E0,0E0,0E0,0E0,0E0],"parents":[2147483647,0,0,1,1,2,2,3,3,4,4,5,5,6,6,7,7,8,8,13,13,14,14,19,19,20,20,21,21],"right_children":[2,4,6,8,10,12,14,16,18,-1,-1,-1,-1,20,22,-1,-1,-1,-1,24,26,28,-1,-1,-1,-1,-1,-1,-1],"split_conditions":[-8.044369E-2,-2.4399399E-3,-5.6783378E-2,-1.0303209E-2,9.315068E-2,8.438356E-1,6.2068056E-2,4.6376313E3,4.409264E3,-1.4176465E-2,-4.7164597E-2,-5.068846E-2,1.1601819E-2,-4.4328E3,1E1,-4.560845E-2,1.5176005E-3,8.441584E-3,4.6082467E-2,-1.1120918E-2,3.2554546E-1,5.369863E-1,-6.039956E-2,5.3014737E-3,-4.963552E-2,3.2245815E-2,1.1522519E-2,-3.3180714E-2,3.519667E-2],"split_indices":[5,16,4,16,17,17,4,15,15,0,0,0,0,2,1,0,0,0,0,16,14,17,0,0,0,0,0,0,0],"split_type":[0,0,0,0,0,0,0,0,0,0,0,0,0,0,0,0,0,0,0,0,0,0,0,0,0,0,0,0,0],"sum_hessian":[2.8118216E2,6.1183273E1,2.1999889E2,3.4129482E1,2.705379E1,1.6158522E1,2.0384036E2,1.8791409E1,1.5338075E1,5.143546E0,2.1910244E1,1.0998778E1,5.1597443E0,1.7033842E2,3.3501934E1,1.3557938E1,5.2334714E0,6.499344E0,8.838731E0,1.2732254E1,1.5760619E2,2.5000988E1,8.500945E0,5.086299E0,7.6459546E0,5.9172226E1,9.843395E1,1.1601669E1,1.3399319E1],"tree_param":{"num_deleted":"0","num_feature":"18","num_nodes":"29","size_leaf_vector":"1"}},{"base_weights":[3.0895218E-2,-6.9707483E-1,1.7696418E-1,-9.210779E-1,3.2758925E-2,4.0727386E-1,-9.361807E-2,8.73935E-3,-4.3577056E-2,2.0041625E-1,1.1108289E0,-5.3142464E-1,6.4510477E-1,3.7971038E-1,-8.5749537E-1,5.382112E-2,2.1949777E-2,-1.1910856E0,-1.2191836E-1,8.6382353E-1,-1.0880811E-2,2.13226E-2,-6.124722E-2,-6.0819544E-2,1.2139496E-2,4.3526446E-3,-6.0694866E-2,7.8316415E-3,-5.0451986E-2,-1.343817E-3,4.960197E-2],"categories":[],"categories_nodes":[],"categories_segments":[],"categories_sizes":[],"default_left":[0,0,0,0,0,0,0,0,0,0,0,0,0,0,0,0,0,0,0,0,0,0,0,0,0,0,0,0,0,0,0],"id":34,"left_children":[1,3,5,7,-1,9,11,-1,-1,13,15,17,19,21,23,-1,-1,25,27,29,-1,-1,-1,-1,-1,-1,-1,-1,-1,-1,-1],"loss_changes":[2.952333E1,1.6513899E1,1.4502301E1,8.178078E0,0E0,1.7910582E1,3.4970497E1,0E0,0E0,1.8925499E1,2.7903595E0,1.8060682E1,8.362303E0,2.557804E1,1.1723677E1,0E0,0E0,1.1245396E1,1.5951565E1,1.1237999E1,0E0,0E0,0E0,0E0,0E0,0E0,0E0,0E0,0E0,0E0,0E0],"parents":[2147483647,0,0,1,1,2,2,3,3,5,5,6,6,9,9,10,10,11,11,12,12,13,13,14,14,17,17,18,18,19,19],"right_children":[2,4,6,8,-1,10,12,-1,-1,14,16,18,20,22,24,-1,-1,26,28,30,-1,-1,-1,-1,-1,-1,-1,-1,-1,-1,-1],"split_conditions":[-4.4328E3,5.421704E-1,4.244479E-1,-4.607481E-2,3.2758925E-2,4.665741E3,-4.966765E-3,8.73935E-3,-4.3577056E-2,4.3435776E3,-3.4748875E-2,5.3326505E-1,-3.4923E3,1.2182341E-1,9.9285E3,5.382112E-2,2.1949777E-2,7.6712325E-2,1.0572687E-2,4.5753425E-1,-1.0880811E-2,2.13226E-2,-6.124722E-2,-6.0819544E-2,1.2139496E-2,4.3526446E-3,-6.0694866E-2,7.8316415E-3,-5.0451986E-2,-1.343817E-3,4.960197E-2],"split_indices":[2,6,14,16,0,15,5,0,0,15,5,14,2,7,13,0,0,17,16,17,0,0,0,0,0,0,0,0,0,0,0],"split_type":[0,0,0,0,0,0,0,0,0,0,0,0,0,0,0,0,0,0,0,0,0,0,0,0,0,0,0,0,0,0,0],"sum_hessian":[2.7597662E2,4.537625E1,2.3060039E2,3.99342E1,5.442053E0,1.2449727E2,1.0610311E2,5.025368E0,3.4908833E1,9.731264E1,2.7184637E1,6.688154E1,3.922158E1,8.3839226E1,1.3473412E1,1.8068419E1,9.116219E0,2.4792032E1,4.2089504E1,3.1804016E1,7.417563E0,7.8326645E1,5.5125766E0,8.433715E0,5.0396967E0,5.046628E0,1.9745405E1,3.3491108E1,8.598393E0,9.585185E0,2.221883E1],"tree_param":{"num_deleted":"0","num_feature":"18","num_nodes":"31","size_leaf_vector":"1"}},{"base_weights":[3.3485845E-2,-5.6886655E-1,2.1425414E-1,-8.6459845E-1,4.070167E-1,5.3210735E-1,1.12677375E-2,-4.0066275E-1,-4.7004156E-2,-9.221709E-3,4.7669947E-2,1.0121086E0,2.4517745E-1,4.323643E-2,-1.380464E-1,2.2845566E-2,-7.639585E-1,5.06721E-2,-2.2736515E-3,-4.3135356E-2,4.1820228E-1,-2.4076876E-1,4.3463282E-2,-4.3899026E-2,-6.825308E-3,-1.8160882E-3,3.2537516E-2,-3.4322258E-2,4.5158144E-4],"categories":[],"categories_nodes":[],"categories_segments":[],"categories_sizes":[],"default_left":[0,0,0,0,0,0,0,0,0,0,0,0,0,0,0,0,0,0,0,0,0,0,0,0,0,0,0,0,0],"id":35,"left_children":[1,3,5,7,9,11,13,15,-1,-1,-1,17,19,-1,21,-1,23,-1,-1,-1,25,27,-1,-1,-1,-1,-1,-1,-1],"loss_changes":[3.0736212E1,1.9191624E1,1.3963931E1,6.6283607E0,8.248864E0,1.1263929E1,2.162333E1,8.167639E0,0E0,0E0,0E0,8.677391E0,1.282836E1,0E0,1.5055191E1,0E0,2.9317455E0,0E0,0E0,0E0,9.063072E0,1.7211475E1,0E0,0E0,0E0,0E0,0E0,0E0,0E0],"parents":[2147483647,0,0,1,1,2,2,3,3,4,4,5,5,6,6,7,7,11,11,12,12,14,14,16,16,20,20,21,21],"right_children":[2,4,6,8,10,12,14,16,-1,-1,-1,18,20,-1,22,-1,24,-1,-1,-1,26,28,-1,-1,-1,-1,-1,-1,-1],"split_conditions":[-7.55183E-2,4.7402554E3,3.2622612E-1,-9.8055355E-2,-6.3183587E-3,5.1997885E-2,3.38674E3,5.125273E-1,-4.7004156E-2,-9.221709E-3,4.7669947E-2,3.3417165E-2,1.8753693E-2,4.323643E-2,5.467796E-1,2.2845566E-2,4E-1,5.06721E-2,-2.2736515E-3,-4.3135356E-2,4.2780693E3,1.4611228E-2,4.3463282E-2,-4.3899026E-2,-6.825308E-3,-1.8160882E-3,3.2537516E-2,-3.4322258E-2,4.5158144E-4],"split_indices":[5,15,14,0,4,0,15,14,0,0,0,7,7,0,6,0,12,0,0,0,15,7,0,0,0,0,0,0,0],"split_type":[0,0,0,0,0,0,0,0,0,0,0,0,0,0,0,0,0,0,0,0,0,0,0,0,0,0,0,0,0],"sum_hessian":[2.8048462E2,6.4121185E1,2.1636343E2,4.937506E1,1.4746123E1,8.349924E1,1.3286418E2,2.0843925E1,2.8531136E1,8.455331E0,6.2907925E0,3.0163399E1,5.333584E1,1.5592759E1,1.1727143E2,5.4412994E0,1.5402625E1,2.428547E1,5.8779306E0,5.4945483E0,4.784129E1,1.0901247E2,8.25896E0,9.208277E0,6.194349E0,2.2307316E1,2.5533974E1,3.1025045E1,7.798743E1],"tree_param":{"num_deleted":"0","num_feature":"18","num_nodes":"29","size_leaf_vector":"1"}},{"base_weights":[8.773619E-3,-6.0460126E-1,1.4329241E-1,-1.237396E-1,-4.6582803E-2,4.0933307E-2,9.434114E-2,-4.4967405E-2,6.18355E-1,3.29689E-1,-2.1316575E-1,4.210364E-2,2.3339402E-3,5.636191E-1,-3.0300604E-2,-5.7714805E-2,-5.3815905E-2,-1.4359775E-2,2.8576445E-2,-3.1637426E-2,1.4360718E-2,-1.875415E-2,1.6033633E-2],"categories":[],"categories_nodes":[],"categories_segments":[],"categories_sizes":[],"default_left":[0,0,0,0,0,0,0,0,0,0,0,0,0,0,0,0,0,0,0,0,0,0,0],"id":36,"left_children":[1,3,5,7,-1,-1,9,-1,11,13,15,-1,-1,17,19,-1,21,-1,-1,-1,-1,-1,-1],"loss_changes":[2.2108944E1,1.2696226E1,9.281919E0,2.0885952E1,0E0,0E0,1.5272534E1,0E0,3.7578177E0,1.0131828E1,1.7687134E1,0E0,0E0,1.0397503E1,1.4493826E1,0E0,1.5676621E1,0E0,0E0,0E0,0E0,0E0,0E0],"parents":[2147483647,0,0,1,1,2,2,3,3,6,6,8,8,9,9,10,10,13,13,14,14,16,16],"right_children":[2,4,6,8,-1,-1,10,-1,12,14,16,-1,-1,18,20,-1,22,-1,-1,-1,-1,-1,-1],"split_conditions":[-2.4775079E-2,-2.4399399E-3,3.3695527E3,-1.044538E-2,-4.6582803E-2,4.0933307E-2,4.2002884E-1,-4.4967405E-2,4.7637865E-1,1E3,4.5534775E-1,4.210364E-2,2.3339402E-3,3.9739863E3,1.3467E3,-5.7714805E-2,5.7260275E-1,-1.4359775E-2,2.8576445E-2,-3.1637426E-2,1.4360718E-2,-1.875415E-2,1.6033633E-2],"split_indices":[7,16,15,16,0,0,14,0,14,3,14,0,0,15,3,0,17,0,0,0,0,0,0],"split_type":[0,0,0,0,0,0,0,0,0,0,0,0,0,0,0,0,0,0,0,0,0,0,0],"sum_hessian":[2.6646234E2,4.7164604E1,2.1929773E2,2.6127611E1,2.1036993E1,1.0398935E1,2.0889879E2,1.0965066E1,1.5162546E1,1.1847669E2,9.0422104E1,7.9442773E0,7.218269E0,7.163721E1,4.6839485E1,9.377048E0,8.104506E1,9.776473E0,6.1860737E1,1.5595294E1,3.124419E1,4.2467186E1,3.857787E1],"tree_param":{"num_deleted":"0","num_feature":"18","num_nodes":"23","size_leaf_vector":"1"}},{"base_weights":[6.415634E-2,-5.629523E-1,1.9240935E-1,-9.66486E-1,7.9794824E-1,-1.22257836E-1,3.328212E-1,-0E0,-1.1213884E0,9.171322E-3,4.8229218E-2,4.930605E-1,-3.74896E-1,6.644804E-1,1.6480592E-1,-4.8745155E-2,-2.0102832E-2,3.8060706E-2,-2.1216888E-2,-7.3404305E-2,-1.1089884E0,-1.3960983E-2,7.8696114E-1,2.6984853E-1,-3.816967E-2,1.9913595E-2,-2.057353E-2,-5.5262294E-2,-1.897424E-2,4.1093875E-2,1.7739538E-2,-4.1429866E-3,2.1432025E-2],"categories":[],"categories_nodes":[],"categories_segments":[],"categories_sizes":[],"default_left":[0,0,0,0,0,0,0,0,0,0,0,0,0,0,0,0,0,0,0,0,0,0,0,0,0,0,0,0,0,0,0,0,0],"id":37,"left_children":[1,3,5,7,9,11,13,-1,15,-1,-1,17,19,21,23,-1,-1,-1,-1,25,27,-1,29,31,-1,-1,-1,-1,-1,-1,-1,-1,-1],"loss_changes":[2.2203949E1,2.6514412E1,1.0194603E1,5.3798523E0,2.178379E0,1.1252555E1,8.671316E0,0E0,1.1106453E0,0E0,0E0,1.0429677E1,1.1134377E1,6.892128E0,1.2779593E1,0E0,0E0,0E0,0E0,9.6953945E0,1.7090645E0,0E0,3.330864E0,9.90881E0,0E0,0E0,0E0,0E0,0E0,0E0,0E0,0E0,0E0],"parents":[2147483647,0,0,1,1,2,2,3,3,4,4,5,5,6,6,8,8,11,11,12,12,13,13,14,14,19,19,20,20,22,22,23,23],"right_children":[2,4,6,8,10,12,14,-1,16,-1,-1,18,20,22,24,-1,-1,-1,-1,26,28,-1,30,32,-1,-1,-1,-1,-1,-1,-1,-1,-1],"split_conditions":[-4.4328E3,4.9308145E-1,2.4684186E-1,3.8590747E-1,8.7123287E-1,3.1303197E-1,2.9937106E-1,-0E0,4.765777E3,9.171322E-3,4.8229218E-2,1.0123E3,6.8614E-3,3.710945E3,2.7214333E-2,-4.8745155E-2,-2.0102832E-2,3.8060706E-2,-2.1216888E-2,1.5032938E-1,-3.417E3,-1.3960983E-2,3.2255122E-1,4E-1,-3.816967E-2,1.9913595E-2,-2.057353E-2,-5.5262294E-2,-1.897424E-2,4.1093875E-2,1.7739538E-2,-4.1429866E-3,2.1432025E-2],"split_indices":[2,6,6,14,17,14,6,0,15,0,0,3,16,15,16,0,0,0,0,6,2,0,14,12,0,0,0,0,0,0,0,0,0],"split_type":[0,0,0,0,0,0,0,0,0,0,0,0,0,0,0,0,0,0,0,0,0,0,0,0,0,0,0,0,0,0,0,0,0],"sum_hessian":[2.7418436E2,4.5845947E1,2.2833841E2,3.5640995E1,1.0204954E1,7.027256E1,1.5806584E2,5.14545E0,3.0495544E1,5.0166187E0,5.1883354E0,2.0062187E1,5.021037E1,5.1955845E1,1.0611E2,2.537695E1,5.1185946E0,1.3971733E1,6.090455E0,3.6468838E1,1.3741531E1,5.314369E0,4.6641476E1,9.777984E1,8.330161E0,1.5731858E1,2.073698E1,8.679326E0,5.0622053E0,2.6095707E1,2.0545767E1,4.076969E1,5.701015E1],"tree_param":{"num_deleted":"0","num_feature":"18","num_nodes":"33","size_leaf_vector":"1"}},{"base_weights":[4.519757E-2,-5.0727314E-1,1.5800321E-1,-8.3397293E-1,2.5500605E-2,3.9555516E-2,1.0208081E-1,9.174388E-3,-4.0748376E-2,-4.7551897E-1,2.4721466E-1,-7.965196E-1,3.787281E-1,4.8147388E-2,1.874998E-1,1.9813782E-2,-5.5622242E-2,-6.183454E-3,3.778669E-2,-4.4675563E-2,1.307439E-2],"categories":[],"categories_nodes":[],"categories_segments":[],"categories_sizes":[],"default_left":[0,0,0,0,0,0,0,0,0,0,0,0,0,0,0,0,0,0,0,0,0],"id":38,"left_children":[1,3,5,7,-1,-1,9,-1,-1,11,13,15,17,-1,19,-1,-1,-1,-1,-1,-1],"loss_changes":[1.6685186E1,1.7516186E1,1.0134952E1,7.343174E0,0E0,0E0,1.7684484E1,0E0,0E0,1.1953607E1,9.258493E0,2.4708384E1,3.8943455E0,0E0,2.9347237E1,0E0,0E0,0E0,0E0,0E0,0E0],"parents":[2147483647,0,0,1,1,2,2,3,3,6,6,9,9,10,10,11,11,12,12,14,14],"right_children":[2,4,6,8,-1,-1,10,-1,-1,12,14,16,18,-1,20,-1,-1,-1,-1,-1,-1],"split_conditions":[-4.4328E3,4.9308145E-1,3.38674E3,-4.027899E-2,2.5500605E-2,3.9555516E-2,3.8593125E3,9.174388E-3,-4.0748376E-2,1.2385507E-1,3.561644E-2,9.276E3,1.00909E4,4.8147388E-2,1.890411E-1,1.9813782E-2,-5.5622242E-2,-6.183454E-3,3.778669E-2,-4.4675563E-2,1.307439E-2],"split_indices":[2,6,15,16,0,0,15,0,0,0,17,13,13,0,17,0,0,0,0,0,0],"split_type":[0,0,0,0,0,0,0,0,0,0,0,0,0,0,0,0,0,0,0,0,0],"sum_hessian":[2.660006E2,4.4360367E1,2.2164026E2,3.4790665E1,9.569705E0,1.2811908E1,2.0882834E2,5.033761E0,2.9756903E1,4.133982E1,1.6748853E2,3.01827E1,1.115712E1,8.6181E0,1.5887042E2,9.506502E0,2.0676197E1,6.0273657E0,5.1297536E0,1.4588855E1,1.4428157E2],"tree_param":{"num_deleted":"0","num_feature":"18","num_nodes":"21","size_leaf_vector":"1"}},{"base_weights":[-7.072574E-3,-6.239406E-1,1.5371653E-1,-1.6676167E-1,-4.6130616E-2,-6.0739493E-1,2.2787955E-1,-7.436039E-1,5.941872E-1,-7.306211E-4,-5.0030116E-2,-4.7018807E-2,2.8890616E-1,-4.207435E-3,-4.4440974E-2,6.7272936E-3,4.0642984E-2,3.8140458E-1,-4.430789E-1,6.39272E-3,2.9504815E-2,4.284033E-3,-5.5280276E-2],"categories":[],"categories_nodes":[],"categories_segments":[],"categories_sizes":[],"default_left":[0,0,0,0,0,0,0,0,0,0,0,0,0,0,0,0,0,0,0,0,0,0,0],"id":39,"left_children":[1,3,5,7,-1,9,11,13,15,-1,-1,-1,17,-1,-1,-1,-1,19,21,-1,-1,-1,-1],"loss_changes":[2.4719305E1,1.2152466E1,1.1233015E1,1.3157547E1,0E0,6.545417E0,1.571435E1,3.7438192E0,2.039472E0,0E0,0E0,0E0,1.1937538E1,0E0,0E0,0E0,0E0,1.2031195E1,1.0530484E1,0E0,0E0,0E0,0E0],"parents":[2147483647,0,0,1,1,2,2,3,3,5,5,6,6,7,7,8,8,12,12,17,17,18,18],"right_children":[2,4,6,8,-1,10,12,14,16,-1,-1,-1,18,-1,-1,-1,-1,20,22,-1,-1,-1,-1],"split_conditions":[-8.044369E-2,-4.3208716E-3,-4.4248E3,-1.0303209E-2,-4.6130616E-2,2.17E2,-5.7574894E-2,-1.6492857E-1,1.44E4,-7.306211E-4,-5.0030116E-2,-4.7018807E-2,8.92432E-2,-4.207435E-3,-4.4440974E-2,6.7272936E-3,4.0642984E-2,9.9554E3,1E1,6.39272E-3,2.9504815E-2,4.284033E-3,-5.5280276E-2],"split_indices":[5,16,2,16,0,3,4,5,13,0,0,0,4,0,0,0,0,13,1,0,0,0,0],"split_type":[0,0,0,0,0,0,0,0,0,0,0,0,0,0,0,0,0,0,0,0,0,0,0],"sum_hessian":[2.4678151E2,5.055779E1,1.9622371E2,2.7934593E1,2.2623198E1,1.6664356E1,1.7955936E2,1.5977189E1,1.1957403E1,9.316745E0,7.3476114E0,6.6536546E0,1.729057E2,6.405554E0,9.571635E0,6.763533E0,5.19387E0,1.5405399E2,1.8851711E1,9.604063E1,5.8013367E1,1.2378034E1,6.4736767E0],"tree_param":{"num_deleted":"0","num_feature":"18","num_nodes":"23","size_leaf_vector":"1"}},{"base_weights":[2.2713015E-2,-5.954891E-1,1.9074406E-1,-1.922742E-1,-4.5518834E-2,2.5848898E-1,-5.2368057E-1,-7.152903E-1,7.9040164E-1,4.6015408E-2,2.0800032E-1,-5.130412E-2,2.1772886E-2,-4.427105E-2,-3.119571E-3,1.2989957E-2,4.533985E-2,-3.8279083E-1,3.6687377E-1,-3.689231E-2,2.20451E-2,-1.3274627E-2,1.9086981E-2],"categories":[],"categories_nodes":[],"categories_segments":[],"categories_sizes":[],"default_left":[0,0,0,0,0,0,0,0,0,0,0,0,0,0,0,0,0,0,0,0,0,0,0],"id":40,"left_children":[1,3,5,7,-1,9,11,13,15,-1,17,-1,-1,-1,-1,-1,-1,19,21,-1,-1,-1,-1],"loss_changes":[2.7084986E1,1.1829529E1,1.0047369E1,1.7649117E1,0E0,8.106814E0,1.5351864E1,5.357563E0,1.3968163E0,0E0,1.6995768E1,0E0,0E0,0E0,0E0,0E0,0E0,1.990227E1,1.1130745E1,0E0,0E0,0E0,0E0],"parents":[2147483647,0,0,1,1,2,2,3,3,5,5,6,6,7,7,8,8,10,10,17,17,18,18],"right_children":[2,4,6,8,-1,10,12,14,16,-1,18,-1,-1,-1,-1,-1,-1,20,22,-1,-1,-1,-1],"split_conditions":[-8.044369E-2,-2.4399399E-3,6.4413804E-1,-5.2403323E-3,-4.5518834E-2,3.3695527E3,2.6908373E-2,4.433449E3,4.469248E3,4.6015408E-2,3.8899646E3,-5.130412E-2,2.1772886E-2,-4.427105E-2,-3.119571E-3,1.2989957E-2,4.533985E-2,1.2385507E-1,-4.3213E3,-3.689231E-2,2.20451E-2,-1.3274627E-2,1.9086981E-2],"split_indices":[5,16,14,16,0,15,7,15,15,0,15,0,0,0,0,0,0,0,2,0,0,0,0],"split_type":[0,0,0,0,0,0,0,0,0,0,0,0,0,0,0,0,0,0,0,0,0,0,0],"sum_hessian":[2.590367E2,5.468957E1,2.0434715E2,3.2254375E1,2.2435198E1,1.8735909E2,1.6988064E1,2.1294516E1,1.095986E1,8.764585E0,1.785945E2,9.868329E0,7.1197357E0,1.2637739E1,8.656775E0,5.598921E0,5.360939E0,3.7416744E1,1.4117776E2,2.379188E1,1.3624864E1,1.8850054E1,1.22327705E2],"tree_param":{"num_deleted":"0","num_feature":"18","num_nodes":"23","size_leaf_vector":"1"}},{"base_weights":[2.8747132E-2,-5.3344893E-1,1.764819E-1,-1.8448557E-1,-9.58659E-1,3.6999468E-2,1.3216206E-1,-6.4212626E-1,2.8219745E-2,-1.17599135E-2,-4.476173E-2,-1.3346612E-1,2.6842842E-1,-4.4409137E-2,2.6135437E-2,2.7356684E-1,-5.8516335E-1,-5.1534235E-1,3.7320924E-1,2.0114943E-2,-3.0077517E-2,-4.42883E-2,-6.896899E-4,-4.8876394E-2,2.8966574E-2,2.6518175E-2,2.366515E-3],"categories":[],"categories_nodes":[],"categories_segments":[],"categories_sizes":[],"default_left":[0,0,0,0,0,0,0,0,0,0,0,0,0,0,0,0,0,0,0,0,0,0,0,0,0,0,0],"id":41,"left_children":[1,3,5,7,9,-1,11,13,-1,-1,-1,15,17,-1,-1,19,21,23,25,-1,-1,-1,-1,-1,-1,-1,-1],"loss_changes":[2.1632486E1,7.7454863E0,6.625423E0,1.3119716E1,2.0930557E0,0E0,7.155921E0,1.3595078E1,0E0,0E0,0E0,1.2507481E1,1.0882753E1,0E0,0E0,8.772106E0,9.411332E0,1.4665711E1,1.0413645E1,0E0,0E0,0E0,0E0,0E0,0E0,0E0,0E0],"parents":[2147483647,0,0,1,1,2,2,3,3,4,4,6,6,7,7,11,11,12,12,15,15,16,16,17,17,18,18],"right_children":[2,4,6,8,10,-1,12,14,-1,-1,-1,16,18,-1,-1,20,22,24,26,-1,-1,-1,-1,-1,-1,-1,-1],"split_conditions":[-8.044369E-2,-2.4399399E-3,3.3695527E3,-6.8543907E-3,1.4246576E-1,3.6999468E-2,2.4684186E-1,4.7006196E3,2.8219745E-2,-1.17599135E-2,-4.476173E-2,1.7720771E-1,1.9455329E-1,-4.4409137E-2,2.6135437E-2,6.148709E-1,1.7012589E-3,1.6352646E-1,-8.4331253E-4,2.0114943E-2,-3.0077517E-2,-4.42883E-2,-6.896899E-4,-4.8876394E-2,2.8966574E-2,2.6518175E-2,2.366515E-3],"split_indices":[5,16,15,16,17,0,6,15,0,0,0,6,14,0,0,14,16,7,16,0,0,0,0,0,0,0,0],"split_type":[0,0,0,0,0,0,0,0,0,0,0,0,0,0,0,0,0,0,0,0,0,0,0,0,0,0,0],"sum_hessian":[2.587532E2,5.31617E1,2.0559149E2,3.011546E1,2.3046244E1,1.0255881E1,1.9533562E2,2.014662E1,9.96884E0,5.152002E0,1.7894241E1,6.598863E1,1.2934698E2,1.4961023E1,5.1855965E0,3.48014E1,3.118723E1,1.4678408E1,1.1466857E2,2.8937918E1,5.8634815E0,1.5663435E1,1.5523795E1,9.409498E0,5.2689095E0,5.8898376E1,5.5770195E1],"tree_param":{"num_deleted":"0","num_feature":"18","num_nodes":"27","size_leaf_vector":"1"}},{"base_weights":[2.3175273E-2,-4.5496663E-1,1.4659542E-1,1.4670263E-1,-8.845512E-1,2.0817272E-1,-5.4001266E-1,-4.419965E-1,7.3598206E-1,1.5362139E-3,-4.2681575E-2,4.3751708E-1,-2.5199892E-2,-5.000989E-2,1.3045263E-2,-4.08265E-2,1.1057743E-2,4.1662812E-2,1.1840122E-2,5.892045E-1,-4.391163E-2,-6.713719E-1,1.3994391E-1,1.678978E-2,4.6861283E-2,-4.487091E-2,3.8449473E-3,1.3892841E-2,-1.9185822E-2],"categories":[],"categories_nodes":[],"categories_segments":[],"categories_sizes":[],"default_left":[0,0,0,0,0,0,0,0,0,0,0,0,0,0,0,0,0,0,0,0,0,0,0,0,0,0,0,0,0],"id":42,"left_children":[1,3,5,7,9,11,13,15,17,-1,-1,19,21,-1,-1,-1,-1,-1,-1,23,-1,25,27,-1,-1,-1,-1,-1,-1],"loss_changes":[1.5269684E1,1.3912777E1,8.793287E0,8.283479E0,5.3962593E0,1.0221488E1,1.1024141E1,5.3343177E0,1.1555319E0,0E0,0E0,2.2975658E1,1.0274176E1,0E0,0E0,0E0,0E0,0E0,0E0,8.049484E0,0E0,6.990239E0,9.955582E0,0E0,0E0,0E0,0E0,0E0,0E0],"parents":[2147483647,0,0,1,1,2,2,3,3,4,4,5,5,6,6,7,7,8,8,11,11,12,12,19,19,21,21,22,22],"right_children":[2,4,6,8,10,12,14,16,18,-1,-1,20,22,-1,-1,-1,-1,-1,-1,24,-1,26,28,-1,-1,-1,-1,-1,-1],"split_conditions":[-8.044369E-2,2E-1,6.4413804E-1,-4.2E3,-7.1954556E-2,3.642921E-2,6.531E2,2.0034168E-2,-1.5679975E-1,1.5362139E-3,-4.2681575E-2,9.745203E-2,5.26898E-2,-5.000989E-2,1.3045263E-2,-4.08265E-2,1.1057743E-2,4.1662812E-2,1.1840122E-2,5.305E2,-4.391163E-2,-9.87588E-3,7.20548E-1,1.678978E-2,4.6861283E-2,-4.487091E-2,3.8449473E-3,1.3892841E-2,-1.9185822E-2],"split_indices":[5,3,14,2,4,7,3,4,0,0,0,0,7,0,0,0,0,0,0,2,0,5,17,0,0,0,0,0,0],"split_type":[0,0,0,0,0,0,0,0,0,0,0,0,0,0,0,0,0,0,0,0,0,0,0,0,0,0,0,0,0],"sum_hessian":[2.5714642E2,5.204035E1,2.0510606E2,2.1855545E1,3.0184809E1,1.889985E2,1.6107561E1,1.0973294E1,1.0882251E1,5.022822E0,2.5161985E1,9.5096855E1,9.390165E1,8.670103E0,7.437457E0,5.9219766E0,5.0513177E0,5.480888E0,5.401363E0,8.716625E1,7.930604E0,1.8613031E1,7.528861E1,6.89841E1,1.8182154E1,1.1520801E1,7.0922313E0,5.685877E1,1.8429846E1],"tree_param":{"num_deleted":"0","num_feature":"18","num_nodes":"29","size_leaf_vector":"1"}},{"base_weights":[3.339606E-2,-6.099684E-1,1.4928609E-1,-8.598233E-1,2.329578E-2,5.6649643E-1,-7.140758E-3,-4.9130667E-2,-3.1293833E-1,7.964154E-1,-2.9669119E-2,4.8550896E-2,-6.836077E-2,9.916305E-3,-3.997376E-2,-2.1067667E-3,8.972786E-1,-9.2615026E-1,1.2158387E-1,8.42148E-3,4.0395565E-2,-5.5997618E-2,-7.5791194E-3,5.6054514E-2,1.0080851E-3],"categories":[],"categories_nodes":[],"categories_segments":[],"categories_sizes":[],"default_left":[0,0,0,0,0,0,0,0,0,0,0,0,0,0,0,0,0,0,0,0,0,0,0,0,0],"id":43,"left_children":[1,3,5,7,-1,9,11,-1,13,15,-1,-1,17,-1,-1,-1,19,21,23,-1,-1,-1,-1,-1,-1],"loss_changes":[1.9151302E1,1.2200595E1,1.4292309E1,6.0835953E0,0E0,1.8539497E1,1.1884324E1,0E0,5.974211E0,4.523834E0,0E0,0E0,2.5094778E1,0E0,0E0,0E0,3.2227402E0,9.320316E0,1.5353374E1,0E0,0E0,0E0,0E0,0E0,0E0],"parents":[2147483647,0,0,1,1,2,2,3,3,5,5,6,6,8,8,9,9,12,12,16,16,17,17,18,18],"right_children":[2,4,6,8,-1,10,12,-1,14,16,-1,-1,18,-1,-1,-1,20,22,24,-1,-1,-1,-1,-1,-1],"split_conditions":[-4.4328E3,8.630137E-1,8.67905E3,9.3249E3,2.329578E-2,1E1,2.739726E-2,-4.9130667E-2,-9.984339E-3,-3.421728E-2,-2.9669119E-2,4.8550896E-2,3.068493E-1,9.916305E-3,-3.997376E-2,-2.1067667E-3,1.890411E-1,1.00909E4,3.561644E-1,8.42148E-3,4.0395565E-2,-5.5997618E-2,-7.5791194E-3,5.6054514E-2,1.0080851E-3],"split_indices":[2,17,13,13,0,1,17,0,16,16,0,0,17,0,0,0,17,13,17,0,0,0,0,0,0],"split_type":[0,0,0,0,0,0,0,0,0,0,0,0,0,0,0,0,0,0,0,0,0,0,0,0,0],"sum_hessian":[2.5525577E2,3.8178925E1,2.1707684E2,3.1864586E1,6.3143387E0,5.86548E1,1.5842204E2,1.81846E1,1.3679987E1,5.0284946E1,8.369858E0,6.587495E0,1.5183455E2,7.7999644E0,5.880022E0,5.2846026E0,4.5000343E1,2.6918997E1,1.2491554E2,6.868885E0,3.813146E1,1.5752004E1,1.1166993E1,7.7277284E0,1.1718782E2],"tree_param":{"num_deleted":"0","num_feature":"18","num_nodes":"25","size_leaf_vector":"1"}},{"base_weights":[1.1118031E-2,1.4288461E-1,-7.990372E-1,1.9160451E-1,-3.4796994E-2,-1.0381339E0,1.3164467E-2,-5.9849954E-1,2.4542606E-1,-4.834584E-2,-1.4921781E-2,2.3521604E-3,-4.178381E-2,2.8432485E-1,-3.3723578E-2,6.2180334E-3,2.9278152E-2],"categories":[],"categories_nodes":[],"categories_segments":[],"categories_sizes":[],"default_left":[0,0,0,0,0,0,0,0,0,0,0,0,0,0,0,0,0],"id":44,"left_children":[1,3,5,7,-1,9,-1,11,13,-1,-1,-1,-1,15,-1,-1,-1],"loss_changes":[2.6516376E1,1.066877E1,9.7805195E0,8.8415165E0,0E0,2.6763687E0,0E0,4.049519E0,8.356948E0,0E0,0E0,0E0,0E0,1.0596795E1,0E0,0E0,0E0],"parents":[2147483647,0,0,1,1,2,2,3,3,5,5,7,7,8,8,13,13],"right_children":[2,4,6,8,-1,10,-1,12,14,-1,-1,-1,-1,16,-1,-1,-1],"split_conditions":[6.1632943E-1,1.4981893E-1,-3.8485E3,-4.054896E-2,-3.4796994E-2,2.6908373E-2,1.3164467E-2,-6.6475025E-3,2.3474E3,-4.834584E-2,-1.4921781E-2,2.3521604E-3,-4.178381E-2,-2.0695E3,-3.3723578E-2,6.2180334E-3,2.9278152E-2],"split_indices":[14,4,2,7,0,7,0,16,3,0,0,0,0,2,0,0,0],"split_type":[0,0,0,0,0,0,0,0,0,0,0,0,0,0,0,0,0],"sum_hessian":[2.4693892E2,2.1320892E2,3.3730003E1,2.042913E2,8.917618E0,2.7970455E1,5.7595468E0,1.2264821E1,1.9202647E2,2.1492653E1,6.4778023E0,5.2189407E0,7.0458803E0,1.8620306E2,5.823419E0,1.4579797E2,4.0405094E1],"tree_param":{"num_deleted":"0","num_feature":"18","num_nodes":"17","size_leaf_vector":"1"}},{"base_weights":[8.062642E-2,-3.4558013E-1,2.0630983E-1,-6.1762863E-1,5.739342E-1,3.87436E-2,1.6125262E-1,-0E0,-4.5184303E-2,7.800094E-4,3.9528172E-2,4.001441E-1,-4.074923E-2,4.918626E-1,-4.0659994E-2,9.0090835E-1,1.744965E-1,-4.7165373E-1,2.951067E-1,-1.0100614E-3,4.099964E-2,4.826092E-2,-8.326602E-3,-4.1527405E-2,1.553947E-2,-4.410776E-2,-1.6212004E-3,-4.2315304E-2,1.9850317E-2],"categories":[],"categories_nodes":[],"categories_segments":[],"categories_sizes":[],"default_left":[0,0,0,0,0,0,0,0,0,0,0,0,0,0,0,0,0,0,0,0,0,0,0,0,0,0,0,0,0],"id":45,"left_children":[1,3,5,7,9,-1,11,13,-1,-1,-1,15,17,19,-1,21,23,25,27,-1,-1,-1,-1,-1,-1,-1,-1,-1,-1],"loss_changes":[1.3810925E1,1.5033766E1,6.5688143E0,1.4441034E1,3.0560732E0,0E0,9.187321E0,1.1431955E1,0E0,0E0,0E0,9.571687E0,1.5099584E1,4.356238E0,0E0,9.388405E0,1.6268646E1,1.2285239E1,1.6392641E1,0E0,0E0,0E0,0E0,0E0,0E0,0E0,0E0,0E0,0E0],"parents":[2147483647,0,0,1,1,2,2,3,3,4,4,6,6,7,7,11,11,12,12,13,13,15,15,16,16,17,17,18,18],"right_children":[2,4,6,8,10,-1,12,14,-1,-1,-1,16,18,20,-1,22,24,26,28,-1,-1,-1,-1,-1,-1,-1,-1,-1,-1],"split_conditions":[-7.55183E-2,4.7402554E3,3.3695527E3,-9.450177E-2,-4.408E3,3.87436E-2,3.5569105E-1,7.8845465E-1,-4.5184303E-2,7.800094E-4,3.9528172E-2,3.0901223E-2,2.450843E-2,-3.4923E3,-4.0659994E-2,2.3547653E-2,-2.0773662E-2,4.7945204E-1,4.1782448E-1,-1.0100614E-3,4.099964E-2,4.826092E-2,-8.326602E-3,-4.1527405E-2,1.553947E-2,-4.410776E-2,-1.6212004E-3,-4.2315304E-2,1.9850317E-2],"split_indices":[5,15,15,0,2,0,14,14,0,0,0,0,0,2,0,7,5,17,14,0,0,0,0,0,0,0,0,0,0],"split_type":[0,0,0,0,0,0,0,0,0,0,0,0,0,0,0,0,0,0,0,0,0,0,0,0,0,0,0,0,0],"sum_hessian":[2.5575383E2,5.766388E1,1.9808995E2,4.4835777E1,1.28281E1,9.787541E0,1.8830241E2,2.0815828E1,2.4019949E1,6.0370026E0,6.7910976E0,8.605095E1,1.0225146E2,1.43448E1,6.471029E0,2.566303E1,6.038792E1,4.4741436E1,5.7510025E1,7.6701303E0,6.6746693E0,2.0120855E1,5.542176E0,8.4099455E0,5.1977974E1,1.743377E1,2.7307665E1,6.8278766E0,5.0682148E1],"tree_param":{"num_deleted":"0","num_feature":"18","num_nodes":"29","size_leaf_vector":"1"}},{"base_weights":[5.936156E-2,-3.2654026E-1,2.0888598E-1,-5.8477116E-1,5.863328E-1,1.4145158E-1,9.322438E-1,-2.543581E-1,-4.6454567E-2,-1.4406116E-2,4.87644E-2,-4.8026484E-2,1.9753987E-1,5.530063E-2,1.4805927E-2,-4.397238E-2,2.8064292E-2,2.714378E-1,-5.230604E-1,-1.0218536E-2,4.397595E-2,-9.892563E-3,1.4216017E-2,3.6837187E-2,-5.2766208E-2],"categories":[],"categories_nodes":[],"categories_segments":[],"categories_sizes":[],"default_left":[0,0,0,0,0,0,0,0,0,0,0,0,0,0,0,0,0,0,0,0,0,0,0,0,0],"id":46,"left_children":[1,3,5,7,9,11,13,15,-1,-1,-1,-1,17,-1,-1,-1,19,21,23,-1,-1,-1,-1,-1,-1],"loss_changes":[1.50447235E1,1.7490566E1,8.931807E0,1.0477383E1,1.0379459E1,1.3181149E1,3.2934961E0,9.160681E0,0E0,0E0,0E0,0E0,9.023722E0,0E0,0E0,0E0,9.242259E0,6.7405195E0,1.9386883E1,0E0,0E0,0E0,0E0,0E0,0E0],"parents":[2147483647,0,0,1,1,2,2,3,3,4,4,5,5,6,6,7,7,12,12,16,16,17,17,18,18],"right_children":[2,4,6,8,10,12,14,16,-1,-1,-1,-1,18,-1,-1,-1,20,22,24,-1,-1,-1,-1,-1,-1],"split_conditions":[-6.202991E-2,4.7163315E3,5.467796E-1,5.60989E-3,-6.3183587E-3,-6.72615E-2,-1.5873017E-2,4.0387131E3,-4.6454567E-2,-1.4406116E-2,4.87644E-2,-4.8026484E-2,4.2474607E-1,5.530063E-2,1.4805927E-2,-4.397238E-2,-4.6381466E-3,1.890411E-1,-1.3559014E-2,-1.0218536E-2,4.397595E-2,-9.892563E-3,1.4216017E-2,3.6837187E-2,-5.2766208E-2],"split_indices":[5,15,6,4,4,4,5,15,0,0,0,0,6,0,0,0,4,17,4,0,0,0,0,0,0],"split_type":[0,0,0,0,0,0,0,0,0,0,0,0,0,0,0,0,0,0,0,0,0,0,0,0,0],"sum_hessian":[2.5875433E2,7.174298E1,1.8701134E2,5.6289055E1,1.5453926E1,1.722841E2,1.4727241E1,3.680993E1,1.9479128E1,6.301368E0,9.152558E0,6.02098E0,1.6626312E2,7.2678123E0,7.4594283E0,8.585494E0,2.8224434E1,1.5148985E2,1.4773271E1,2.2846369E1,5.3780656E0,2.0666733E1,1.3082312E2,5.1498446E0,9.6234255E0],"tree_param":{"num_deleted":"0",